svm_type c_svc
kernel_type linear
nr_class 4
total_sv 4055
rho -0.9998384293729247 -0.9998296232430012 -0.9998860710948078 -0.5221493476490304 -0.5727121786749703 -0.09900780759590737
label 1 2 3 4
nr_sv 1862 1387 439 367
SV
0.005792384046437698 0.002002226585148327 0.001165117623144371 1:0.78018105 2:3.0394263 3:2.754896 4:1.1890669 5:4.1852207 8:3.675137 10:2.33899 11:4.7223396 13:3.7523031 14:3.073438 15:0.8185046 16:3.656774 1:0.78018105 2:3.0394263 18:3.4109786 20:3.6365077 21:0.19293088 22:2.8816297 23:3.7844877 24:2.9154065 25:2.4793017 24:2.9154065 2:3.0394263 27:5.112311 32:2.8614476 33:2.7011507 25:2.4793017 34:4.8526735 33:2.7011507 35:3.2414815 36:3.6794872 38:2.8438606 39:4.3828516 42:2.3900511 44:2.7017636 22:2.8816297 45:2.2575634 24:2.9154065 2:3.0394263 46:4.5739202 5:4.1852207 49:3.2289076 50:2.9214702 42:2.3900511 54:3.2527905 55:4.194662 18:3.4109786 56:0.91637856 57:4.520235 85:0.21601525 100:2.9619732 85:0.21601525 
6.967088791740355E-4 1.5167179773835978E-4 5.566314323494863E-4 211:4.089246 212:3.6553931 732:3.1119163 228:1.8044066 733:2.944725 33:2.7011507 734:4.662342 735:1.5747322 499:2.4878414 509:4.4547334 737:4.3024454 233:3.0097525 738:3.644501 22:2.8816297 740:4.3978286 257:3.6010354 32:2.8614476 557:3.0933836 743:1.043845 744:2.1288896 1:0.78018105 2:3.0394263 746:1.6452278 252:3.2356732 1:0.78018105 747:4.8112807 21:0.19293088 18:3.4109786 738:3.644501 750:3.7505832 752:3.2393606 2:3.0394263 753:2.2673256 257:3.6010354 754:5.03976 268:3.9893508 769:0.888756 786:0.77543473 792:2.1657693 
0.0 0.0 0.0012219904222598745 265:2.4556901 875:4.180576 879:3.099857 881:1.6010718 578:4.4055157 564:2.1910028 568:4.4294276 570:4.278642 571:4.662342 885:4.662342 719:3.6351898 
0.03289385190013637 0.01655824115605676 0.017568961350006785 804:2.6102564 514:3.825324 378:4.2560763 32:2.8614476 212:3.6553931 965:2.3485427 966:3.97186 967:2.4607687 
0.0 0.004179588434137326 0.005833716447767701 378:4.2560763 32:2.8614476 212:3.6553931 965:2.3485427 977:3.6418202 
0.0048655457152003805 0.0015280921987927002 1.9815240457463692E-4 211:4.089246 965:2.3485427 966:3.97186 223:0.15908295 1006:1.5166944 378:4.2560763 32:2.8614476 212:3.6553931 22:2.8816297 1009:0.55121386 212:3.6553931 22:2.8816297 1012:4.290381 1014:3.2136855 1015:4.9232545 21:0.19293088 15:0.8185046 1016:2.2263331 252:3.2356732 1017:1.5889547 1019:2.236093 1020:3.3263342 
0.0 7.646317419828118E-5 3.7177882531922796E-4 1643:3.343471 15:0.8185046 1644:3.6325655 1645:2.8222764 266:3.7645376 1646:4.209221 1647:3.5232759 1648:4.6351895 1649:5.0745225 1650:3.0627406 1652:2.7197738 
9.747989231757611E-4 3.478575673564985E-4 4.436767475839214E-4 211:4.089246 212:3.6553931 22:2.8816297 2047:3.4245389 517:2.116038 977:3.6418202 212:3.6553931 246:3.4599767 504:3.8505075 2050:2.2715776 254:3.811281 212:3.6553931 509:4.4547334 22:2.8816297 2051:2.0862608 1960:4.100625 18:3.4109786 517:2.116038 2053:3.069485 33:2.7011507 1215:3.9863863 2054:3.0427773 2055:4.9232545 2054:3.0427773 564:2.1910028 568:4.4294276 2059:3.1103413 2060:2.6910062 2064:4.0533333 578:4.4055157 
0.0013401573683623055 4.5574735924681995E-4 3.5805641799937637E-4 373:2.9212158 2173:0.8334763 491:3.8192499 1:0.78018105 2176:2.3773656 492:1.6338232 214:3.312344 22:2.8816297 2178:5.0745225 2179:3.4788425 2183:3.354363 252:3.2356732 512:4.1537037 216:3.9335954 260:2.3592155 2185:3.9834418 2:3.0394263 33:2.7011507 2186:4.4816055 252:3.2356732 2189:2.6640263 2190:1.7594972 2192:3.9923356 24:2.9154065 2193:3.2566266 1070:3.5253146 2194:3.9495835 2195:2.7151613 252:3.2356732 21:0.19293088 246:3.4599767 2197:2.4585724 1200:1.1551261 2199:2.8813977 485:3.020804 486:0.7694058 509:4.4547334 2:3.0394263 2200:3.4947388 2203:3.1459558 924:3.4599767 214:3.312344 2204:3.8865318 212:3.6553931 2205:3.0907457 1729:3.0106888 1965:3.8356402 2206:3.197055 2:3.0394263 1175:4.02337 2208:2.4020398 564:2.1910028 568:4.4294276 2212:4.622225 2213:2.936483 2214:3.451273 2215:3.2969747 2216:1.9558169 2219:4.7557635 2220:2.8198535 2221:3.7957687 578:4.4055157 2266:1.6655761 582:1.8967215 2309:5.0745225 2310:2.972718 
0.0025971435072117024 0.0018442577069356805 0.0014783642018127046 211:4.089246 1048:1.6972464 2399:4.1899157 212:3.6553931 2400:3.1796527 2401:4.1451035 245:3.6623418 224:2.1074426 2403:2.6373005 1122:1.5216514 212:3.6553931 216:3.9335954 2405:1.9469587 525:1.7758694 378:4.2560763 32:2.8614476 212:3.6553931 214:3.312344 246:3.4599767 219:3.258834 252:3.2356732 378:4.2560763 32:2.8614476 212:3.6553931 246:3.4599767 2:3.0394263 2408:3.9468777 1014:3.2136855 1015:4.9232545 21:0.19293088 22:2.8816297 2409:1.5297828 1189:1.586336 215:4.3148546 1017:1.5889547 2410:2.425431 2411:2.5480754 2427:3.957804 
8.326995799316342E-4 2.18217671154342E-4 5.097526243315197E-4 212:3.6553931 213:3.309848 216:3.9335954 217:3.3302293 33:2.7011507 25:2.4793017 2543:3.3940358 2544:2.3762767 1937:3.4385362 2545:2.0459511 1956:3.7112238 33:2.7011507 1092:4.662342 212:3.6553931 213:3.309848 1189:1.586336 2547:2.800172 2548:2.5629733 266:3.7645376 246:3.4599767 1937:3.4385362 255:3.7304578 2549:4.3211946 213:3.309848 2550:3.2462924 2552:4.5855017 1960:4.100625 2553:2.3870678 2555:5.03976 981:2.9455311 33:2.7011507 509:4.4547334 2557:4.128398 212:3.6553931 360:4.3276286 252:3.2356732 228:1.8044066 254:3.811281 5:4.1852207 2545:2.0459511 2560:2.1140516 2555:5.03976 212:3.6553931 213:3.309848 2561:1.7671334 2562:4.8984313 1141:2.221433 212:3.6553931 544:1.2602526 1713:0.94099945 2564:3.374829 965:2.3485427 2565:1.2062699 2566:4.597401 255:3.7304578 44:2.7017636 266:3.7645376 1965:3.8356402 2567:3.6096356 255:3.7304578 2569:2.154486 18:3.4109786 257:3.6010354 254:3.811281 1089:2.957251 44:2.7017636 490:4.1537037 491:3.8192499 2571:3.3407903 2572:3.6083965 33:2.7011507 1215:3.9863863 2573:1.4351271 2574:4.7387304 2578:2.5539296 2580:4.791976 
0.0045022473542366695 0.0011387590366271488 5.329891603260298E-4 212:3.6553931 213:3.309848 216:3.9335954 2770:3.3468456 2771:4.3276286 1690:2.134255 252:3.2356732 32:2.8614476 557:3.0933836 254:3.811281 1141:2.221433 977:3.6418202 263:3.966183 2772:3.957804 212:3.6553931 2773:3.6273644 
0.006152073014731623 0.001529083771096845 0.005986119892250825 257:3.6010354 557:3.0933836 1089:2.957251 22:2.8816297 966:3.97186 2:3.0394263 255:3.7304578 2791:1.6915303 2792:3.3634183 
0.0018747508565800364 6.566176452880631E-4 7.095539595946711E-4 356:2.327046 1575:2.160135 252:3.2356732 1576:1.711569 378:4.2560763 2836:2.7252448 22:2.8816297 2837:1.595031 2:3.0394263 806:2.8364763 21:0.19293088 810:4.1537037 20:3.6365077 24:2.9154065 246:3.4599767 2839:3.6665652 1:0.78018105 808:4.7065454 499:2.4878414 806:2.8364763 370:1.8125066 213:3.309848 212:3.6553931 555:2.1700773 2845:3.0308328 268:3.9893508 2847:3.1255393 564:2.1910028 568:4.4294276 570:4.278642 571:4.662342 885:4.662342 2064:4.0533333 578:4.4055157 719:3.6351898 
0.006618427102220424 9.388403527210973E-5 0.002008342333860966 356:2.327046 358:4.112311 359:3.941516 233:3.0097525 1113:2.416193 10:2.33899 2893:4.7065454 5:4.1852207 1061:2.5838618 2:3.0394263 2894:4.9776125 5:4.1852207 2545:2.0459511 213:3.309848 225:4.267213 2895:1.7191826 2896:1.1626903 557:3.0933836 1190:2.4001205 228:1.8044066 252:3.2356732 228:1.8044066 232:1.418472 32:2.8614476 373:2.9212158 2901:4.3276286 262:2.6212041 56:0.91637856 254:3.811281 2902:3.4062917 33:2.7011507 1215:3.9863863 
2.816770259964186E-4 0.0 0.0 3057:2.667415 219:3.258834 1016:2.2263331 245:3.6623418 1695:1.3619848 1707:4.42131 1707:4.42131 3066:3.562639 492:1.6338232 3066:3.562639 3071:3.7370632 263:3.966183 257:3.6010354 2902:3.4062917 22:2.8816297 3072:0.8957132 3073:1.5784695 3075:1.9310652 252:3.2356732 499:2.4878414 981:2.9455311 3076:2.9887562 263:3.966183 57:4.520235 1189:1.586336 233:3.0097525 1967:3.0774274 1015:4.9232545 21:0.19293088 1695:1.3619848 3079:2.6914554 3080:1.6527677 564:2.1910028 568:4.4294276 570:4.278642 571:4.662342 885:4.662342 578:4.4055157 3127:4.3276286 719:3.6351898 
0.0 0.0 2.1501633030626482E-4 2126:3.963372 212:3.6553931 3145:3.410194 365:1.1510106 212:3.6553931 3146:4.562639 360:4.3276286 32:2.8614476 212:3.6553931 965:2.3485427 3149:2.3663847 44:2.7017636 1160:1.1789019 966:3.97186 3145:3.410194 42:2.3900511 268:3.9893508 3155:1.5342555 3156:3.2187004 
0.007775904675284295 0.0020264274390058624 7.864252402257498E-5 211:4.089246 18:3.4109786 257:3.6010354 15:0.8185046 3191:2.4675143 3192:1.9648876 242:1.7729318 1650:3.0627406 3194:1.7358004 3195:2.9086847 
8.91184243481605E-4 0.0012932283172361234 2.924151480943244E-4 804:2.6102564 514:3.825324 212:3.6553931 3210:3.580832 965:2.3485427 3211:3.811281 3212:3.1247258 21:0.19293088 18:3.4109786 3214:4.4055157 212:3.6553931 24:2.9154065 22:2.8816297 3215:3.8936322 242:1.7729318 981:2.9455311 254:3.811281 967:2.4607687 224:2.1074426 3216:3.6418202 1175:4.02337 3217:3.491891 22:2.8816297 3218:3.339456 20:3.6365077 544:1.2602526 15:0.8185046 2408:3.9468777 22:2.8816297 245:3.6623418 261:3.1691763 22:2.8816297 2408:3.9468777 15:0.8185046 3223:2.799403 2:3.0394263 3224:4.2560763 1175:4.02337 3225:4.6351895 378:4.2560763 3226:3.9441886 212:3.6553931 24:2.9154065 1713:0.94099945 3227:4.500491 22:2.8816297 3228:1.6635344 22:2.8816297 3230:2.9463387 2:3.0394263 3231:1.1233711 3232:3.309848 252:3.2356732 18:3.4109786 3233:3.908191 499:2.4878414 2902:3.4062917 3235:5.0745225 268:3.9893508 3236:2.3403895 
0.0018647321483891552 6.258751889135499E-4 5.206793372670363E-4 356:2.327046 1575:2.160135 252:3.2356732 1576:1.711569 265:2.4556901 3510:3.3733864 490:4.1537037 965:2.3485427 966:3.97186 2179:3.4788425 807:3.7716866 1014:3.2136855 1015:4.9232545 233:3.0097525 1967:3.0774274 33:2.7011507 1215:3.9863863 3514:2.7131093 3515:2.0644698 564:2.1910028 568:4.4294276 570:4.278642 571:4.662342 2064:4.0533333 578:4.4055157 719:3.6351898 
0.0 0.0 0.0025652781402089007 265:2.4556901 263:3.966183 373:2.9212158 1160:1.1789019 25:2.4793017 5:4.1852207 3785:2.4796696 2:3.0394263 3786:3.355744 3788:3.896025 
8.357121984305956E-4 9.931561964801649E-4 8.865685389222008E-4 804:2.6102564 514:3.825324 32:2.8614476 373:2.9212158 246:3.4599767 245:3.6623418 2:3.0394263 2565:1.2062699 3823:3.4760966 3824:2.3245285 252:3.2356732 245:3.6623418 18:3.4109786 3826:1.2854413 3827:3.8073506 3828:3.8841906 212:3.6553931 924:3.4599767 822:2.5204372 21:0.19293088 1695:1.3619848 3381:1.4096454 252:3.2356732 33:2.7011507 1215:3.9863863 3830:5.0745225 386:2.0920627 
0.002074255398887884 0.002340803027363482 0.0011526994056813113 356:2.327046 1575:2.160135 252:3.2356732 1576:1.711569 24:2.9154065 3858:4.622225 1070:3.5253146 3861:3.5762117 3862:4.4377003 257:3.6010354 33:2.7011507 523:1.8466357 3864:4.3407903 1707:4.42131 3865:3.9805174 3866:4.7387304 3868:4.361312 257:3.6010354 557:3.0933836 1089:2.957251 1057:0.7764356 3871:3.0275722 227:1.8104329 15:0.8185046 1070:3.5253146 3875:3.0774274 252:3.2356732 263:3.966183 257:3.6010354 255:3.7304578 924:3.4599767 21:0.19293088 1695:1.3619848 3726:2.2109022 33:2.7011507 879:3.099857 3878:4.472462 
0.0 0.0 0.0011990742211312956 3935:3.1329281 145:4.112311 3936:2.6923552 3937:3.1567543 3938:4.6765823 3939:2.692055 138:2.3584495 3940:3.0288734 3941:3.4368658 3942:1.8298124 3944:1.689378 2220:2.8198535 136:3.2874162 144:3.1880317 24:2.9154065 3946:3.9207075 138:2.3584495 3940:3.0288734 3947:3.3407903 3948:2.2902617 3949:2.9079442 129:3.8795457 137:4.278642 3951:3.2993975 3952:4.622225 3938:4.6765823 3939:2.692055 3972:4.0818214 3973:4.1899157 3977:4.520235 3979:4.6765823 
8.4987105570347E-4 2.2726156623057304E-4 0.0 356:2.327046 4137:0.95755786 4138:4.9776125 1014:3.2136855 1015:4.9232545 21:0.19293088 1713:0.94099945 4139:4.530454 485:3.020804 212:3.6553931 213:3.309848 744:2.1288896 3472:3.4643948 255:3.7304578 244:4.6765823 216:3.9335954 215:4.3148546 4140:3.2604969 33:2.7011507 229:1.8453526 3472:3.4643948 2:3.0394263 4142:4.597401 1190:2.4001205 967:2.4607687 2121:2.7767618 1695:1.3619848 4143:4.1852207 4144:3.2484477 264:4.8314843 378:4.2560763 4145:1.5682768 3472:3.4643948 265:2.4556901 977:3.6418202 490:4.1537037 3472:3.4643948 522:0.52305406 4149:2.7512703 4150:1.3329047 2454:2.9099216 967:2.4607687 4151:2.9941363 490:4.1537037 33:2.7011507 2:3.0394263 4152:4.9495835 4153:2.8581364 4154:1.9660137 24:2.9154065 2116:2.9531267 544:1.2602526 4006:2.2046065 4155:3.7387302 252:3.2356732 490:4.1537037 374:1.831836 1713:0.94099945 44:2.7017636 490:4.1537037 56:0.91637856 4158:2.5210438 977:3.6418202 1112:1.3882288 1711:3.966183 925:3.4327178 1713:0.94099945 1714:2.0670235 359:3.941516 4160:3.966183 1946:2.323179 21:0.19293088 4161:4.029852 233:3.0097525 1075:5.0075755 1070:3.5253146 1948:5.112311 750:3.7505832 1190:2.4001205 4163:2.916663 1714:2.0670235 359:3.941516 1730:3.607161 1731:3.3374624 1732:1.5284735 1733:3.0324721 1734:3.2393606 1050:4.530454 359:3.941516 1736:2.9555967 1737:3.8681464 1741:2.9199462 1742:2.4472418 1741:2.9199462 1743:2.4747303 1744:4.158068 1751:5.0745225 1714:2.0670235 485:3.020804 266:3.7645376 3562:1.3593341 4168:1.8422676 4138:4.9776125 804:2.6102564 4170:2.7424207 1714:2.0670235 359:3.941516 485:3.020804 4171:4.6351895 213:3.309848 212:3.6553931 216:3.9335954 2944:2.0757546 3472:3.4643948 214:3.312344 212:3.6553931 22:2.8816297 2051:2.0862608 1962:3.7454636 4172:1.7591819 252:3.2356732 254:3.811281 4173:2.4702964 233:3.0097525 4174:5.112311 4175:2.6246583 213:3.309848 212:3.6553931 265:2.4556901 244:4.6765823 2122:2.5921252 216:3.9335954 2944:2.0757546 3472:3.4643948 212:3.6553931 4176:4.8112807 212:3.6553931 18:3.4109786 33:2.7011507 216:3.9335954 1057:0.7764356 4180:4.7223396 4181:2.1568418 254:3.811281 1141:2.221433 214:3.312344 212:3.6553931 33:2.7011507 807:3.7716866 229:1.8453526 4184:3.301834 2:3.0394263 4185:4.8984313 4186:2.838994 360:4.3276286 252:3.2356732 255:3.7304578 4188:2.865902 388:3.5014572 3375:2.1823814 4190:2.1901991 257:3.6010354 265:2.4556901 3375:2.1823814 1707:4.42131 255:3.7304578 4142:4.597401 4196:3.0038688 1141:2.221433 977:3.6418202 18:3.4109786 32:2.8614476 212:3.6553931 1950:2.4739125 924:3.4599767 21:0.19293088 1695:1.3619848 3726:2.2109022 252:3.2356732 228:1.8044066 804:2.6102564 514:3.825324 822:2.5204372 4168:1.8422676 4138:4.9776125 965:2.3485427 875:4.180576 4255:3.4547336 4259:2.319601 1879:4.622225 1883:1.3797929 1896:4.472462 4303:3.6312594 4022:1.7763791 4329:1.8643377 4022:1.7763791 4371:3.4452827 
0.0 9.118090174110889E-4 8.895957649229066E-4 378:4.2560763 32:2.8614476 212:3.6553931 22:2.8816297 1070:3.5253146 747:4.8112807 2478:1.6655478 4407:4.0637984 245:3.6623418 810:4.1537037 924:3.4599767 252:3.2356732 3788:3.896025 4409:4.128398 
0.0012127632441290843 8.486721143561236E-4 4.592762749866996E-4 356:2.327046 1575:2.160135 252:3.2356732 1576:1.711569 1070:3.5253146 4473:0.8163702 388:3.5014572 4474:0.84367764 223:0.15908295 216:3.9335954 3216:3.6418202 4476:3.7223399 4477:1.4950532 252:3.2356732 2687:2.8903043 395:3.8440735 4479:2.829627 42:2.3900511 1070:3.5253146 1649:5.0745225 750:3.7505832 395:3.8440735 4486:3.4504123 24:2.9154065 4487:1.9362986 22:2.8816297 4489:4.9495835 523:1.8466357 4491:1.8002298 522:0.52305406 4492:1.4882634 249:3.4779253 4493:3.7505832 268:3.9893508 564:2.1910028 568:4.4294276 570:4.278642 571:4.662342 2219:4.7557635 2220:2.8198535 2221:3.7957687 578:4.4055157 719:3.6351898 
4.714215241311843E-4 8.999283620748784E-5 3.399454169720898E-4 356:2.327046 212:3.6553931 213:3.309848 2810:1.3762261 4616:3.8377333 744:2.1288896 224:2.1074426 4617:3.1158788 4618:4.490946 4619:2.4763706 2773:3.6273644 1706:3.7863476 2124:3.8912525 245:3.6623418 4622:3.264402 513:3.355053 1092:4.662342 4623:4.33416 2:3.0394263 4624:2.406214 4625:2.0324392 4622:3.264402 513:3.355053 1092:4.662342 212:3.6553931 213:3.309848 230:1.2399162 264:4.8314843 485:3.020804 4618:4.490946 499:2.4878414 22:2.8816297 247:4.9776125 817:4.375552 22:2.8816297 258:3.675137 1729:3.0106888 490:4.1537037 3510:3.3733864 2773:3.6273644 44:2.7017636 490:4.1537037 1057:0.7764356 265:2.4556901 4628:3.0774274 981:2.9455311 212:3.6553931 744:2.1288896 1057:0.7764356 4630:2.8834908 244:4.6765823 254:3.811281 254:3.811281 2122:2.5921252 246:3.4599767 4633:3.4661746 1937:3.4385362 214:3.312344 2:3.0394263 246:3.4599767 4635:3.8888857 4618:4.490946 1119:3.038426 1075:5.0075755 1190:2.4001205 2547:2.800172 255:3.7304578 4636:3.8483522 257:3.6010354 1729:3.0106888 263:3.966183 32:2.8614476 1057:0.7764356 4638:2.7352366 244:4.6765823 2503:3.1796527 33:2.7011507 1215:3.9863863 4639:3.5961964 4725:2.1802526 
0.002391206950839827 0.0012571222198377405 0.0010574596293265307 356:2.327046 1575:2.160135 252:3.2356732 1576:1.711569 212:3.6553931 1190:2.4001205 4733:1.6406326 1009:0.55121386 24:2.9154065 1200:1.1551261 2545:2.0459511 33:2.7011507 4736:3.2388318 252:3.2356732 213:3.309848 1141:2.221433 1668:4.149382 378:4.2560763 24:2.9154065 4737:4.791976 33:2.7011507 262:2.6212041 808:4.7065454 1729:3.0106888 24:2.9154065 4740:4.7734923 4741:2.222195 4747:2.5038822 
0.0 0.0018446401889030473 0.016060397464859492 4776:4.296371 
6.197668207930754E-4 1.1215548928117113E-4 1.8284241744919734E-4 211:4.089246 212:3.6553931 4777:0.8362295 24:2.9154065 523:1.8466357 4778:3.292767 24:2.9154065 4779:4.413341 13:3.7523031 14:3.073438 15:0.8185046 33:2.7011507 22:2.8816297 2545:2.0459511 257:3.6010354 1190:2.4001205 4783:3.4742758 252:3.2356732 13:3.7523031 2685:3.6378298 22:2.8816297 4784:2.788965 4785:2.946608 212:3.6553931 213:3.309848 4786:1.746891 24:2.9154065 4788:2.7942476 22:2.8816297 231:2.9947383 4790:3.2166874 3378:2.2201152 744:2.1288896 212:3.6553931 4196:3.0038688 2685:3.6378298 22:2.8816297 4792:4.290381 22:2.8816297 1070:3.5253146 1210:3.134172 4793:2.522869 22:2.8816297 2545:2.0459511 1175:4.02337 4796:3.0246584 245:3.6623418 807:3.7716866 2743:4.510251 252:3.2356732 22:2.8816297 4797:2.0896952 257:3.6010354 254:3.811281 4799:2.4560385 360:4.3276286 1190:2.4001205 56:0.91637856 541:1.6908566 1189:1.586336 4800:1.6000875 4801:4.026599 263:3.966183 32:2.8614476 212:3.6553931 57:4.520235 266:3.7645376 246:3.4599767 4803:3.3978288 4804:2.4416435 255:3.7304578 4806:4.472462 18:3.4109786 2743:4.510251 255:3.7304578 4808:3.3030574 2:3.0394263 4809:3.1824276 254:3.811281 4810:2.3506565 557:3.0933836 4811:3.9441886 262:2.6212041 4812:4.3828516 4153:2.8581364 4813:3.5560083 212:3.6553931 371:2.524804 2740:4.194662 4814:3.516214 214:3.312344 373:2.9212158 246:3.4599767 56:0.91637856 32:2.8614476 4816:2.2260766 557:3.0933836 4819:3.2289076 21:0.19293088 246:3.4599767 4803:3.3978288 263:3.966183 371:2.524804 557:3.0933836 806:2.8364763 1057:0.7764356 1:0.78018105 4820:4.116277 252:3.2356732 232:1.418472 4821:2.30453 255:3.7304578 4808:3.3030574 262:2.6212041 4824:3.123509 4825:3.8704023 4826:1.0735933 2:3.0394263 4803:3.3978288 24:2.9154065 2:3.0394263 4827:4.6765823 1176:1.8052819 4828:4.128398 230:1.2399162 255:3.7304578 57:4.520235 378:4.2560763 32:2.8614476 373:2.9212158 557:3.0933836 807:3.7716866 4803:3.3978288 2501:3.5843296 1014:3.2136855 1015:4.9232545 1189:1.586336 215:4.3148546 3788:3.896025 4830:1.2964314 4837:1.9031616 4843:3.8232899 4459:0.611162 4891:4.3024454 2142:2.811676 85:0.21601525 4971:3.1673799 
0.0 0.0 1.0531336562710455E-4 804:2.6102564 514:3.825324 378:4.2560763 32:2.8614476 212:3.6553931 22:2.8816297 49:3.2289076 2:3.0394263 4987:3.5473223 24:2.9154065 1965:3.8356402 966:3.97186 977:3.6418202 879:3.099857 4830:1.2964314 4988:2.1663055 4989:2.066668 4998:4.3407903 
6.666686771658561E-4 0.0 0.0 213:3.309848 212:3.6553931 228:1.8044066 5001:0.8656311 242:1.7729318 1016:2.2263331 252:3.2356732 491:3.8192499 223:0.15908295 254:3.811281 5003:3.3454926 212:3.6553931 15:0.8185046 5004:2.4386199 265:2.4556901 1724:3.9805174 490:4.1537037 33:2.7011507 1215:3.9863863 5005:2.829421 5006:4.7387304 5007:4.368374 1208:2.4992383 564:2.1910028 568:4.4294276 570:4.278642 571:4.662342 885:4.662342 578:4.4055157 719:3.6351898 
0.0017275126938719747 2.2791377378469886E-5 0.0 211:4.089246 1048:1.6972464 212:3.6553931 213:3.309848 56:0.91637856 252:3.2356732 214:3.312344 212:3.6553931 18:3.4109786 5050:2.9619732 217:3.3302293 378:4.2560763 4171:4.6351895 213:3.309848 265:2.4556901 212:3.6553931 266:3.7645376 3381:1.4096454 212:3.6553931 965:2.3485427 5051:4.2043138 252:3.2356732 5053:2.6877263 5054:3.6096356 32:2.8614476 1014:3.2136855 1015:4.9232545 233:3.0097525 1967:3.0774274 1650:3.0627406 5055:2.2889552 
0.00174169236109554 6.701355192600204E-4 5.764486887556411E-4 356:2.327046 1575:2.160135 252:3.2356732 1576:1.711569 212:3.6553931 5133:4.149382 18:3.4109786 4785:2.946608 252:3.2356732 213:3.309848 965:2.3485427 966:3.97186 486:0.7694058 212:3.6553931 15:0.8185046 5136:3.3571293 2:3.0394263 5138:1.9206567 33:2.7011507 807:3.7716866 1707:4.42131 2986:3.2484477 966:3.97186 1111:4.361312 1668:4.149382 5138:1.9206567 1707:4.42131 1176:1.8052819 378:4.2560763 986:1.2191647 22:2.8816297 5145:2.596076 255:3.7304578 5146:2.956699 1014:3.2136855 1015:4.9232545 21:0.19293088 22:2.8816297 5147:3.1052618 268:3.9893508 5148:1.7298682 
0.005451194272006653 0.001770868345209308 3.041187299939354E-4 212:3.6553931 213:3.309848 965:2.3485427 1182:4.284472 5242:1.6306859 262:2.6212041 15:0.8185046 33:2.7011507 25:2.4793017 378:4.2560763 32:2.8614476 212:3.6553931 18:3.4109786 5246:3.8548505 879:3.099857 5247:2.1928525 5248:4.1624775 
0.004225551512030528 0.0 0.0 211:4.089246 358:4.112311 359:3.941516 522:0.52305406 5306:4.551644 245:3.6623418 246:3.4599767 578:4.4055157 5307:2.465551 18:3.4109786 242:1.7729318 22:2.8816297 966:3.97186 42:2.3900511 254:3.811281 5308:2.5738058 4153:2.8581364 4154:1.9660137 4826:1.0735933 263:3.966183 2687:2.8903043 18:3.4109786 33:2.7011507 1215:3.9863863 4255:3.4547336 
4.2917975800676073E-4 1.729366032085193E-4 1.821241703962672E-4 804:2.6102564 514:3.825324 490:4.1537037 224:2.1074426 2116:2.9531267 245:3.6623418 5401:4.3828516 212:3.6553931 965:2.3485427 966:3.97186 2744:1.9830606 32:2.8614476 213:3.309848 212:3.6553931 557:3.0933836 5404:1.0521111 5405:2.8400474 22:2.8816297 212:3.6553931 1190:2.4001205 254:3.811281 1141:2.221433 5406:3.2891924 32:2.8614476 252:3.2356732 1190:2.4001205 5332:2.5969188 813:2.5818784 1141:2.221433 231:2.9947383 2902:3.4062917 924:3.4599767 33:2.7011507 1215:3.9863863 5407:3.3036704 5408:3.511239 
0.006193504848543031 0.0012441609124290343 2.8904544258176814E-4 22:2.8816297 5442:4.8112807 249:3.4779253 257:3.6010354 822:2.5204372 5443:4.3978286 246:3.4599767 557:3.0933836 2124:3.8912525 4786:1.746891 252:3.2356732 5455:2.440129 
0.0031332288938195458 0.0023352227316636508 0.0022406770078937867 356:2.327046 1575:2.160135 252:3.2356732 1576:1.711569 1:0.78018105 822:2.5204372 22:2.8816297 4489:4.9495835 5754:1.4387372 544:1.2602526 22:2.8816297 2178:5.0745225 1070:3.5253146 5756:4.0138245 252:3.2356732 1959:2.2589445 2:3.0394263 806:2.8364763 1:0.78018105 5757:4.6913056 33:2.7011507 1215:3.9863863 
0.007355300030004052 0.0019425005288024274 0.002367777462594868 356:2.327046 1575:2.160135 252:3.2356732 1576:1.711569 213:3.309848 965:2.3485427 5092:2.6643076 5779:3.4343724 1691:2.9412496 15:0.8185046 5782:2.6012788 987:2.1343381 231:2.9947383 925:3.4327178 252:3.2356732 216:3.9335954 5783:4.27289 5784:2.7908442 5798:3.2677772 
0.0021486983285875713 0.0 0.0 6110:2.1794221 6111:3.3104708 266:3.7645376 374:1.831836 266:3.7645376 378:4.2560763 986:1.2191647 1057:0.7764356 6114:4.3902755 2:3.0394263 1426:1.5111402 
9.348804487526462E-4 2.896935694773058E-4 9.746234719900499E-5 356:2.327046 1575:2.160135 6159:1.4336188 1576:1.711569 13:3.7523031 14:3.073438 10:2.33899 227:1.8104329 15:0.8185046 226:2.9523065 252:3.2356732 228:1.8044066 6162:3.1593864 6163:3.3387904 5779:3.4343724 264:4.8314843 216:3.9335954 266:3.7645376 228:1.8044066 6167:3.2367237 1:0.78018105 2:3.0394263 1649:5.0745225 6168:3.680947 255:3.7304578 6169:2.9695802 212:3.6553931 371:2.524804 1198:4.7387304 365:1.1510106 490:4.1537037 491:3.8192499 216:3.9335954 54:3.2527905 33:2.7011507 6171:2.5819948 6172:3.6623418 564:2.1910028 568:4.4294276 570:4.278642 571:4.662342 578:4.4055157 719:3.6351898 
0.005546729026285893 5.708129163519111E-4 4.110289021384978E-4 356:2.327046 358:4.112311 359:3.941516 21:0.19293088 228:1.8044066 6220:3.9495835 2:3.0394263 6222:4.2452188 21:0.19293088 216:3.9335954 523:1.8466357 229:1.8453526 6223:3.733748 212:3.6553931 822:2.5204372 356:2.327046 33:2.7011507 1215:3.9863863 6224:1.6452413 6225:3.8462076 6226:4.510251 564:2.1910028 568:4.4294276 570:4.278642 571:4.662342 2064:4.0533333 578:4.4055157 6241:4.6765823 719:3.6351898 
0.0038465498794844465 3.323334014075816E-4 0.003515253492893558 212:3.6553931 22:2.8816297 22:2.8816297 212:3.6553931 1085:2.4018857 2401:4.1451035 5959:2.1785476 213:3.309848 54:3.2527905 1052:1.288819 4407:4.0637984 33:2.7011507 5959:2.1785476 18:3.4109786 257:3.6010354 242:1.7729318 254:3.811281 2:3.0394263 527:3.5122294 378:4.2560763 1017:1.5889547 925:3.4327178 6261:2.0086627 6262:4.562639 6283:2.5915298 
0.001680301534389973 0.0 0.0027758612105763577 211:4.089246 6290:2.9758787 22:2.8816297 6292:3.1673799 1:0.78018105 6293:4.2560763 1960:4.100625 1017:1.5889547 925:3.4327178 5813:1.7983096 
4.605139084957001E-4 9.17869338437775E-4 0.0 1691:2.9412496 2:3.0394263 6513:4.9495835 257:3.6010354 21:0.19293088 15:0.8185046 2987:3.0884974 6516:2.798252 564:2.1910028 568:4.4294276 570:4.278642 571:4.662342 2220:2.8198535 2221:3.7957687 719:3.6351898 
8.383546817591793E-4 8.455907108537483E-4 5.857925994974666E-4 804:2.6102564 514:3.825324 244:4.6765823 525:1.7758694 255:3.7304578 6546:4.3978286 1713:0.94099945 6547:2.4759142 1707:4.42131 18:3.4109786 492:1.6338232 6549:2.5684686 2399:4.1899157 212:3.6553931 548:1.6261897 1965:3.8356402 1937:3.4385362 24:2.9154065 6551:2.6968822 266:3.7645376 491:3.8192499 6554:2.8479226 214:3.312344 216:3.9335954 22:2.8816297 18:3.4109786 492:1.6338232 1956:3.7112238 245:3.6623418 257:3.6010354 5333:2.4487813 242:1.7729318 216:3.9335954 233:3.0097525 6561:4.8112807 246:3.4599767 6563:2.7008443 254:3.811281 6564:3.044125 2501:3.5843296 268:3.9893508 6565:3.348883 6079:3.8888857 6583:2.265749 
0.0 2.034238422374499E-4 7.081235839028497E-4 6625:4.520235 6626:4.0331297 6628:2.7112238 228:1.8044066 6630:3.280383 6632:1.5962205 252:3.2356732 228:1.8044066 6634:4.9232545 6632:1.5962205 5530:3.6665652 6636:4.0331297 6638:3.7370632 5:4.1852207 23:3.7844877 23:3.7844877 252:3.2356732 6639:4.2506137 6640:2.7181778 233:3.0097525 6643:4.0745225 252:3.2356732 6644:4.0533333 22:2.8816297 6639:4.2506137 1954:3.563754 1953:3.7807915 6364:2.7239513 1:0.78018105 499:2.4878414 545:1.960579 257:3.6010354 557:3.0933836 6649:3.9156575 33:2.7011507 6650:4.7557635 245:3.6623418 228:1.8044066 6651:1.4173629 6652:1.8932029 249:3.4779253 6654:2.4643059 6655:3.6898105 255:3.7304578 6656:3.8570385 6675:4.2043138 6729:2.7647147 
9.768420017088075E-4 5.748916846495114E-4 9.956711144289549E-4 804:2.6102564 514:3.825324 212:3.6553931 213:3.309848 6857:1.4370576 525:1.7758694 212:3.6553931 4785:2.946608 509:4.4547334 244:4.6765823 228:1.8044066 261:3.1691763 21:0.19293088 266:3.7645376 378:4.2560763 6862:1.3339163 212:3.6553931 15:0.8185046 6863:3.339456 24:2.9154065 2:3.0394263 6864:3.5122294 1196:2.9294295 2195:2.7151613 807:3.7716866 6865:1.4947482 2:3.0394263 6866:2.499816 6867:1.5714242 548:1.6261897 6868:3.3835883 965:2.3485427 6869:2.7795053 1070:3.5253146 6870:3.3963075 6871:1.8530211 5:4.1852207 6872:3.640486 44:2.7017636 548:1.6261897 812:4.3978286 254:3.811281 1141:2.221433 6873:2.3062544 42:2.3900511 496:2.0372286 6874:3.7065456 1057:0.7764356 6875:1.8953537 6876:2.9547718 257:3.6010354 18:3.4109786 21:0.19293088 6877:2.298548 6878:2.1538339 244:4.6765823 254:3.811281 2:3.0394263 1729:3.0106888 2:3.0394263 2408:3.9468777 1052:1.288819 2500:0.93324506 817:4.375552 263:3.966183 489:2.507104 491:3.8192499 22:2.8816297 6883:2.396004 2:3.0394263 2197:2.4585724 6884:2.6916053 32:2.8614476 212:3.6553931 33:2.7011507 807:3.7716866 6885:3.8936322 2:3.0394263 2197:2.4585724 219:3.258834 6886:3.3117187 6887:3.2227545 22:2.8816297 1114:1.516384 2:3.0394263 2197:2.4585724 491:3.8192499 254:3.811281 987:2.1343381 268:3.9893508 3804:1.9997059 6889:3.617145 85:0.21601525 6951:0.47854325 
0.001405398496485482 0.0026835460303090957 2.3298764266587224E-4 491:3.8192499 257:3.6010354 557:3.0933836 6857:1.4370576 261:3.1691763 6983:1.5208416 1015:4.9232545 252:3.2356732 6362:2.0131955 925:3.4327178 6984:2.2638419 6985:4.3828516 
0.0036519748724077867 0.003105421341519562 0.0025116865000152826 804:2.6102564 514:3.825324 265:2.4556901 4000:3.2885997 490:4.1537037 491:3.8192499 18:3.4109786 255:3.7304578 879:3.099857 7191:1.9544697 7192:4.089246 
3.7223625112903875E-4 3.4841885699833E-5 7.282437316454196E-5 7298:4.2346253 7299:3.0451386 24:2.9154065 7300:2.3156736 7305:2.5912917 7306:3.2993975 7308:4.7065454 7309:4.622225 7315:3.6665652 7318:3.7523031 7319:4.8984313 7320:4.500491 401:4.026599 7326:4.4461336 131:3.898431 7329:2.5675666 7336:3.5671163 7338:3.4504123 7341:3.150674 7298:4.2346253 7343:3.3925278 7350:2.4174664 7336:3.5671163 7298:4.2346253 7300:2.3156736 7353:1.7241936 1940:1.6127738 
2.0533452802414123E-4 3.0128635709325015E-4 0.004830205301027369 3803:3.4862506 5530:3.6665652 924:3.4599767 21:0.19293088 18:3.4109786 5472:3.8053987 5332:2.5969188 212:3.6553931 32:2.8614476 56:0.91637856 246:3.4599767 920:3.7771266 6857:1.4370576 261:3.1691763 22:2.8816297 14:3.073438 374:1.831836 509:4.4547334 22:2.8816297 5050:2.9619732 242:1.7729318 18:3.4109786 18:3.4109786 2564:3.374829 258:3.675137 254:3.811281 7604:4.128398 1650:3.0627406 7605:2.7422523 485:3.020804 266:3.7645376 3562:1.3593341 1714:2.0670235 359:3.941516 211:4.089246 7605:2.7422523 212:3.6553931 744:2.1288896 557:3.0933836 5:4.1852207 7609:1.9071558 2:3.0394263 7610:3.5346103 1182:4.284472 7611:4.375552 7612:0.9200426 212:3.6553931 965:2.3485427 744:2.1288896 7613:2.3950944 246:3.4599767 7615:1.1054327 7617:3.8865318 252:3.2356732 1960:4.100625 7619:4.3475237 1175:4.02337 213:3.309848 212:3.6553931 1122:1.5216514 1190:2.4001205 244:4.6765823 215:4.3148546 216:3.9335954 3807:3.036764 33:2.7011507 7622:1.7736372 7624:2.018062 212:3.6553931 263:3.966183 7626:4.0464935 5858:3.6196775 1707:4.42131 491:3.8192499 216:3.9335954 5472:3.8053987 263:3.966183 7628:1.685371 5858:3.6196775 33:2.7011507 807:3.7716866 557:3.0933836 257:3.6010354 258:3.675137 1089:2.957251 233:3.0097525 2064:4.0533333 513:3.355053 261:3.1691763 5405:2.8400474 262:2.6212041 1133:2.8026807 252:3.2356732 7632:3.5462487 1960:4.100625 7633:4.096799 252:3.2356732 7632:3.5462487 18:3.4109786 2124:3.8912525 242:1.7729318 254:3.811281 1960:4.100625 7635:2.6758592 925:3.4327178 5530:3.6665652 485:3.020804 266:3.7645376 3562:1.3593341 7605:2.7422523 7638:3.2689083 211:4.089246 5530:3.6665652 557:3.0933836 1089:2.957251 21:0.19293088 7610:3.5346103 7643:3.9863863 233:3.0097525 7644:4.112311 6857:1.4370576 7013:4.562639 255:3.7304578 977:3.6418202 1145:0.8520812 5404:1.0521111 7610:3.5346103 7643:3.9863863 513:3.355053 7645:4.354363 5404:1.0521111 2680:2.1060784 32:2.8614476 373:2.9212158 509:4.4547334 228:1.8044066 7648:2.9764557 1147:2.0452402 7649:1.7798173 1070:3.5253146 924:3.4599767 7605:2.7422523 
0.00157195457341608 7.539956157445896E-4 2.874111210628537E-4 804:2.6102564 514:3.825324 212:3.6553931 360:4.3276286 7918:2.9747267 24:2.9154065 25:2.4793017 7919:3.6853564 7920:4.7734923 7447:3.714371 212:3.6553931 7922:1.6699594 7923:3.5142171 7925:4.290381 750:3.7505832 509:4.4547334 21:0.19293088 50:2.9214702 1:0.78018105 1953:3.7807915 7929:4.100625 230:1.2399162 1729:3.0106888 1014:3.2136855 7930:3.4652839 242:1.7729318 56:0.91637856 7931:3.667982 7932:3.881862 263:3.966183 32:2.8614476 212:3.6553931 1052:1.288819 56:0.91637856 233:3.0097525 7933:1.6472663 2:3.0394263 7934:3.656774 252:3.2356732 246:3.4599767 7936:2.530351 7937:1.653275 920:3.7771266 7918:2.9747267 57:4.520235 1014:3.2136855 1015:4.9232545 7938:1.6753103 7939:2.7700677 7940:5.0745225 212:3.6553931 213:3.309848 965:2.3485427 1:0.78018105 822:2.5204372 2845:3.0308328 
9.967763635195812E-4 2.065917004008789E-4 2.5498993933026603E-4 356:2.327046 1575:2.160135 252:3.2356732 1576:1.711569 1962:3.7454636 6857:1.4370576 4172:1.7591819 257:3.6010354 965:2.3485427 21:0.19293088 965:2.3485427 212:3.6553931 213:3.309848 6857:1.4370576 525:1.7758694 252:3.2356732 265:2.4556901 266:3.7645376 1016:2.2263331 212:3.6553931 233:3.0097525 213:3.309848 212:3.6553931 4803:3.3978288 8273:2.4076145 22:2.8816297 254:3.811281 24:2.9154065 8276:4.472462 257:3.6010354 2124:3.8912525 356:2.327046 7116:2.7580278 13:3.7523031 254:3.811281 2547:2.800172 14:3.073438 13:3.7523031 2176:2.3773656 212:3.6553931 360:4.3276286 24:2.9154065 219:3.258834 8283:4.4547334 981:2.9455311 8284:4.02337 32:2.8614476 212:3.6553931 254:3.811281 8287:3.2933657 22:2.8816297 255:3.7304578 8289:3.7471635 8291:2.90475 557:3.0933836 4489:4.9495835 8292:2.3878117 18:3.4109786 255:3.7304578 22:2.8816297 2337:1.9369045 1957:3.7807915 233:3.0097525 378:4.2560763 56:0.91637856 233:3.0097525 22:2.8816297 262:2.6212041 1057:0.7764356 8297:2.6982496 257:3.6010354 266:3.7645376 2190:1.7594972 1189:1.586336 263:3.966183 496:2.0372286 24:2.9154065 3216:3.6418202 509:4.4547334 8302:2.705616 8305:4.5739202 8306:4.4547334 32:2.8614476 2:3.0394263 4803:3.3978288 22:2.8816297 875:4.180576 233:3.0097525 8310:4.0044847 8313:2.3426652 2124:3.8912525 744:2.1288896 1057:0.7764356 8297:2.6982496 257:3.6010354 7918:2.9747267 14:3.073438 18:3.4109786 8315:1.6523567 215:4.3148546 233:3.0097525 265:2.4556901 266:3.7645376 8316:3.2192051 1016:2.2263331 33:2.7011507 8317:1.5682654 8321:2.9881625 8348:5.03976 5974:1.8345559 8434:2.914905 8453:3.2283914 8454:2.2148838 
8.208226810547648E-4 2.206106164333323E-4 1.3015174317139406E-4 212:3.6553931 213:3.309848 1962:3.7454636 491:3.8192499 244:4.6765823 738:3.644501 15:0.8185046 8467:4.4461336 255:3.7304578 2896:1.1626903 5481:2.2392547 212:3.6553931 22:2.8816297 7201:4.354363 8469:4.510251 18:3.4109786 2743:4.510251 2744:1.9830606 2745:2.577132 252:3.2356732 8470:4.6351895 212:3.6553931 6748:2.1938994 6364:2.7239513 4491:1.8002298 32:2.8614476 212:3.6553931 252:3.2356732 2126:3.963372 2330:4.87495 212:3.6553931 490:4.1537037 6169:2.9695802 
0.0 0.0 0.007422964586911938 211:4.089246 378:4.2560763 32:2.8614476 212:3.6553931 5406:3.2891924 
0.0014490927235835777 0.0014971606346400076 5.759563695289053E-4 356:2.327046 1575:2.160135 252:3.2356732 1576:1.711569 1:0.78018105 2:3.0394263 218:2.8415263 2:3.0394263 966:3.97186 21:0.19293088 22:2.8816297 32:2.8614476 212:3.6553931 1965:3.8356402 808:4.7065454 254:3.811281 965:2.3485427 50:2.9214702 257:3.6010354 8957:3.4843867 24:2.9154065 516:1.965901 1175:4.02337 490:4.1537037 15:0.8185046 8959:2.7680974 8960:4.9776125 8962:2.9191864 1070:3.5253146 8965:4.7734923 8966:4.87495 3864:4.3407903 2979:1.4511439 254:3.811281 8967:2.922234 18:3.4109786 2190:1.7594972 1:0.78018105 522:0.52305406 8970:4.3276286 8971:3.0334587 233:3.0097525 24:2.9154065 2:3.0394263 4785:2.946608 22:2.8816297 50:2.9214702 2:3.0394263 8980:2.2834754 810:4.1537037 2216:1.9558169 2216:1.9558169 378:4.2560763 32:2.8614476 212:3.6553931 1057:0.7764356 817:4.375552 24:2.9154065 4006:2.2046065 564:2.1910028 568:4.4294276 570:4.278642 571:4.662342 885:4.662342 578:4.4055157 9014:4.54092 9042:4.7734923 284:1.4528356 85:0.21601525 719:3.6351898 
0.0011423655861059086 7.340668207932292E-4 2.360042510554043E-4 356:2.327046 1575:2.160135 252:3.2356732 1576:1.711569 14:3.073438 4733:1.6406326 9124:1.8062565 15:0.8185046 9125:4.1325145 24:2.9154065 9128:3.3529866 18:3.4109786 544:1.2602526 9130:4.662342 33:2.7011507 50:2.9214702 252:3.2356732 367:3.6928058 9132:2.8522396 13:3.7523031 22:2.8816297 21:0.19293088 18:3.4109786 9135:4.3024454 263:3.966183 750:3.7505832 9138:3.896025 2687:2.8903043 4820:4.116277 499:2.4878414 3072:0.8957132 22:2.8816297 9139:4.4816055 499:2.4878414 1057:0.7764356 806:2.8364763 21:0.19293088 15:0.8185046 1954:3.563754 1070:3.5253146 9142:4.7734923 214:3.312344 371:2.524804 22:2.8816297 9143:4.278642 517:2.116038 252:3.2356732 523:1.8466357 9145:3.4173071 258:3.675137 1189:1.586336 9146:1.2146988 517:2.116038 3594:1.2191143 13:3.7523031 822:2.5204372 21:0.19293088 15:0.8185046 9148:2.279802 356:2.327046 5003:3.3454926 1200:1.1551261 9150:3.358519 233:3.0097525 9151:3.801521 257:3.6010354 268:3.9893508 
0.005142596061217085 0.0 0.0016865779480057638 1052:1.288819 22:2.8816297 1208:2.4992383 
3.138692338619612E-4 7.05568605952562E-4 0.0010267194409650758 13:3.7523031 14:3.073438 15:0.8185046 252:3.2356732 212:3.6553931 32:2.8614476 9362:4.662342 1960:4.100625 3545:4.9495835 496:2.0372286 22:2.8816297 24:2.9154065 2:3.0394263 1070:3.5253146 254:3.811281 5997:1.6190938 499:2.4878414 557:3.0933836 42:2.3900511 509:4.4547334 9366:3.050242 370:1.8125066 85:0.21601525 2142:2.811676 
0.004644513902481967 0.0025618098355029983 0.0011121757106726143 356:2.327046 1575:2.160135 252:3.2356732 1576:1.711569 1086:2.123833 216:3.9335954 9443:3.4797616 21:0.19293088 22:2.8816297 3926:2.350383 517:2.116038 21:0.19293088 965:2.3485427 879:3.099857 564:2.1910028 568:4.4294276 570:4.278642 571:4.662342 578:4.4055157 719:3.6351898 
3.4345064626691983E-4 5.120842649967886E-4 9.42505126311377E-5 5461:4.0364323 9473:3.656774 6163:3.3387904 24:2.9154065 9474:3.5377536 4571:3.7900915 1070:3.5253146 231:2.9947383 211:4.089246 212:3.6553931 24:2.9154065 25:2.4793017 252:3.2356732 1052:1.288819 257:3.6010354 8205:1.5270964 254:3.811281 22:2.8816297 1182:4.284472 9478:4.6765823 1706:3.7863476 965:2.3485427 2545:2.0459511 213:3.309848 212:3.6553931 1706:3.7863476 33:2.7011507 2557:4.128398 378:4.2560763 32:2.8614476 1200:1.1551261 2557:4.128398 245:3.6623418 2979:1.4511439 2545:2.0459511 9479:3.580832 42:2.3900511 544:1.2602526 15:0.8185046 9480:2.2115963 18:3.4109786 2547:2.800172 9482:2.0699503 22:2.8816297 50:2.9214702 257:3.6010354 356:2.327046 9483:3.0324721 252:3.2356732 254:3.811281 42:2.3900511 1713:0.94099945 1052:1.288819 9486:1.8689346 1960:4.100625 9487:3.0870051 5499:4.8112807 3715:2.2451649 5863:3.4039674 5855:4.0014153 522:0.52305406 4153:2.8581364 5505:2.9911392 9473:3.656774 6163:3.3387904 24:2.9154065 9474:3.5377536 4571:3.7900915 1070:3.5253146 5078:4.7557635 5863:3.4039674 211:4.089246 1052:1.288819 15:0.8185046 8669:1.9671993 21:0.19293088 22:2.8816297 9491:3.300614 9480:2.2115963 3580:0.81077 557:3.0933836 967:2.4607687 6167:3.2367237 24:2.9154065 9495:1.5214083 485:3.020804 6983:1.5208416 56:0.91637856 4173:2.4702964 215:4.3148546 22:2.8816297 3871:3.0275722 33:2.7011507 9496:3.6553931 365:1.1510106 557:3.0933836 1:0.78018105 2:3.0394263 3871:3.0275722 266:3.7645376 216:3.9335954 9498:4.42131 8503:1.3116876 2:3.0394263 9499:4.0431137 6163:3.3387904 252:3.2356732 2:3.0394263 1048:1.6972464 9502:1.5778348 42:2.3900511 56:0.91637856 557:3.0933836 1190:2.4001205 967:2.4607687 9503:4.3024454 1707:4.42131 9504:4.3475237 1017:1.5889547 925:3.4327178 5530:3.6665652 9584:4.9232545 
0.0011706030448280732 4.7583168722508393E-4 9.342945862336635E-4 804:2.6102564 514:3.825324 265:2.4556901 1124:3.2993975 490:4.1537037 24:2.9154065 2064:4.0533333 22:2.8816297 966:3.97186 233:3.0097525 1083:1.1784372 50:2.9214702 2979:1.4511439 9639:0.8974815 5406:3.2891924 212:3.6553931 213:3.309848 3996:1.0190644 7013:4.562639 32:2.8614476 230:1.2399162 242:1.7729318 254:3.811281 1141:2.221433 5406:3.2891924 509:4.4547334 244:4.6765823 9641:4.0331297 213:3.309848 212:3.6553931 9643:2.094519 744:2.1288896 373:2.9212158 32:2.8614476 373:2.9212158 216:3.9335954 1175:4.02337 24:2.9154065 9646:4.4547334 22:2.8816297 5266:3.8912525 242:1.7729318 9647:1.487298 509:4.4547334 544:1.2602526 4741:2.222195 925:3.4327178 9650:1.4738942 9651:1.9882219 284:1.4528356 
0.0022883950129848085 8.279275297385808E-4 0.0 2:3.0394263 9699:2.0833333 24:2.9154065 527:3.5122294 228:1.8044066 255:3.7304578 2544:2.3762767 1937:3.4385362 13:3.7523031 9700:1.5078787 24:2.9154065 523:1.8466357 8467:4.4461336 22:2.8816297 5091:2.3278883 21:0.19293088 228:1.8044066 2216:1.9558169 9502:1.5778348 212:3.6553931 2495:4.02337 2179:3.4788425 744:2.1288896 490:4.1537037 216:3.9335954 255:3.7304578 9703:2.2935452 378:4.2560763 32:2.8614476 212:3.6553931 246:3.4599767 9706:2.5493696 808:4.7065454 517:2.116038 24:2.9154065 523:1.8466357 8467:4.4461336 7444:2.4183443 
0.0032815705230764833 0.0012192836135413356 0.0 211:4.089246 263:3.966183 2501:3.5843296 490:4.1537037 33:2.7011507 1965:3.8356402 966:3.97186 1052:1.288819 4826:1.0735933 813:2.5818784 395:3.8440735 
4.439986587233475E-4 0.0 2.892932349601406E-4 211:4.089246 24:2.9154065 9989:3.3142257 33:2.7011507 747:4.8112807 213:3.309848 212:3.6553931 811:1.3962089 522:0.52305406 7648:2.9764557 249:3.4779253 9990:3.9495835 212:3.6553931 213:3.309848 1190:2.4001205 395:3.8440735 4150:1.3329047 215:4.3148546 233:3.0097525 9700:1.5078787 9992:4.368374 212:3.6553931 2985:3.963372 224:2.1074426 2116:2.9531267 245:3.6623418 747:4.8112807 18:3.4109786 2993:3.121085 242:1.7729318 254:3.811281 265:2.4556901 9993:2.3372633 490:4.1537037 491:3.8192499 33:2.7011507 378:4.2560763 18:3.4109786 2993:3.121085 1960:4.100625 5003:3.3454926 212:3.6553931 228:1.8044066 229:1.8453526 9994:3.0091293 7648:2.9764557 2330:4.87495 925:3.4327178 9995:3.4617386 10013:1.6860955 10014:2.5972805 
2.5666768865815814E-4 0.0 1.77664750660147E-4 211:4.089246 358:4.112311 10037:4.03976 18:3.4109786 2176:2.3773656 217:3.3302293 743:1.043845 490:4.1537037 557:3.0933836 548:1.6261897 1709:3.0723562 215:4.3148546 2179:3.4788425 212:3.6553931 10039:4.194662 242:1.7729318 744:2.1288896 18:3.4109786 2064:4.0533333 21:0.19293088 10040:2.6991637 22:2.8816297 1096:3.829421 5:4.1852207 10042:4.7734923 7516:1.3389435 378:4.2560763 18:3.4109786 2116:2.9531267 490:4.1537037 544:1.2602526 22:2.8816297 3362:1.0597849 10044:1.427588 925:3.4327178 1713:0.94099945 1714:2.0670235 359:3.941516 18:3.4109786 6362:2.0131955 1729:3.0106888 8518:3.5283911 1190:2.4001205 3214:4.4055157 8519:3.1773536 8520:4.1899157 8521:2.6643076 1714:2.0670235 359:3.941516 1730:3.607161 1731:3.3374624 1732:1.5284735 1733:3.0324721 1734:3.2393606 1050:4.530454 359:3.941516 1736:2.9555967 1737:3.8681464 1741:2.9199462 1742:2.4472418 1741:2.9199462 1743:2.4747303 1744:4.158068 1751:5.0745225 1714:2.0670235 485:3.020804 266:3.7645376 3562:1.3593341 10037:4.03976 6305:4.4816055 804:2.6102564 514:3.825324 358:4.112311 359:3.941516 3585:3.963372 10051:2.8083298 10052:3.2993975 44:2.7017636 13:3.7523031 33:2.7011507 56:0.91637856 22:2.8816297 229:1.8453526 1203:4.648554 3824:2.3245285 2687:2.8903043 212:3.6553931 2896:1.1626903 374:1.831836 1709:3.0723562 3214:4.4055157 265:2.4556901 2572:3.6083965 490:4.1537037 491:3.8192499 15:0.8185046 9148:2.279802 212:3.6553931 18:3.4109786 2116:2.9531267 254:3.811281 33:2.7011507 1215:3.9863863 6305:4.4816055 10037:4.03976 10056:3.5082812 10052:3.2993975 1732:1.5284735 10057:4.026599 1751:5.0745225 10067:3.1037107 490:4.1537037 4820:4.116277 233:3.0097525 3998:4.7387304 1070:3.5253146 1714:2.0670235 359:3.941516 10072:2.8140535 4473:0.8163702 1729:3.0106888 10037:4.03976 6305:4.4816055 3585:3.963372 490:4.1537037 18:3.4109786 10075:2.7239513 10076:4.7223396 21:0.19293088 1713:0.94099945 1190:2.4001205 1070:3.5253146 229:1.8453526 1203:4.648554 365:1.1510106 22:2.8816297 254:3.811281 2902:3.4062917 7514:1.6772778 490:4.1537037 265:2.4556901 1052:1.288819 10076:4.7223396 21:0.19293088 1713:0.94099945 490:4.1537037 2195:2.7151613 8698:2.9863863 1070:3.5253146 10085:2.9872735 1203:4.648554 21:0.19293088 1713:0.94099945 10040:2.6991637 2205:3.0907457 6305:4.4816055 10037:4.03976 18:3.4109786 557:3.0933836 2195:2.7151613 8698:2.9863863 24:2.9154065 523:1.8466357 229:1.8453526 10087:1.5418316 21:0.19293088 10040:2.6991637 231:2.9947383 490:4.1537037 246:3.4599767 2683:3.226847 10089:1.89701 244:4.6765823 8218:3.0147696 233:3.0097525 6650:4.7557635 252:3.2356732 18:3.4109786 499:2.4878414 22:2.8816297 10090:2.5865595 10091:3.617145 490:4.1537037 33:2.7011507 807:3.7716866 229:1.8453526 2116:2.9531267 10092:3.060282 21:0.19293088 1713:0.94099945 10040:2.6991637 7619:4.3475237 3824:2.3245285 490:4.1537037 266:3.7645376 1695:1.3619848 9398:4.551644 10094:2.681386 255:3.7304578 10095:2.602742 18:3.4109786 2116:2.9531267 10096:2.0828533 22:2.8816297 10097:2.2964315 2:3.0394263 10098:2.719614 557:3.0933836 262:2.6212041 920:3.7771266 10101:2.2356207 21:0.19293088 228:1.8044066 10102:2.1877496 245:3.6623418 10104:4.8314843 490:4.1537037 8292:2.3878117 33:2.7011507 4006:2.2046065 216:3.9335954 542:2.139141 42:2.3900511 2979:1.4511439 1695:1.3619848 4407:4.0637984 10110:3.7523031 875:4.180576 2116:2.9531267 1006:1.5166944 490:4.1537037 557:3.0933836 4173:2.4702964 2179:3.4788425 925:3.4327178 2179:3.4788425 1741:2.9199462 1713:0.94099945 1714:2.0670235 359:3.941516 1714:2.0670235 359:3.941516 1730:3.607161 10111:4.9495835 1190:2.4001205 3824:2.3245285 245:3.6623418 1057:0.7764356 44:2.7017636 2179:3.4788425 10113:1.9832952 10114:2.2241826 254:3.811281 10115:2.1795144 42:2.3900511 265:2.4556901 3824:2.3245285 490:4.1537037 21:0.19293088 1695:1.3619848 10116:2.6724043 7613:2.3950944 490:4.1537037 4820:4.116277 1:0.78018105 10111:4.9495835 1741:2.9199462 10123:1.997609 1734:3.2393606 1050:4.530454 359:3.941516 1736:2.9555967 1737:3.8681464 1751:5.0745225 1744:4.158068 10142:4.87495 10157:3.5024257 6497:3.381382 1879:4.622225 1883:1.3797929 1896:4.472462 10251:3.4173071 10314:4.3407903 10328:3.4715586 1883:1.3797929 
0.0017927772136011072 8.233706356922584E-4 5.550193423925348E-4 356:2.327046 1575:2.160135 252:3.2356732 10665:4.1852207 212:3.6553931 33:2.7011507 3805:4.472462 8289:3.7471635 5003:3.3454926 2:3.0394263 21:0.19293088 18:3.4109786 3216:3.6418202 18:3.4109786 212:3.6553931 24:2.9154065 8276:4.472462 257:3.6010354 1960:4.100625 255:3.7304578 1938:2.495597 257:3.6010354 10679:2.176712 3026:3.7680974 8348:5.03976 
0.0030111001951887623 3.879465563740197E-4 2.653359229063213E-4 356:2.327046 358:4.112311 359:3.941516 212:3.6553931 213:3.309848 1049:3.2746077 3469:1.6726195 216:3.9335954 5405:2.8400474 22:2.8816297 1182:4.284472 223:0.15908295 1707:4.42131 1691:2.9412496 33:2.7011507 2:3.0394263 1584:2.1794221 22:2.8816297 1587:3.1231039 493:4.194662 254:3.811281 10689:3.414923 263:3.966183 212:3.6553931 356:2.327046 496:2.0372286 212:3.6553931 18:3.4109786 10691:4.7387304 2:3.0394263 8873:3.0272474 356:2.327046 5868:4.108381 557:3.0933836 15:0.8185046 4489:4.9495835 18:3.4109786 56:0.91637856 4088:2.1468954 1960:4.100625 33:2.7011507 523:1.8466357 914:2.6485536 10692:3.8681464 255:3.7304578 3824:2.3245285 21:0.19293088 1695:1.3619848 5754:1.4387372 212:3.6553931 233:3.0097525 1967:3.0774274 268:3.9893508 10694:2.2479618 10695:3.9495835 10722:3.8232899 
0.0036102988825703845 0.0018200155189069763 6.984167810234851E-4 356:2.327046 1575:2.160135 252:3.2356732 1576:1.711569 212:3.6553931 246:3.4599767 10935:3.4444337 10936:2.9101696 395:3.8440735 10938:2.0974088 10939:3.3073666 265:2.4556901 10940:2.502038 490:4.1537037 246:3.4599767 1200:1.1551261 10941:2.9580808 212:3.6553931 22:2.8816297 10943:2.3023841 1070:3.5253146 1965:3.8356402 2116:2.9531267 268:3.9893508 8709:2.7060804 10945:2.371733 10970:4.791976 
1.315077323638261E-4 0.0 0.0 257:3.6010354 967:2.4607687 24:2.9154065 8276:4.472462 925:3.4327178 11336:3.8865318 564:2.1910028 568:4.4294276 570:4.278642 571:4.662342 2064:4.0533333 578:4.4055157 8348:5.03976 719:3.6351898 
0.002820786972828326 5.807283006576267E-4 0.0019872593635660556 356:2.327046 8022:4.1714325 33:2.7011507 11428:3.4956923 11429:3.1017797 212:3.6553931 1695:1.3619848 24:2.9154065 2:3.0394263 11430:2.2682292 212:3.6553931 15:0.8185046 1:0.78018105 822:2.5204372 24:2.9154065 11432:1.5184411 212:3.6553931 213:3.309848 24:2.9154065 11432:1.5184411 265:2.4556901 10940:2.502038 490:4.1537037 491:3.8192499 22:2.8816297 11435:4.375552 2:3.0394263 11437:2.698554 523:1.8466357 33:2.7011507 1215:3.9863863 85:0.21601525 
0.003433238130199806 0.00232235970327669 8.449676987567551E-4 211:4.089246 212:3.6553931 5999:2.4018857 246:3.4599767 522:0.52305406 21:0.19293088 7613:2.3950944 252:3.2356732 11469:2.880934 212:3.6553931 246:3.4599767 32:2.8614476 212:3.6553931 22:2.8816297 11471:1.8527387 212:3.6553931 22:2.8816297 5089:4.0602818 2:3.0394263 11474:1.9661547 2409:1.5297828 924:3.4599767 
0.0665249061385216 0.0077162625687522135 0.014578383638099417 212:3.6553931 18:3.4109786 254:3.811281 
0.004037112347381289 0.0017176683012347976 0.002969033648992858 356:2.327046 1575:2.160135 252:3.2356732 1576:1.711569 257:3.6010354 557:3.0933836 254:3.811281 1089:2.957251 22:2.8816297 21:0.19293088 810:4.1537037 20:3.6365077 252:3.2356732 512:4.1537037 268:3.9893508 1652:2.7197738 11522:4.662342 
9.959545173275376E-4 1.6938119439466115E-4 3.891919143505847E-4 356:2.327046 11529:3.6458478 359:3.941516 1014:3.2136855 1015:4.9232545 21:0.19293088 1695:1.3619848 3079:2.6914554 212:3.6553931 213:3.309848 557:3.0933836 378:4.2560763 1070:3.5253146 822:2.5204372 214:3.312344 212:3.6553931 817:4.375552 2:3.0394263 6114:4.3902755 2:3.0394263 11532:2.358728 1962:3.7454636 2:3.0394263 11533:3.7471635 485:3.020804 33:2.7011507 3545:4.9495835 11535:3.7034545 213:3.309848 32:2.8614476 212:3.6553931 811:1.3962089 395:3.8440735 6865:1.4947482 2:3.0394263 11537:3.4393737 11538:5.0745225 246:3.4599767 808:4.7065454 7444:2.4183443 1015:4.9232545 11540:4.354363 
0.003916407463210925 0.0023519496468243227 0.0 211:4.089246 1942:1.9985194 213:3.309848 212:3.6553931 1189:1.586336 216:3.9335954 2116:2.9531267 490:4.1537037 491:3.8192499 224:2.1074426 3472:3.4643948 32:2.8614476 212:3.6553931 254:3.811281 2477:4.54092 33:2.7011507 879:3.099857 11626:3.5796723 564:2.1910028 568:4.4294276 11630:3.4797616 11631:3.0166662 2215:3.2969747 2220:2.8198535 2214:3.451273 2215:3.2969747 2216:1.9558169 2219:4.7557635 2220:2.8198535 2221:3.7957687 2309:5.0745225 2310:2.972718 
0.0 0.001966791745164362 0.0 378:4.2560763 5206:2.9439206 490:4.1537037 255:3.7304578 11809:2.8243058 11810:3.9181752 
0.0017134722668190852 0.0 8.96671432959229E-5 211:4.089246 4137:0.95755786 212:3.6553931 213:3.309848 1190:2.4001205 5999:2.4018857 244:4.6765823 215:4.3148546 1057:0.7764356 11850:1.3390632 981:2.9455311 509:4.4547334 245:3.6623418 22:2.8816297 6114:4.3902755 1070:3.5253146 262:2.6212041 365:1.1510106 395:3.8440735 244:4.6765823 216:3.9335954 2895:1.7191826 223:0.15908295 233:3.0097525 11852:1.9979123 1070:3.5253146 11853:1.3154466 4826:1.0735933 1057:0.7764356 11855:4.3902755 981:2.9455311 244:4.6765823 254:3.811281 5:4.1852207 10042:4.7734923 265:2.4556901 1554:4.6913056 490:4.1537037 22:2.8816297 11856:2.8511562 925:3.4327178 1713:0.94099945 1714:2.0670235 359:3.941516 2744:1.9830606 3211:3.811281 233:3.0097525 10040:2.6991637 1966:3.1700773 33:2.7011507 807:3.7716866 21:0.19293088 10040:2.6991637 1714:2.0670235 359:3.941516 1730:3.607161 1731:3.3374624 1732:1.5284735 1733:3.0324721 1734:3.2393606 1050:4.530454 359:3.941516 1736:2.9555967 1737:3.8681464 1741:2.9199462 1742:2.4472418 1741:2.9199462 1743:2.4747303 1744:4.158068 1751:5.0745225 1714:2.0670235 485:3.020804 266:3.7645376 3562:1.3593341 211:4.089246 358:4.112311 359:3.941516 11864:3.4853177 21:0.19293088 246:3.4599767 1958:4.662342 246:3.4599767 490:4.1537037 2902:3.4062917 11865:2.767383 14:3.073438 6364:2.7239513 249:3.4779253 44:2.7017636 11868:2.2943852 42:2.3900511 1176:1.8052819 3381:1.4096454 32:2.8614476 2:3.0394263 11869:2.4058259 11870:4.2192054 233:3.0097525 234:3.374829 4154:1.9660137 7874:1.1424377 2:3.0394263 6740:4.8526735 11871:2.0501735 42:2.3900511 1160:1.1789019 246:3.4599767 32:2.8614476 1057:0.7764356 4489:4.9495835 254:3.811281 263:3.966183 2330:4.87495 212:3.6553931 57:4.520235 266:3.7645376 246:3.4599767 11870:4.2192054 1014:3.2136855 1015:4.9232545 21:0.19293088 1695:1.3619848 2409:1.5297828 33:2.7011507 1215:3.9863863 11875:2.223264 1070:3.5253146 1714:2.0670235 359:3.941516 5080:2.7402363 4473:0.8163702 1729:3.0106888 3585:3.963372 5505:2.9911392 10116:2.6724043 211:4.089246 4137:0.95755786 11878:3.5043688 212:3.6553931 213:3.309848 22:2.8816297 1190:2.4001205 24:2.9154065 1713:0.94099945 2116:2.9531267 1690:2.134255 557:3.0933836 7612:0.9200426 15:0.8185046 8669:1.9671993 24:2.9154065 2:3.0394263 2893:4.7065454 557:3.0933836 7612:0.9200426 6857:1.4370576 11880:2.4440944 21:0.19293088 216:3.9335954 252:3.2356732 246:3.4599767 11881:4.8112807 22:2.8816297 11882:3.793868 257:3.6010354 1707:4.42131 265:2.4556901 10571:4.209221 490:4.1537037 22:2.8816297 1070:3.5253146 33:2.7011507 966:3.97186 244:4.6765823 2122:2.5921252 822:2.5204372 216:3.9335954 216:3.9335954 1958:4.662342 44:2.7017636 490:4.1537037 244:4.6765823 215:4.3148546 1:0.78018105 491:3.8192499 1724:3.9805174 925:3.4327178 1713:0.94099945 1714:2.0670235 359:3.941516 18:3.4109786 6362:2.0131955 1729:3.0106888 8518:3.5283911 1190:2.4001205 3214:4.4055157 8519:3.1773536 8520:4.1899157 8521:2.6643076 1714:2.0670235 359:3.941516 1730:3.607161 1731:3.3374624 1732:1.5284735 1733:3.0324721 1734:3.2393606 1050:4.530454 359:3.941516 1736:2.9555967 1737:3.8681464 1741:2.9199462 1742:2.4472418 1741:2.9199462 1743:2.4747303 1744:4.158068 1751:5.0745225 1714:2.0670235 485:3.020804 266:3.7645376 3562:1.3593341 356:2.327046 358:4.112311 359:3.941516 557:3.0933836 1052:1.288819 981:2.9455311 266:3.7645376 216:3.9335954 217:3.3302293 255:3.7304578 7205:2.3444133 246:3.4599767 212:3.6553931 32:2.8614476 11891:3.3536742 2901:4.3276286 2173:0.8334763 212:3.6553931 246:3.4599767 4150:1.3329047 11893:3.1956177 388:3.5014572 2901:4.3276286 24:2.9154065 2:3.0394263 2893:4.7065454 987:2.1343381 11891:3.3536742 266:3.7645376 11897:2.2913933 3371:1.7278597 212:3.6553931 490:4.1537037 265:2.4556901 557:3.0933836 258:3.675137 548:1.6261897 244:4.6765823 15:0.8185046 11898:4.54092 8206:2.2295794 212:3.6553931 11899:1.5455093 1729:3.0106888 490:4.1537037 11900:3.0481935 263:3.966183 548:1.6261897 1196:2.9294295 2547:2.800172 11901:2.337396 21:0.19293088 490:4.1537037 1014:3.2136855 1015:4.9232545 233:3.0097525 1967:3.0774274 33:2.7011507 1215:3.9863863 11875:2.223264 564:2.1910028 1092:4.662342 806:2.8364763 1687:1.0957372 486:0.7694058 1687:1.0957372 486:0.7694058 1687:1.0957372 486:0.7694058 1687:1.0957372 486:0.7694058 1687:1.0957372 486:0.7694058 1687:1.0957372 486:0.7694058 1070:3.5253146 1714:2.0670235 359:3.941516 5080:2.7402363 4473:0.8163702 1729:3.0106888 3585:3.963372 5505:2.9911392 11924:4.096799 10116:2.6724043 211:4.089246 4137:0.95755786 212:3.6553931 213:3.309848 22:2.8816297 4432:2.8520226 1190:2.4001205 8512:2.3563669 24:2.9154065 1713:0.94099945 2116:2.9531267 1690:2.134255 212:3.6553931 213:3.309848 22:2.8816297 4432:2.8520226 544:1.2602526 22:2.8816297 4562:4.3475237 1690:2.134255 266:3.7645376 231:2.9947383 22:2.8816297 255:3.7304578 11926:2.5833943 13:3.7523031 44:2.7017636 22:2.8816297 11927:4.87495 1052:1.288819 981:2.9455311 254:3.811281 11930:3.0892456 11931:4.9495835 557:3.0933836 33:2.7011507 261:3.1691763 255:3.7304578 25:2.4793017 217:3.3302293 752:3.2393606 374:1.831836 1724:3.9805174 490:4.1537037 1709:3.0723562 967:2.4607687 1:0.78018105 491:3.8192499 212:3.6553931 22:2.8816297 966:3.97186 374:1.831836 967:2.4607687 21:0.19293088 490:4.1537037 544:1.2602526 22:2.8816297 4562:4.3475237 24:2.9154065 1713:0.94099945 2116:2.9531267 2901:4.3276286 925:3.4327178 1713:0.94099945 1714:2.0670235 359:3.941516 18:3.4109786 6362:2.0131955 1729:3.0106888 8518:3.5283911 1190:2.4001205 3214:4.4055157 8519:3.1773536 8520:4.1899157 8521:2.6643076 1714:2.0670235 359:3.941516 1730:3.607161 1731:3.3374624 1732:1.5284735 1733:3.0324721 1734:3.2393606 1050:4.530454 359:3.941516 1736:2.9555967 1737:3.8681464 1741:2.9199462 1742:2.4472418 1741:2.9199462 1743:2.4747303 1744:4.158068 1751:5.0745225 1714:2.0670235 485:3.020804 4473:0.8163702 1:0.78018105 3562:1.3593341 211:4.089246 358:4.112311 359:3.941516 1052:1.288819 216:3.9335954 11893:3.1956177 806:2.8364763 11239:1.6066923 25:2.4793017 808:4.7065454 1070:3.5253146 1092:4.662342 24:2.9154065 4172:1.7591819 1014:3.2136855 1015:4.9232545 21:0.19293088 1695:1.3619848 3726:2.2109022 33:2.7011507 1215:3.9863863 11875:2.223264 1070:3.5253146 1714:2.0670235 359:3.941516 11945:4.8526735 4473:0.8163702 1729:3.0106888 3585:3.963372 10116:2.6724043 356:2.327046 4137:0.95755786 265:2.4556901 1554:4.6913056 490:4.1537037 965:2.3485427 1016:2.2263331 365:1.1510106 212:3.6553931 22:2.8816297 966:3.97186 25:2.4793017 7615:1.1054327 986:1.2191647 1958:4.662342 744:2.1288896 22:2.8816297 806:2.8364763 11952:3.963372 499:2.4878414 11953:2.3898265 744:2.1288896 22:2.8816297 11954:2.9471476 2:3.0394263 11955:0.99566394 920:3.7771266 22:2.8816297 806:2.8364763 22:2.8816297 245:3.6623418 246:3.4599767 808:4.7065454 11960:2.1325557 499:2.4878414 44:2.7017636 490:4.1537037 491:3.8192499 1015:4.9232545 252:3.2356732 879:3.099857 11875:2.223264 22:2.8816297 11927:4.87495 11961:2.1844275 1052:1.288819 11962:2.1357942 522:0.52305406 807:3.7716866 9150:3.358519 750:3.7505832 1092:4.662342 2:3.0394263 2179:3.4788425 246:3.4599767 966:3.97186 557:3.0933836 32:2.8614476 262:2.6212041 743:1.043845 18:3.4109786 1:0.78018105 523:1.8466357 4432:2.8520226 33:2.7011507 25:2.4793017 356:2.327046 808:4.7065454 216:3.9335954 9150:3.358519 1092:4.662342 2:3.0394263 1052:1.288819 1070:3.5253146 2:3.0394263 6081:2.8206596 490:4.1537037 491:3.8192499 22:2.8816297 966:3.97186 4432:2.8520226 11881:4.8112807 1070:3.5253146 388:3.5014572 1687:1.0957372 486:0.7694058 252:3.2356732 806:2.8364763 212:3.6553931 371:2.524804 374:1.831836 215:4.3148546 1048:1.6972464 33:2.7011507 8219:2.925817 485:3.020804 1181:3.7271924 1111:4.361312 8289:3.7471635 5003:3.3454926 22:2.8816297 3828:3.8841906 1960:4.100625 5003:3.3454926 22:2.8816297 4432:2.8520226 544:1.2602526 22:2.8816297 4562:4.3475237 8512:2.3563669 24:2.9154065 1713:0.94099945 2116:2.9531267 42:2.3900511 32:2.8614476 925:3.4327178 1713:0.94099945 1714:2.0670235 359:3.941516 18:3.4109786 6362:2.0131955 1729:3.0106888 8518:3.5283911 1190:2.4001205 3214:4.4055157 8519:3.1773536 8520:4.1899157 8521:2.6643076 1714:2.0670235 359:3.941516 1730:3.607161 1731:3.3374624 1732:1.5284735 1733:3.0324721 1734:3.2393606 1050:4.530454 359:3.941516 1736:2.9555967 1737:3.8681464 1741:2.9199462 1742:2.4472418 1741:2.9199462 1743:2.4747303 1744:4.158068 1751:5.0745225 1714:2.0670235 485:3.020804 4473:0.8163702 1:0.78018105 3562:1.3593341 358:4.112311 11971:4.6096354 11972:0.92033434 1014:3.2136855 1015:4.9232545 21:0.19293088 22:2.8816297 1212:3.5682428 54:3.2527905 490:4.1537037 265:2.4556901 244:4.6765823 245:3.6623418 22:2.8816297 3723:3.898431 212:3.6553931 246:3.4599767 7615:1.1054327 7648:2.9764557 32:2.8614476 365:1.1510106 212:3.6553931 22:2.8816297 966:3.97186 25:2.4793017 7615:1.1054327 986:1.2191647 15:0.8185046 3723:3.898431 744:2.1288896 22:2.8816297 806:2.8364763 11952:3.963372 499:2.4878414 1015:4.9232545 252:3.2356732 879:3.099857 11875:2.223264 1070:3.5253146 11630:3.4797616 485:3.020804 266:3.7645376 3562:1.3593341 1714:2.0670235 359:3.941516 356:2.327046 4137:0.95755786 1014:3.2136855 1015:4.9232545 21:0.19293088 1713:0.94099945 4139:4.530454 485:3.020804 265:2.4556901 1554:4.6913056 490:4.1537037 744:2.1288896 557:3.0933836 255:3.7304578 523:1.8466357 11980:2.7528205 1:0.78018105 2:3.0394263 11981:4.199461 4149:2.7512703 10116:2.6724043 257:3.6010354 216:3.9335954 11983:2.5573266 1070:3.5253146 257:3.6010354 557:3.0933836 255:3.7304578 11987:3.3970675 13:3.7523031 1645:2.8222764 490:4.1537037 266:3.7645376 1713:0.94099945 11988:2.1261501 252:3.2356732 1554:4.6913056 4820:4.116277 21:0.19293088 22:2.8816297 386:2.0920627 11989:4.6351895 211:4.089246 212:3.6553931 360:4.3276286 252:3.2356732 5481:2.2392547 5999:2.4018857 224:2.1074426 2116:2.9531267 21:0.19293088 246:3.4599767 810:4.1537037 2:3.0394263 818:2.3597736 11991:1.3522245 261:3.1691763 2:3.0394263 2337:1.9369045 261:3.1691763 5959:2.1785476 246:3.4599767 808:4.7065454 2:3.0394263 2124:3.8912525 8208:2.5466778 11993:2.1671557 4816:2.2260766 1057:0.7764356 11994:2.1111674 920:3.7771266 11995:4.622225 11996:1.342437 54:3.2527905 263:3.966183 2680:2.1060784 254:3.811281 2:3.0394263 527:3.5122294 257:3.6010354 2330:4.87495 1200:1.1551261 261:3.1691763 920:3.7771266 1960:4.100625 920:3.7771266 2895:1.7191826 42:2.3900511 263:3.966183 257:3.6010354 2:3.0394263 11998:2.5013607 2809:1.2865309 246:3.4599767 3072:0.8957132 365:1.1510106 212:3.6553931 22:2.8816297 966:3.97186 25:2.4793017 7615:1.1054327 986:1.2191647 1958:4.662342 744:2.1288896 22:2.8816297 806:2.8364763 11952:3.963372 499:2.4878414 11953:2.3898265 744:2.1288896 22:2.8816297 11954:2.9471476 2:3.0394263 11955:0.99566394 920:3.7771266 22:2.8816297 806:2.8364763 22:2.8816297 245:3.6623418 246:3.4599767 808:4.7065454 11960:2.1325557 499:2.4878414 44:2.7017636 490:4.1537037 491:3.8192499 1015:4.9232545 252:3.2356732 879:3.099857 11875:2.223264 2:3.0394263 11998:2.5013607 24:2.9154065 2:3.0394263 2809:1.2865309 252:3.2356732 257:3.6010354 2:3.0394263 744:2.1288896 2:3.0394263 808:4.7065454 1070:3.5253146 233:3.0097525 1074:2.9062214 1048:1.6972464 12004:3.6499128 920:3.7771266 7514:1.6772778 216:3.9335954 7516:1.3389435 243:2.3021395 509:4.4547334 228:1.8044066 12006:3.8841906 1707:4.42131 7518:4.3475237 490:4.1537037 265:2.4556901 254:3.811281 255:3.7304578 6359:4.662342 244:4.6765823 987:2.1343381 525:1.7758694 8516:3.1048734 925:3.4327178 1713:0.94099945 1714:2.0670235 359:3.941516 18:3.4109786 6362:2.0131955 1729:3.0106888 8518:3.5283911 1190:2.4001205 3214:4.4055157 8519:3.1773536 8520:4.1899157 8521:2.6643076 1714:2.0670235 359:3.941516 1730:3.607161 1731:3.3374624 1732:1.5284735 1733:3.0324721 1734:3.2393606 1050:4.530454 359:3.941516 1736:2.9555967 1737:3.8681464 1741:2.9199462 1742:2.4472418 1741:2.9199462 1743:2.4747303 1744:4.158068 1751:5.0745225 1714:2.0670235 5974:1.8345559 1879:4.622225 1883:1.3797929 1896:4.472462 2142:2.811676 85:0.21601525 2142:2.811676 4329:1.8643377 6497:3.381382 1879:4.622225 1883:1.3797929 1896:4.472462 284:1.4528356 85:0.21601525 12220:4.3902755 1426:1.5111402 12303:3.4237294 12220:4.3902755 6497:3.381382 1879:4.622225 1883:1.3797929 1896:4.472462 7463:2.4209883 7463:2.4209883 2142:2.811676 6497:3.381382 1879:4.622225 1883:1.3797929 1896:4.472462 7463:2.4209883 12602:2.0621774 6283:2.5915298 7463:2.4209883 7463:2.4209883 85:0.21601525 6497:3.381382 1879:4.622225 1883:1.3797929 1896:4.472462 
6.52264059296043E-4 0.0012473723514559228 0.0 13:3.7523031 246:3.4599767 12692:1.9737499 523:1.8466357 247:4.9776125 8931:4.4816055 245:3.6623418 11535:3.7034545 32:2.8614476 1200:1.1551261 12692:1.9737499 12695:3.1791918 42:2.3900511 564:2.1910028 568:4.4294276 570:4.278642 571:4.662342 2220:2.8198535 2221:3.7957687 578:4.4055157 719:3.6351898 
1.536800476347244E-4 0.0 0.0 10:2.33899 12719:3.9283943 1175:4.02337 15:0.8185046 12722:3.4706566 33:2.7011507 523:1.8466357 12723:4.261609 1070:3.5253146 12724:5.0075755 12725:2.441475 12726:3.3282776 1707:4.42131 12727:2.106351 12728:4.209221 557:3.0933836 243:2.3021395 967:2.4607687 13:3.7523031 228:1.8044066 12731:3.7223399 12732:1.8351187 5:4.1852207 12722:3.4706566 252:3.2356732 2:3.0394263 4803:3.3978288 5481:2.2392547 254:3.811281 1729:3.0106888 25:2.4793017 12692:1.9737499 12735:2.5131228 13:3.7523031 1716:3.4086287 24:2.9154065 1200:1.1551261 12736:2.733913 2545:2.0459511 252:3.2356732 499:2.4878414 252:3.2356732 1009:0.55121386 5996:4.12028 564:2.1910028 568:4.4294276 7212:5.03976 2059:3.1103413 2219:4.7557635 2220:2.8198535 2221:3.7957687 578:4.4055157 12760:2.3762767 
0.02203047823719209 0.00784095262978305 0.0018107738658111863 257:3.6010354 370:1.8125066 263:3.966183 2687:2.8903043 212:3.6553931 2901:4.3276286 
4.6547625828772025E-4 0.0 0.0 356:2.327046 1575:2.160135 356:2.327046 1576:1.711569 212:3.6553931 265:2.4556901 490:4.1537037 22:2.8816297 817:4.375552 2179:3.4788425 245:3.6623418 224:2.1074426 255:3.7304578 3510:3.3733864 22:2.8816297 3471:3.7523031 1015:4.9232545 3194:1.7358004 13203:3.5273633 564:2.1910028 568:4.4294276 570:4.278642 571:4.662342 2220:2.8198535 2221:3.7957687 2064:4.0533333 578:4.4055157 719:3.6351898 
9.973587999008683E-4 4.464072602419756E-4 1.3398554683118167E-4 356:2.327046 1575:2.160135 252:3.2356732 1576:1.711569 920:3.7771266 7918:2.9747267 213:3.309848 212:3.6553931 12732:1.8351187 255:3.7304578 807:3.7716866 24:2.9154065 558:1.8950902 257:3.6010354 2:3.0394263 24:2.9154065 807:3.7716866 1200:1.1551261 13253:3.7223399 356:2.327046 4790:3.2166874 24:2.9154065 2:3.0394263 13254:3.9283943 1:0.78018105 13255:4.6096354 1149:2.0715647 2:3.0394263 2561:1.7671334 509:4.4547334 13255:4.6096354 1149:2.0715647 214:3.312344 56:0.91637856 233:3.0097525 13258:2.8222764 13259:2.2490962 266:3.7645376 22:2.8816297 13255:4.6096354 1149:2.0715647 499:2.4878414 13261:3.7734923 6643:4.0745225 252:3.2356732 13262:3.4377003 252:3.2356732 509:4.4547334 233:3.0097525 6644:4.0533333 22:2.8816297 13263:4.12028 245:3.6623418 13255:4.6096354 1149:2.0715647 5333:2.4487813 255:3.7304578 5205:2.7087226 22:2.8816297 14:3.073438 21:0.19293088 252:3.2356732 216:3.9335954 6547:2.4759142 544:1.2602526 4137:0.95755786 214:3.312344 13267:2.4294276 13268:2.9781919 5779:3.4343724 22:2.8816297 245:3.6623418 5872:1.6616 24:2.9154065 2:3.0394263 13270:4.096799 13271:3.0911217 5779:3.4343724 525:1.7758694 13:3.7523031 4820:4.116277 5003:3.3454926 245:3.6623418 9765:1.3077316 2:3.0394263 13273:2.082595 1:0.78018105 246:3.4599767 13274:3.6736968 6547:2.4759142 252:3.2356732 13276:4.3828516 2:3.0394263 13278:2.0528164 15:0.8185046 7932:3.881862 2:3.0394263 9499:4.0431137 6163:3.3387904 42:2.3900511 21:0.19293088 1695:1.3619848 1016:2.2263331 924:3.4599767 212:3.6553931 822:2.5204372 1591:3.5346103 252:3.2356732 33:2.7011507 1215:3.9863863 5965:4.8526735 85:0.21601525 13308:3.8483522 85:0.21601525 13374:1.8974911 
0.001973465853901756 0.0 0.0 564:2.1910028 5339:0.8556719 13497:4.7065454 13498:4.8314843 3936:2.6923552 13499:3.6325655 13500:4.9776125 525:1.7758694 395:3.8440735 
0.002244928233206124 0.0012780101609865618 0.0035122362885240525 544:1.2602526 1695:1.3619848 1957:3.7807915 1937:3.4385362 490:4.1537037 246:3.4599767 808:4.7065454 21:0.19293088 246:3.4599767 1960:4.100625 22:2.8816297 9398:4.551644 2:3.0394263 3231:1.1233711 13522:3.0173001 
0.0019530585540354184 0.0011509902551601063 3.3303314852147994E-4 356:2.327046 358:4.112311 359:3.941516 33:2.7011507 257:3.6010354 3375:2.1823814 24:2.9154065 8276:4.472462 264:4.8314843 212:3.6553931 15:0.8185046 1957:3.7807915 395:3.8440735 249:3.4779253 378:4.2560763 1200:1.1551261 8206:2.2295794 13565:2.019654 252:3.2356732 2992:2.451273 986:1.2191647 56:0.91637856 1:0.78018105 13566:3.960579 216:3.9335954 1075:5.0075755 13569:3.5527308 268:3.9893508 8348:5.03976 
0.001599878116938551 7.858402639648658E-4 0.0013817595711111508 804:2.6102564 514:3.825324 13:3.7523031 4139:4.530454 1729:3.0106888 22:2.8816297 1648:4.6351895 523:1.8466357 9309:3.3073666 1182:4.284472 1057:0.7764356 371:2.524804 252:3.2356732 13645:3.2897863 750:3.7505832 806:2.8364763 378:4.2560763 371:2.524804 22:2.8816297 1648:4.6351895 544:1.2602526 1695:1.3619848 6168:3.680947 13647:2.8040376 6983:1.5208416 1015:4.9232545 233:3.0097525 1967:3.0774274 490:4.1537037 44:2.7017636 56:0.91637856 13648:3.1480942 508:1.9803425 2195:2.7151613 13497:4.7065454 10044:1.427588 1160:1.1789019 786:0.77543473 
0.003948482392107537 0.0013725500404643545 0.0017176022218679627 356:2.327046 1575:2.160135 252:3.2356732 1576:1.711569 378:4.2560763 32:2.8614476 212:3.6553931 228:1.8044066 512:4.1537037 365:1.1510106 2:3.0394263 261:3.1691763 233:3.0097525 1116:2.9032836 246:3.4599767 1175:4.02337 925:3.4327178 13793:4.12432 13794:4.0014153 
6.984165572606484E-4 0.0 0.0 564:2.1910028 4777:0.8362295 13924:3.1408663 358:4.112311 13925:1.0898526 13498:4.8314843 7121:1.585678 3936:2.6923552 10886:0.023510125 5266:3.8912525 506:3.7370632 3585:3.963372 2477:4.54092 1957:3.7807915 212:3.6553931 32:2.8614476 967:2.4607687 215:4.3148546 254:3.811281 2477:4.54092 213:3.309848 3375:2.1823814 33:2.7011507 13928:2.9875696 254:3.811281 1585:4.530454 1960:4.100625 3472:3.4643948 5205:2.7087226 254:3.811281 13948:4.597401 
0.002298324881622556 5.893033081671711E-4 0.0 212:3.6553931 965:2.3485427 212:3.6553931 6748:2.1938994 6364:2.7239513 13998:3.0282223 252:3.2356732 14000:2.8304515 212:3.6553931 1:0.78018105 6168:3.680947 32:2.8614476 14002:2.8701763 
0.00420559534516689 2.4183057632394807E-4 5.250285066487231E-4 211:4.089246 5078:4.7557635 5332:2.5969188 24:2.9154065 818:2.3597736 18:3.4109786 56:0.91637856 212:3.6553931 213:3.309848 521:3.0926282 255:3.7304578 18:3.4109786 557:3.0933836 266:3.7645376 246:3.4599767 818:2.3597736 8503:1.3116876 11864:3.4853177 879:3.099857 
0.0020946764587763773 0.002183127058986437 4.5288710839210206E-4 356:2.327046 1575:2.160135 252:3.2356732 1576:1.711569 265:2.4556901 212:3.6553931 490:4.1537037 1965:3.8356402 9994:3.0091293 14159:1.4955682 255:3.7304578 5406:3.2891924 14160:3.740404 1960:4.100625 966:3.97186 254:3.811281 255:3.7304578 14162:3.5263379 266:3.7645376 15:0.8185046 9148:2.279802 14163:2.476188 14164:3.4237294 33:2.7011507 1215:3.9863863 4830:1.2964314 5587:2.629697 
0.0 0.0015171701560360445 0.0 258:3.675137 212:3.6553931 5481:2.2392547 1141:2.221433 6748:2.1938994 
0.0 0.0 2.9139876873266786E-4 3944:1.689378 14355:2.9899461 8888:2.3193464 3937:3.1567543 14356:3.6184094 158:3.084776 3940:3.0288734 14357:4.375552 5147:3.1052618 148:3.7080994 3951:3.2993975 8885:3.4078484 14360:2.7988272 152:2.8998811 14363:4.54092 8061:3.0305054 149:2.6765823 14364:3.113497 14365:2.7702472 3940:3.0288734 14366:4.0637984 14367:2.582694 14368:2.987866 3937:3.1567543 3940:3.0288734 3937:3.1567543 14372:3.8592374 156:2.2969747 14373:3.8232899 14374:3.644501 14382:3.659549 14387:3.4327178 14404:4.3024454 
0.0027927887696673863 6.024396286462371E-4 4.9636005037219E-4 356:2.327046 1575:2.160135 252:3.2356732 1576:1.711569 212:3.6553931 22:2.8816297 966:3.97186 1070:3.5253146 810:4.1537037 378:4.2560763 14651:2.174565 1070:3.5253146 261:3.1691763 1582:1.9199716 242:1.7729318 254:3.811281 1708:4.9232545 259:3.3719482 32:2.8614476 491:3.8192499 214:3.312344 1159:2.4045086 743:1.043845 33:2.7011507 1215:3.9863863 14653:1.42094 14654:3.2815473 
5.70035866392638E-4 9.889931346688327E-5 5.60730878393029E-4 211:4.089246 14748:3.667982 7021:4.9495835 18:3.4109786 2:3.0394263 213:3.309848 212:3.6553931 981:2.9455311 7261:1.3665975 5872:1.6616 24:2.9154065 3216:3.6418202 14751:4.3978286 1175:4.02337 2545:2.0459511 15:0.8185046 14752:4.3902755 2:3.0394263 245:3.6623418 22:2.8816297 1956:3.7112238 9479:3.580832 367:3.6928058 14753:2.6964273 544:1.2602526 22:2.8816297 14754:4.100625 244:4.6765823 810:4.1537037 14755:2.014423 8217:3.8093114 15:0.8185046 233:3.0097525 14756:3.3414588 263:3.966183 2687:2.8903043 212:3.6553931 1:0.78018105 2:3.0394263 1160:1.1789019 14759:3.6794872 378:4.2560763 212:3.6553931 246:3.4599767 21:0.19293088 18:3.4109786 367:3.6928058 24:2.9154065 22:2.8816297 33:2.7011507 3788:3.896025 924:3.4599767 14761:2.3475914 14762:4.4377003 14763:3.4529998 14764:4.2141843 14766:3.675137 564:2.1910028 568:4.4294276 570:4.278642 571:4.662342 885:4.662342 14828:3.0085073 719:3.6351898 
0.0024776086652669883 0.0011406359217710452 6.363070265250393E-4 356:2.327046 1575:2.160135 252:3.2356732 1576:1.711569 212:3.6553931 213:3.309848 246:3.4599767 21:0.19293088 228:1.8044066 14849:3.6418202 227:1.8104329 228:1.8044066 2944:2.0757546 4568:2.4284456 4559:4.7734923 920:3.7771266 492:1.6338232 10614:4.472462 744:2.1288896 230:1.2399162 1:0.78018105 523:1.8466357 254:3.811281 14852:2.9322894 557:3.0933836 21:0.19293088 264:4.8314843 14853:3.6146276 224:2.1074426 4568:2.4284456 227:1.8104329 228:1.8044066 229:1.8453526 4558:3.2827148 255:3.7304578 8220:4.128398 18:3.4109786 4784:2.788965 215:4.3148546 6857:1.4370576 212:3.6553931 21:0.19293088 15:0.8185046 8669:1.9671993 33:2.7011507 1215:3.9863863 4830:1.2964314 14856:3.8526735 14898:3.510251 
1.8147700491803605E-5 0.0 0.0 7635:2.6758592 15271:2.2609413 212:3.6553931 213:3.309848 491:3.8192499 18:3.4109786 3718:2.1346288 1729:3.0106888 246:3.4599767 4803:3.3978288 3585:3.963372 15273:3.1079895 1122:1.5216514 213:3.309848 212:3.6553931 228:1.8044066 2179:3.4788425 15275:1.806042 5812:3.4070694 15276:3.3079855 212:3.6553931 18:3.4109786 22:2.8816297 246:3.4599767 22:2.8816297 258:3.675137 15279:2.2359357 245:3.6623418 15280:4.296371 3066:3.562639 252:3.2356732 15281:4.597401 15282:1.6228383 2547:2.800172 14703:2.605437 9503:4.3024454 513:3.355053 11432:1.5184411 230:1.2399162 242:1.7729318 254:3.811281 1729:3.0106888 22:2.8816297 15285:2.556228 22:2.8816297 1584:2.1794221 223:0.15908295 24:2.9154065 9495:1.5214083 33:2.7011507 15288:3.0505843 212:3.6553931 228:1.8044066 527:3.5122294 2126:3.963372 2:3.0394263 4623:4.33416 15292:2.0705595 15293:3.2538831 509:4.4547334 244:4.6765823 15292:2.0705595 15293:3.2538831 21:0.19293088 3312:2.1478798 14373:3.8232899 1175:4.02337 22:2.8816297 1584:2.1794221 2:3.0394263 257:3.6010354 258:3.675137 14703:2.605437 11901:2.337396 496:2.0372286 22:2.8816297 6000:4.5739202 254:3.811281 1141:2.221433 24:2.9154065 22:2.8816297 15295:2.2864718 4616:3.8377333 252:3.2356732 1962:3.7454636 2:3.0394263 15297:3.1633646 1085:2.4018857 14933:4.267213 4427:3.7645376 44:2.7017636 212:3.6553931 15276:3.3079855 254:3.811281 5003:3.3454926 822:2.5204372 18:3.4109786 231:2.9947383 15298:0.9275627 257:3.6010354 44:2.7017636 490:4.1537037 557:3.0933836 14162:3.5263379 1017:1.5889547 925:3.4327178 15382:3.4947388 
0.0018820114341963523 0.0 9.093386467865507E-4 13:3.7523031 14:3.073438 228:1.8044066 21:0.19293088 514:3.825324 252:3.2356732 378:4.2560763 18:3.4109786 1690:2.134255 
0.0014144543463320033 0.0 3.9234894796095294E-4 7613:2.3950944 11145:3.7271924 257:3.6010354 356:2.327046 1938:2.495597 1957:3.7807915 257:3.6010354 1:0.78018105 15519:4.622225 56:0.91637856 744:2.1288896 13102:4.1852207 15520:4.17598 1960:4.100625 214:3.312344 15519:4.622225 509:4.4547334 245:3.6623418 246:3.4599767 233:3.0097525 818:2.3597736 555:2.1700773 808:4.7065454 15522:3.0975614 
7.824118132253111E-4 7.094282107024391E-4 3.719202835657557E-4 804:2.6102564 514:3.825324 212:3.6553931 1695:1.3619848 3381:1.4096454 252:3.2356732 504:3.8505075 378:4.2560763 212:3.6553931 987:2.1343381 246:3.4599767 504:3.8505075 4188:2.865902 2985:3.963372 212:3.6553931 213:3.309848 1070:3.5253146 252:3.2356732 2985:3.963372 15793:3.6553931 1070:3.5253146 212:3.6553931 213:3.309848 15796:2.4262438 257:3.6010354 18:3.4109786 5519:2.857697 231:2.9947383 15797:2.4007337 1960:4.100625 13:3.7523031 499:2.4878414 1956:3.7112238 13095:3.8419497 212:3.6553931 252:3.2356732 965:2.3485427 4137:0.95755786 18:3.4109786 257:3.6010354 21:0.19293088 367:3.6928058 252:3.2356732 4792:4.290381 32:2.8614476 212:3.6553931 987:2.1343381 265:2.4556901 266:3.7645376 1695:1.3619848 
0.0016728592945947215 6.252323326393351E-4 0.0 18:3.4109786 257:3.6010354 252:3.2356732 15980:4.8526735 212:3.6553931 965:2.3485427 15981:4.278642 5:4.1852207 15982:3.799595 265:2.4556901 5406:3.2891924 490:4.1537037 224:2.1074426 252:3.2356732 22:2.8816297 1070:3.5253146 491:3.8192499 966:3.97186 925:3.4327178 4459:0.611162 
0.016884343652491845 0.006459624027362536 0.002868038970891204 32:2.8614476 212:3.6553931 1:0.78018105 246:3.4599767 1668:4.149382 22:2.8816297 388:3.5014572 2901:4.3276286 231:2.9947383 4826:1.0735933 490:4.1537037 245:3.6623418 2:3.0394263 
0.0020757156734410717 9.905082085360662E-4 6.500376865166587E-4 356:2.327046 1575:2.160135 252:3.2356732 1576:1.711569 1695:1.3619848 966:3.97186 16023:3.925817 214:3.312344 212:3.6553931 1086:2.123833 16025:5.03976 22:2.8816297 16027:1.9275421 16028:1.9694949 33:2.7011507 2:3.0394263 212:3.6553931 9647:1.487298 24:2.9154065 2564:3.374829 212:3.6553931 265:2.4556901 490:4.1537037 266:3.7645376 16031:2.6964273 33:2.7011507 1215:3.9863863 16032:2.0692346 16033:4.089246 564:2.1910028 568:4.4294276 570:4.278642 571:4.662342 2064:4.0533333 578:4.4055157 719:3.6351898 
0.002368754733209468 0.0013672956150996285 3.538723669923148E-4 1575:2.160135 252:3.2356732 16084:3.3454926 212:3.6553931 22:2.8816297 1208:2.4992383 33:2.7011507 807:3.7716866 11041:4.530454 249:3.4779253 21:0.19293088 5964:0.81116647 42:2.3900511 1057:0.7764356 254:3.811281 1141:2.221433 16086:3.0821898 268:3.9893508 16087:2.5142171 
0.0020218550002856464 6.094747701680946E-4 1.0917549041164574E-4 804:2.6102564 514:3.825324 212:3.6553931 213:3.309848 228:1.8044066 9502:1.5778348 252:3.2356732 2569:2.154486 965:2.3485427 6883:2.396004 252:3.2356732 11582:2.7833755 817:4.375552 1938:2.495597 32:2.8614476 18:3.4109786 2503:3.1796527 212:3.6553931 2330:4.87495 750:3.7505832 1729:3.0106888 6742:3.140445 252:3.2356732 32:2.8614476 491:3.8192499 18:3.4109786 254:3.811281 16182:3.9863863 15419:2.1041756 32:2.8614476 491:3.8192499 214:3.312344 16183:3.7387302 965:2.3485427 4432:2.8520226 2122:2.5921252 1014:3.2136855 1015:4.9232545 233:3.0097525 1967:3.0774274 33:2.7011507 1215:3.9863863 16185:2.7657802 16186:3.4742758 
0.0 0.00821265658557706 0.0026709225840225656 212:3.6553931 265:2.4556901 266:3.7645376 395:3.8440735 2940:4.1451035 1014:3.2136855 1015:4.9232545 
0.0027967520680161687 8.202837246587414E-5 0.0 245:3.6623418 2:3.0394263 4150:1.3329047 3362:1.0597849 499:2.4878414 491:3.8192499 6857:1.4370576 1958:4.662342 16225:3.3578236 22:2.8816297 6223:3.733748 1175:4.02337 15:0.8185046 16226:4.3407903 252:3.2356732 22:2.8816297 16228:3.3244 32:2.8614476 373:2.9212158 1057:0.7764356 16229:2.702839 4628:3.0774274 33:2.7011507 1215:3.9863863 16231:3.2325375 16240:2.0575585 4459:0.611162 
0.0036720200885793 0.00388430303414554 0.0015542221486757768 356:2.327046 1575:2.160135 252:3.2356732 1576:1.711569 212:3.6553931 544:1.2602526 16289:3.8592374 1:0.78018105 16290:3.6209493 4567:2.6162624 265:2.4556901 4000:3.2885997 490:4.1537037 491:3.8192499 16291:3.520235 33:2.7011507 1215:3.9863863 16292:4.551644 
5.601759751019196E-4 8.813864559084543E-5 8.573226811222624E-4 264:4.8314843 224:2.1074426 16558:3.4221148 254:3.811281 22:2.8816297 7021:4.9495835 2987:3.0884974 254:3.811281 22:2.8816297 16559:2.9707186 1:0.78018105 491:3.8192499 4826:1.0735933 16560:2.2183979 2:3.0394263 1116:2.9032836 16561:1.5125469 216:3.9335954 16562:2.2053885 4974:1.4661212 378:4.2560763 16563:4.3475237 2987:3.0884974 9399:2.3926032 230:1.2399162 254:3.811281 
0.0025051054011996495 1.6366351519266778E-4 1.270734878577885E-4 211:4.089246 213:3.309848 245:3.6623418 2:3.0394263 3362:1.0597849 22:2.8816297 6326:2.6485536 9502:1.5778348 492:1.6338232 2124:3.8912525 15:0.8185046 11232:3.4393737 1070:3.5253146 1:0.78018105 25:2.4793017 1070:3.5253146 16634:3.7592518 1086:2.123833 2503:3.1796527 22:2.8816297 1668:4.149382 1:0.78018105 16634:3.7592518 378:4.2560763 2687:2.8903043 8206:2.2295794 1052:1.288819 15:0.8185046 16636:1.9241498 7932:3.881862 13647:2.8040376 15419:2.1041756 4826:1.0735933 21:0.19293088 246:3.4599767 2557:4.128398 5084:1.6174988 5999:2.4018857 32:2.8614476 373:2.9212158 2547:2.800172 212:3.6553931 213:3.309848 246:3.4599767 16638:2.082153 22:2.8816297 6000:4.5739202 14931:3.4643948 1052:1.288819 21:0.19293088 16639:3.8314843 16640:1.5756148 42:2.3900511 268:3.9893508 16641:4.1852207 564:2.1910028 568:4.4294276 570:4.278642 571:4.662342 578:4.4055157 719:3.6351898 
0.0014177513627966253 5.02832226316904E-4 4.164771620266146E-4 356:2.327046 358:4.112311 359:3.941516 1:0.78018105 1965:3.8356402 2330:4.87495 212:3.6553931 8208:2.5466778 228:1.8044066 1958:4.662342 14:3.073438 212:3.6553931 509:4.4547334 2902:3.4062917 22:2.8816297 2894:4.9776125 486:0.7694058 249:3.4779253 378:4.2560763 4145:1.5682768 490:4.1537037 18:3.4109786 265:2.4556901 4628:3.0774274 1014:3.2136855 1015:4.9232545 268:3.9893508 3155:1.5342555 564:2.1910028 568:4.4294276 570:4.278642 571:4.662342 2064:4.0533333 578:4.4055157 16923:2.5750644 719:3.6351898 
0.0023239631372965644 0.00155993513071173 6.272711109125091E-4 981:2.9455311 213:3.309848 212:3.6553931 33:2.7011507 25:2.4793017 17006:3.593797 17007:4.662342 212:3.6553931 967:2.4607687 17008:4.5855017 266:3.7645376 374:1.831836 33:2.7011507 807:3.7716866 4624:2.406214 17007:4.662342 263:3.966183 2330:4.87495 212:3.6553931 57:4.520235 
0.0013151652709590866 4.933630833416178E-4 4.996214113442945E-4 212:3.6553931 5333:2.4487813 544:1.2602526 22:2.8816297 1:0.78018105 44:2.7017636 490:4.1537037 491:3.8192499 214:3.312344 965:2.3485427 13087:2.1742008 17136:4.9232545 1009:0.55121386 5996:4.12028 262:2.6212041 212:3.6553931 10039:4.194662 499:2.4878414 33:2.7011507 17138:3.2610526 212:3.6553931 395:3.8440735 15860:5.0075755 13087:2.1742008 265:2.4556901 266:3.7645376 4557:4.0331297 924:3.4599767 17141:2.8825593 17142:3.74887 10157:3.5024257 
3.0595212854663873E-4 3.598109319200957E-4 0.0 1014:3.2136855 1015:4.9232545 21:0.19293088 4006:2.2046065 356:2.327046 17179:2.7700677 6082:3.0899951 212:3.6553931 8509:3.0567937 2810:1.3762261 395:3.8440735 252:3.2356732 557:3.0933836 257:3.6010354 356:2.327046 5868:4.108381 744:2.1288896 1190:2.4001205 244:4.6765823 2500:0.93324506 233:3.0097525 1940:1.6127738 395:3.8440735 17183:0.8311474 499:2.4878414 7633:4.096799 17186:1.9985802 11141:1.7293121 17187:3.7370632 214:3.312344 242:1.7729318 243:2.3021395 244:4.6765823 5333:2.4487813 17188:3.4871857 1052:1.288819 244:4.6765823 15:0.8185046 1957:3.7807915 252:3.2356732 15:0.8185046 4557:4.0331297 1957:3.7807915 499:2.4878414 22:2.8816297 17190:2.7432637 5271:3.5346103 1960:4.100625 17193:4.6913056 4557:4.0331297 212:3.6553931 17194:2.0331955 17183:0.8311474 522:0.52305406 807:3.7716866 15:0.8185046 10116:2.6724043 1729:3.0106888 4006:2.2046065 17196:3.0756094 257:3.6010354 1:0.78018105 491:3.8192499 2176:2.3773656 8678:4.7734923 17199:2.5603068 56:0.91637856 22:2.8816297 17200:4.261609 17201:4.490946 13500:4.9776125 252:3.2356732 1208:2.4992383 2124:3.8912525 15:0.8185046 17202:2.6884694 17028:2.4316459 212:3.6553931 213:3.309848 1190:2.4001205 15:0.8185046 10116:2.6724043 4477:1.4950532 557:3.0933836 32:2.8614476 509:4.4547334 8218:3.0147696 42:2.3900511 17203:4.7065454 252:3.2356732 879:3.099857 17204:4.6913056 10722:3.8232899 2142:2.811676 
0.0011504133479060836 2.842046534167779E-4 3.4315344675453084E-4 3996:1.0190644 1017:1.5889547 12879:0.59685254 523:1.8466357 2:3.0394263 212:3.6553931 18:3.4109786 17179:2.7700677 17298:4.54092 981:2.9455311 257:3.6010354 557:3.0933836 254:3.811281 1089:2.957251 967:2.4607687 233:3.0097525 2116:2.9531267 216:3.9335954 255:3.7304578 10104:4.8314843 56:0.91637856 254:3.811281 33:2.7011507 216:3.9335954 2744:1.9830606 17302:4.520235 557:3.0933836 743:1.043845 18:3.4109786 557:3.0933836 254:3.811281 17303:4.4816055 233:3.0097525 257:3.6010354 1960:4.100625 268:3.9893508 17307:3.4109786 17308:4.510251 17309:3.714371 
1.1021761105765706E-4 4.502485777591719E-5 0.0 1189:1.586336 1962:3.7454636 216:3.9335954 2405:1.9469587 9124:1.8062565 213:3.309848 212:3.6553931 490:4.1537037 496:2.0372286 212:3.6553931 233:3.0097525 965:2.3485427 17455:4.112311 254:3.811281 32:2.8614476 233:3.0097525 17456:4.54092 557:3.0933836 4088:2.1468954 5872:1.6616 212:3.6553931 223:0.15908295 17457:3.1072085 965:2.3485427 966:3.97186 18:3.4109786 2124:3.8912525 1962:3.7454636 7925:4.290381 6857:1.4370576 9124:1.8062565 242:1.7729318 813:2.5818784 15421:3.656774 32:2.8614476 212:3.6553931 244:4.6765823 245:3.6623418 3381:1.4096454 17459:3.9106655 268:3.9893508 14306:4.2043138 17461:2.8786228 2427:3.957804 5974:1.8345559 
9.387764747098557E-4 9.116591055610519E-4 1.9014858826491926E-4 804:2.6102564 514:3.825324 212:3.6553931 213:3.309848 1965:3.8356402 8509:3.0567937 242:1.7729318 5084:1.6174988 8220:4.128398 214:3.312344 965:2.3485427 875:4.180576 1182:4.284472 811:1.3962089 1190:2.4001205 17514:1.3889523 1070:3.5253146 17515:3.4806826 246:3.4599767 4624:2.406214 261:3.1691763 378:4.2560763 32:2.8614476 212:3.6553931 228:1.8044066 229:1.8453526 17517:3.4670672 1960:4.100625 246:3.4599767 247:4.9776125 548:1.6261897 244:4.6765823 8220:4.128398 212:3.6553931 1:0.78018105 11050:2.1498125 21:0.19293088 3235:5.0745225 17519:4.4294276 265:2.4556901 2501:3.5843296 490:4.1537037 21:0.19293088 2979:1.4511439 22:2.8816297 228:1.8044066 17521:4.4461336 14:3.073438 15298:0.9275627 56:0.91637856 1085:2.4018857 17522:3.190861 1960:4.100625 17523:3.7844877 1960:4.100625 2979:1.4511439 1960:4.100625 920:3.7771266 17527:3.0730772 1729:3.0106888 33:2.7011507 879:3.099857 2179:3.4788425 17529:3.2283914 1729:3.0106888 2:3.0394263 17530:2.8552873 17531:1.6628746 17532:3.3872907 17543:5.0075755 17575:2.878162 6951:0.47854325 
1.860242824393424E-5 0.0 0.0017435360962813518 3363:2.0483978 544:1.2602526 965:2.3485427 966:3.97186 17634:3.9057302 
0.0010177431447446234 2.17301885730744E-4 6.781148084213647E-4 5330:3.3030574 8022:4.1714325 981:2.9455311 2173:0.8334763 212:3.6553931 246:3.4599767 254:3.811281 4571:3.7900915 214:3.312344 22:2.8816297 1:0.78018105 491:3.8192499 1085:2.4018857 1953:3.7807915 1954:3.563754 42:2.3900511 17638:4.2294245 252:3.2356732 212:3.6553931 920:3.7771266 17640:4.290381 224:2.1074426 7918:2.9747267 17642:2.3171897 24:2.9154065 2:3.0394263 17643:3.5671163 249:3.4779253 252:3.2356732 1175:4.02337 228:1.8044066 17645:4.791976 21:0.19293088 2979:1.4511439 17646:5.03976 233:3.0097525 734:4.662342 22:2.8816297 23:3.7844877 252:3.2356732 22:2.8816297 17648:3.8212652 17649:1.8418438 242:1.7729318 255:3.7304578 17652:2.5825772 252:3.2356732 17654:4.87495 1085:2.4018857 1953:3.7807915 42:2.3900511 224:2.1074426 17655:2.567792 1175:4.02337 50:2.9214702 734:4.662342 213:3.309848 212:3.6553931 56:0.91637856 254:3.811281 22:2.8816297 3072:0.8957132 13278:2.0528164 242:1.7729318 258:3.675137 544:1.2602526 17656:2.7023778 33:2.7011507 523:1.8466357 17657:3.0100644 252:3.2356732 981:2.9455311 257:3.6010354 557:3.0933836 233:3.0097525 17658:3.9106655 243:2.3021395 4783:3.4742758 17649:1.8418438 252:3.2356732 16147:3.4001205 223:0.15908295 21:0.19293088 1729:3.0106888 17664:3.1885018 21:0.19293088 17649:1.8418438 1953:3.7807915 212:3.6553931 17666:1.9068851 17667:4.2141843 4790:3.2166874 252:3.2356732 2195:2.7151613 4790:3.2166874 214:3.312344 212:3.6553931 22:2.8816297 17671:4.0930057 16147:3.4001205 17674:4.4294276 257:3.6010354 230:1.2399162 244:4.6765823 233:3.0097525 1083:1.1784372 21:0.19293088 15:0.8185046 1016:2.2263331 212:3.6553931 356:2.327046 33:2.7011507 1215:3.9863863 17676:3.0417693 17677:4.791976 85:0.21601525 17575:2.878162 4459:0.611162 17782:2.2834167 16161:4.7734923 
0.0 0.0 0.0013274294663040904 211:4.089246 378:4.2560763 212:3.6553931 1729:3.0106888 965:2.3485427 15119:4.5739202 268:3.9893508 5853:4.648554 17812:4.089246 
2.682490352552063E-4 0.0013822708377555215 4.343528969954339E-4 356:2.327046 1575:2.160135 252:3.2356732 1576:1.711569 13:3.7523031 14:3.073438 7261:1.3665975 6655:3.6898105 1:0.78018105 4820:4.116277 15568:2.5748353 16560:2.2183979 2:3.0394263 50:2.9214702 18395:5.03976 32:2.8614476 18396:1.4871107 42:2.3900511 18397:3.8462076 18398:4.597401 18399:3.8093114 32:2.8614476 18396:1.4871107 42:2.3900511 18400:4.551644 395:3.8440735 2743:4.510251 18399:3.8093114 32:2.8614476 18396:1.4871107 42:2.3900511 18403:4.8112807 16560:2.2183979 18404:3.5294216 18405:3.728822 18406:3.4452827 18408:2.961694 4088:2.1468954 32:2.8614476 18396:1.4871107 42:2.3900511 18410:4.490946 490:4.1537037 246:3.4599767 14674:3.1856878 249:3.4779253 18411:3.3777292 1200:1.1551261 2837:1.595031 1729:3.0106888 268:3.9893508 18412:2.1140912 564:2.1910028 568:4.4294276 570:4.278642 571:4.662342 2219:4.7557635 2220:2.8198535 2221:3.7957687 719:3.6351898 
0.001593954446549278 7.641167849025171E-4 4.501751798958498E-4 356:2.327046 1575:2.160135 252:3.2356732 1576:1.711569 263:3.966183 2985:3.963372 212:3.6553931 266:3.7645376 4819:3.2289076 255:3.7304578 212:3.6553931 213:3.309848 22:2.8816297 14934:2.4730961 227:1.8104329 15:0.8185046 1182:4.284472 1070:3.5253146 2:3.0394263 38:2.8438606 3865:3.9805174 18513:4.6913056 925:3.4327178 2179:3.4788425 18517:3.6158845 18518:2.638625 822:2.5204372 3155:1.5342555 18519:4.7223396 564:2.1910028 568:4.4294276 570:4.278642 571:4.662342 885:4.662342 578:4.4055157 100:2.9619732 719:3.6351898 
0.0023031402637045542 0.0010534492629642657 9.612990557583437E-4 356:2.327046 1575:2.160135 252:3.2356732 1576:1.711569 212:3.6553931 746:1.6452278 18626:1.4643148 219:3.258834 966:3.97186 12816:3.682412 564:2.1910028 568:4.4294276 11630:3.4797616 11631:3.0166662 2215:3.2969747 2220:2.8198535 2214:3.451273 2215:3.2969747 2216:1.9558169 2219:4.7557635 2220:2.8198535 2221:3.7957687 578:4.4055157 2309:5.0745225 2310:2.972718 
3.7654586889313956E-4 1.1073460228136366E-4 1.1639091918446018E-4 356:2.327046 358:4.112311 18666:2.822074 212:3.6553931 213:3.309848 5999:2.4018857 24:2.9154065 246:3.4599767 17456:4.54092 18667:2.5292153 981:2.9455311 2173:0.8334763 212:3.6553931 245:3.6623418 56:0.91637856 254:3.811281 2992:2.451273 233:3.0097525 1074:2.9062214 2686:4.8314843 814:2.4856906 42:2.3900511 212:3.6553931 213:3.309848 7613:2.3950944 14164:3.4237294 2:3.0394263 7021:4.9495835 18671:2.3907251 212:3.6553931 7025:3.8273678 967:2.4607687 1:0.78018105 822:2.5204372 18:3.4109786 217:3.3302293 223:0.15908295 212:3.6553931 265:2.4556901 490:4.1537037 22:2.8816297 255:3.7304578 1554:4.6913056 925:3.4327178 1713:0.94099945 1714:2.0670235 359:3.941516 490:4.1537037 1716:3.4086287 245:3.6623418 807:3.7716866 255:3.7304578 1719:3.4797616 1720:2.2613306 395:3.8440735 1723:4.12028 374:1.831836 1724:3.9805174 490:4.1537037 1190:2.4001205 21:0.19293088 246:3.4599767 1725:4.3978286 1070:3.5253146 1729:3.0106888 1714:2.0670235 359:3.941516 1730:3.607161 1731:3.3374624 1732:1.5284735 1733:3.0324721 1734:3.2393606 1050:4.530454 359:3.941516 1736:2.9555967 1737:3.8681464 1741:2.9199462 1742:2.4472418 1741:2.9199462 1743:2.4747303 1744:4.158068 1751:5.0745225 1714:2.0670235 18680:2.438369 1879:4.622225 1883:1.3797929 1896:4.472462 
0.06118082292024321 0.0 0.0 564:2.1910028 4473:0.8163702 13497:4.7065454 13498:4.8314843 3194:1.7358004 3936:2.6923552 13500:4.9776125 
0.0022579512466878366 6.668925833112352E-4 4.002202698011036E-4 211:4.089246 212:3.6553931 213:3.309848 15:0.8185046 233:3.0097525 3216:3.6418202 3862:4.4377003 378:4.2560763 32:2.8614476 212:3.6553931 246:3.4599767 233:3.0097525 18808:1.9779309 18:3.4109786 20:3.6365077 18810:3.293965 258:3.675137 246:3.4599767 808:4.7065454 564:2.1910028 568:4.4294276 570:4.278642 571:4.662342 885:4.662342 2064:4.0533333 578:4.4055157 719:3.6351898 
7.397202874289866E-4 3.454555123809579E-4 2.566527072603235E-4 356:2.327046 1575:2.160135 252:3.2356732 1576:1.711569 21:0.19293088 15:0.8185046 18975:2.1623447 18976:3.2409503 1586:1.8729204 212:3.6553931 15:0.8185046 4562:4.3475237 24:2.9154065 2:3.0394263 18:3.4109786 252:3.2356732 2:3.0394263 808:4.7065454 1070:3.5253146 233:3.0097525 10085:2.9872735 1070:3.5253146 18979:4.13667 257:3.6010354 231:2.9947383 378:4.2560763 212:3.6553931 4006:2.2046065 21:0.19293088 2555:5.03976 18981:2.426732 966:3.97186 11953:2.3898265 2845:3.0308328 743:1.043845 15:0.8185046 4562:4.3475237 1:0.78018105 2:3.0394263 21:0.19293088 11869:2.4058259 18:3.4109786 18983:2.138889 252:3.2356732 2:3.0394263 18983:2.138889 808:4.7065454 370:1.8125066 257:3.6010354 371:2.524804 491:3.8192499 356:2.327046 44:2.7017636 490:4.1537037 491:3.8192499 2126:3.963372 15:0.8185046 6877:2.298548 4562:4.3475237 257:3.6010354 1960:4.100625 5003:3.3454926 1:0.78018105 15:0.8185046 4562:4.3475237 2845:3.0308328 257:3.6010354 365:1.1510106 258:3.675137 499:2.4878414 1057:0.7764356 21:0.19293088 18975:2.1623447 18986:2.1146467 1014:3.2136855 1015:4.9232545 21:0.19293088 1695:1.3619848 3079:2.6914554 252:3.2356732 33:2.7011507 1215:3.9863863 18988:2.4465594 18989:3.2126894 252:3.2356732 18992:4.9495835 18993:3.7753057 1751:5.0745225 3998:4.7387304 564:2.1910028 568:4.4294276 570:4.278642 571:4.662342 578:4.4055157 85:0.21601525 10328:3.4715586 719:3.6351898 
4.4102380192266317E-4 2.7714359791180116E-4 3.2956714787019386E-4 212:3.6553931 213:3.309848 509:4.4547334 22:2.8816297 15:0.8185046 4489:4.9495835 22:2.8816297 50:2.9214702 5088:2.7516143 5519:2.857697 543:3.1056504 19090:3.157192 543:3.1056504 19091:3.811281 263:3.966183 7628:1.685371 1057:0.7764356 4616:3.8377333 22:2.8816297 743:1.043845 214:3.312344 13:3.7523031 14911:3.2294242 266:3.7645376 13497:4.7065454 212:3.6553931 246:3.4599767 1070:3.5253146 388:3.5014572 13497:4.7065454 1706:3.7863476 214:3.312344 557:3.0933836 4820:4.116277 255:3.7304578 4783:3.4742758 2124:3.8912525 213:3.309848 212:3.6553931 246:3.4599767 516:1.965901 245:3.6623418 737:4.3024454 1706:3.7863476 4820:4.116277 257:3.6010354 243:2.3021395 244:4.6765823 4783:3.4742758 252:3.2356732 2:3.0394263 257:3.6010354 4173:2.4702964 2399:4.1899157 246:3.4599767 16638:2.082153 744:2.1288896 22:2.8816297 8:3.675137 2982:2.0644345 2190:1.7594972 263:3.966183 490:4.1537037 5481:2.2392547 233:3.0097525 734:4.662342 252:3.2356732 19099:2.2880666 257:3.6010354 22:2.8816297 13263:4.12028 19100:3.7127945 233:3.0097525 19101:2.374035 42:2.3900511 22:2.8816297 19102:3.9335954 1:0.78018105 19103:2.9393897 19105:5.03976 233:3.0097525 7451:3.0308328 499:2.4878414 22:2.8816297 13259:2.2490962 244:4.6765823 2122:2.5921252 266:3.7645376 920:3.7771266 233:3.0097525 19101:2.374035 491:3.8192499 257:3.6010354 56:0.91637856 1189:1.586336 4800:1.6000875 744:2.1288896 22:2.8816297 50:2.9214702 252:3.2356732 8698:2.9863863 967:2.4607687 7626:4.0464935 509:4.4547334 18:3.4109786 19110:4.87495 32:2.8614476 254:3.811281 375:2.986091 242:1.7729318 254:3.811281 744:2.1288896 22:2.8816297 3871:3.0275722 18:3.4109786 19110:4.87495 2190:1.7594972 564:2.1910028 568:4.4294276 570:4.278642 571:4.662342 16710:5.0745225 16711:4.361312 2219:4.7557635 2220:2.8198535 2221:3.7957687 578:4.4055157 19119:4.6765823 19159:2.6325655 19161:2.464839 5974:1.8345559 5974:1.8345559 5974:1.8345559 4329:1.8643377 719:3.6351898 
0.0 0.0011729691714113463 0.0 19231:2.2554173 252:3.2356732 806:2.8364763 21:0.19293088 15:0.8185046 2:3.0394263 2545:2.0459511 
4.4560253571558807E-4 5.966817715632432E-5 2.2474614005623777E-4 1687:1.0957372 2:3.0394263 1696:5.0745225 1070:3.5253146 3585:3.963372 11924:4.096799 1730:3.607161 564:2.1910028 5339:0.8556719 266:3.7645376 15103:3.9923356 1729:3.0106888 359:3.941516 211:4.089246 358:4.112311 359:3.941516 32:2.8614476 212:3.6553931 244:4.6765823 245:3.6623418 1016:2.2263331 5:4.1852207 1208:2.4992383 1707:4.42131 5339:0.8556719 17459:3.9106655 33:2.7011507 879:3.099857 3155:1.5342555 211:4.089246 358:4.112311 359:3.941516 1014:3.2136855 1015:4.9232545 21:0.19293088 1695:1.3619848 1208:2.4992383 522:0.52305406 18976:3.2409503 233:3.0097525 3998:4.7387304 257:3.6010354 18:3.4109786 6516:2.798252 252:3.2356732 22:2.8816297 2179:3.4788425 2:3.0394263 19247:4.4055157 252:3.2356732 233:3.0097525 24:2.9154065 527:3.5122294 378:4.2560763 1189:1.586336 1070:3.5253146 822:2.5204372 19250:3.503396 257:3.6010354 557:3.0933836 18:3.4109786 738:3.644501 2:3.0394263 4619:2.4763706 212:3.6553931 213:3.309848 264:4.8314843 6857:1.4370576 5872:1.6616 395:3.8440735 228:1.8044066 257:3.6010354 2:3.0394263 19251:2.3015897 254:3.811281 255:3.7304578 3145:3.410194 395:3.8440735 914:2.6485536 1:0.78018105 2:3.0394263 1070:3.5253146 491:3.8192499 3864:4.3407903 2:3.0394263 3865:3.9805174 2:3.0394263 3871:3.0275722 246:3.4599767 1713:0.94099945 8022:4.1714325 258:3.675137 244:4.6765823 7648:2.9764557 212:3.6553931 213:3.309848 1057:0.7764356 3871:3.0275722 2895:1.7191826 214:3.312344 212:3.6553931 490:4.1537037 19252:1.9788882 254:3.811281 920:3.7771266 32:2.8614476 965:2.3485427 19255:4.87495 257:3.6010354 264:4.8314843 22:2.8816297 2894:4.9776125 19257:4.33416 1:0.78018105 2:3.0394263 1070:3.5253146 491:3.8192499 3864:4.3407903 252:3.2356732 14436:1.28873 246:3.4599767 19258:2.9037719 255:3.7304578 5406:3.2891924 18:3.4109786 5406:3.2891924 213:3.309848 212:3.6553931 244:4.6765823 254:3.811281 214:3.312344 22:2.8816297 3864:4.3407903 1:0.78018105 246:3.4599767 254:3.811281 814:2.4856906 252:3.2356732 212:3.6553931 8932:1.922591 56:0.91637856 982:3.1960964 2501:3.5843296 32:2.8614476 21:0.19293088 15:0.8185046 11898:4.54092 249:3.4779253 19261:2.6571891 212:3.6553931 822:2.5204372 356:2.327046 33:2.7011507 879:3.099857 3155:1.5342555 1052:1.288819 10251:3.4173071 4459:0.611162 8537:0.76822066 284:1.4528356 5948:3.896025 
0.0013447580940158439 0.0014982644410276537 5.935985983762673E-4 804:2.6102564 514:3.825324 212:3.6553931 371:2.524804 228:1.8044066 19400:2.0030699 261:3.1691763 21:0.19293088 22:2.8816297 266:3.7645376 7874:1.1424377 19401:4.87495 252:3.2356732 7632:3.5462487 56:0.91637856 246:3.4599767 7633:4.096799 255:3.7304578 10095:2.602742 230:1.2399162 254:3.811281 1089:2.957251 1960:4.100625 212:3.6553931 360:4.3276286 19402:2.4625337 44:2.7017636 490:4.1537037 491:3.8192499 1729:3.0106888 1200:1.1551261 6862:1.3339163 743:1.043845 268:3.9893508 19403:3.060282 
0.0028948870547422026 0.001078922816143487 0.0011505575135641521 356:2.327046 1575:2.160135 252:3.2356732 1576:1.711569 378:4.2560763 19429:4.9232545 212:3.6553931 22:2.8816297 966:3.97186 2179:3.4788425 2:3.0394263 2401:4.1451035 33:2.7011507 807:3.7716866 233:3.0097525 3998:4.7387304 33:2.7011507 1215:3.9863863 19430:3.8592374 19431:2.9695802 8537:0.76822066 10251:3.4173071 
8.549229750940217E-4 7.026750284756805E-4 4.205856409164782E-4 356:2.327046 1575:2.160135 252:3.2356732 1576:1.711569 214:3.312344 13:3.7523031 356:2.327046 19439:3.7826357 245:3.6623418 19440:2.882792 499:2.4878414 499:2.4878414 13:3.7523031 1:0.78018105 523:1.8466357 522:0.52305406 229:1.8453526 245:3.6623418 1713:0.94099945 19443:2.8783922 214:3.312344 13:3.7523031 356:2.327046 19444:2.4406333 1070:3.5253146 246:3.4599767 22:2.8816297 1713:0.94099945 2116:2.9531267 499:2.4878414 252:3.2356732 56:0.91637856 22:2.8816297 517:2.116038 9990:3.9495835 356:2.327046 6649:3.9156575 14:3.073438 13:3.7523031 4820:4.116277 19447:2.5595322 5003:3.3454926 557:3.0933836 15:0.8185046 4489:4.9495835 1713:0.94099945 56:0.91637856 245:3.6623418 15105:2.203826 255:3.7304578 14162:3.5263379 544:1.2602526 15:0.8185046 8316:3.2192051 1212:3.5682428 1070:3.5253146 822:2.5204372 54:3.2527905 13:3.7523031 4820:4.116277 356:2.327046 1198:4.7387304 925:3.4327178 19451:2.9449935 17658:3.9106655 252:3.2356732 1695:1.3619848 19252:1.9788882 19477:2.764183 
0.006934217551031191 0.0 0.0017618576901959292 211:4.089246 212:3.6553931 2500:0.93324506 2894:4.9776125 2126:3.963372 32:2.8614476 212:3.6553931 18:3.4109786 268:3.9893508 19506:4.296371 
0.0015617999418900085 7.686913444634967E-5 0.0 211:4.089246 1048:1.6972464 490:4.1537037 491:3.8192499 265:2.4556901 22:2.8816297 3073:1.5784695 249:3.4779253 3471:3.7523031 24:2.9154065 224:2.1074426 924:3.4599767 252:3.2356732 879:3.099857 19612:2.5472147 3515:2.0644698 
0.0 0.0 2.9664073631570446E-4 265:2.4556901 5004:2.4386199 1014:3.2136855 1015:4.9232545 
1.30785085747118E-4 1.9100824589927327E-4 5.943679640047468E-5 13:3.7523031 499:2.4878414 233:3.0097525 1195:0.8373348 24:2.9154065 523:1.8466357 247:4.9776125 252:3.2356732 19629:3.1951396 2545:2.0459511 19630:4.261609 1957:3.7807915 14:3.073438 228:1.8044066 4809:3.1824276 2126:3.963372 19632:0.4682019 22:2.8816297 19633:4.3024454 375:2.986091 32:2.8614476 262:2.6212041 254:3.811281 4799:2.4560385 22:2.8816297 4792:4.290381 231:2.9947383 522:0.52305406 19634:3.4706566 2993:3.121085 2:3.0394263 4803:3.3978288 18:3.4109786 13:3.7523031 258:3.675137 1668:4.149382 
0.0 0.0012270375468998165 0.0 50:2.9214702 3926:2.350383 
