svm_type c_svc
kernel_type linear
nr_class 3
total_sv 4046
rho 1.0001691443191194 -0.9019678588541997 -0.9998027108993106
label 1 2 3
nr_sv 1257 1957 832
SV
0.0 0.00410483772275242 1:0.78018105 2:3.0394263 3:2.754896 4:1.1890669 5:4.1852207 8:3.675137 10:2.33899 11:4.7223396 13:3.7523031 14:3.073438 15:0.8185046 16:3.656774 1:0.78018105 2:3.0394263 18:3.4109786 20:3.6365077 21:0.19293088 22:2.8816297 23:3.7844877 24:2.9154065 25:2.4793017 24:2.9154065 2:3.0394263 27:5.112311 32:2.8614476 33:2.7011507 25:2.4793017 34:4.8526735 33:2.7011507 35:3.2414815 36:3.6794872 38:2.8438606 39:4.3828516 42:2.3900511 44:2.7017636 22:2.8816297 45:2.2575634 24:2.9154065 2:3.0394263 46:4.5739202 5:4.1852207 49:3.2289076 50:2.9214702 42:2.3900511 54:3.2527905 55:4.194662 18:3.4109786 56:0.91637856 57:4.520235 85:0.21601525 100:2.9619732 85:0.21601525 
0.003265375183248944 0.0010283104006271 126:2.8986723 128:3.593797 129:3.8795457 131:3.898431 133:5.0075755 135:3.5132222 136:3.2874162 137:4.278642 138:2.3584495 139:2.7841167 140:2.8081338 136:3.2874162 144:3.1880317 145:4.112311 146:3.4966478 136:3.2874162 147:5.03976 148:3.7080994 149:2.6765823 151:4.4816055 152:2.8998811 153:3.9106655 154:4.4377003 155:2.947958 156:2.2969747 157:4.520235 131:3.898431 129:3.8795457 158:3.084776 159:3.9468777 160:4.648554 161:3.115481 
0.0 0.002371823823156659 356:2.327046 358:4.112311 359:3.941516 212:3.6553931 360:4.3276286 356:2.327046 361:4.4294276 33:2.7011507 2:3.0394263 46:4.5739202 249:3.4779253 363:2.85094 244:4.6765823 365:1.1510106 2:3.0394263 366:4.472462 367:3.6928058 24:2.9154065 369:4.510251 370:1.8125066 371:2.524804 373:2.9212158 32:2.8614476 374:1.831836 375:2.986091 377:3.264402 378:4.2560763 15:0.8185046 233:3.0097525 383:3.3940358 233:3.0097525 212:3.6553931 213:3.309848 386:2.0920627 388:3.5014572 212:3.6553931 392:1.5442907 213:3.309848 363:2.85094 216:3.9335954 393:4.17598 245:3.6623418 2:3.0394263 394:3.4688582 395:3.8440735 5:4.1852207 397:4.3148546 2:3.0394263 33:2.7011507 401:4.026599 477:4.622225 
6.383692950130752E-4 0.0 485:3.020804 486:0.7694058 249:3.4779253 488:4.016983 489:2.507104 490:4.1537037 491:3.8192499 18:3.4109786 492:1.6338232 493:4.194662 494:3.3129704 496:2.0372286 24:2.9154065 2:3.0394263 498:3.8795457 499:2.4878414 13:3.7523031 233:3.0097525 500:4.158068 504:3.8505075 506:3.7370632 13:3.7523031 508:1.9803425 509:4.4547334 512:4.1537037 513:3.355053 514:3.825324 21:0.19293088 22:2.8816297 252:3.2356732 246:3.4599767 516:1.965901 517:2.116038 216:3.9335954 490:4.1537037 521:3.0926282 522:0.52305406 523:1.8466357 255:3.7304578 525:1.7758694 378:4.2560763 24:2.9154065 527:3.5122294 257:3.6010354 530:3.825324 532:2.1474943 533:3.416511 13:3.7523031 536:4.3024454 537:3.957804 538:2.1466818 395:3.8440735 539:2.1628766 541:1.6908566 542:2.139141 22:2.8816297 543:3.1056504 544:1.2602526 18:3.4109786 545:1.960579 546:3.0295255 547:1.8823732 548:1.6261897 13:3.7523031 549:2.782451 551:4.149382 252:3.2356732 18:3.4109786 553:4.166932 233:3.0097525 554:3.7096589 555:2.1700773 245:3.6623418 556:4.0364323 557:3.0933836 522:0.52305406 558:1.8950902 559:4.2398896 560:3.250071 252:3.2356732 561:3.8888857 557:3.0933836 245:3.6623418 268:3.9893508 563:4.622225 564:2.1910028 568:4.4294276 570:4.278642 571:4.662342 578:4.4055157 582:1.8967215 85:0.21601525 600:4.9232545 604:1.8212854 688:3.1660373 697:4.290381 719:3.6351898 
0.003008606743429104 0.0017358423699207082 211:4.089246 212:3.6553931 732:3.1119163 228:1.8044066 733:2.944725 33:2.7011507 734:4.662342 735:1.5747322 499:2.4878414 509:4.4547334 737:4.3024454 233:3.0097525 738:3.644501 22:2.8816297 740:4.3978286 257:3.6010354 32:2.8614476 557:3.0933836 743:1.043845 744:2.1288896 1:0.78018105 2:3.0394263 746:1.6452278 252:3.2356732 1:0.78018105 747:4.8112807 21:0.19293088 18:3.4109786 738:3.644501 750:3.7505832 752:3.2393606 2:3.0394263 753:2.2673256 257:3.6010354 754:5.03976 268:3.9893508 769:0.888756 786:0.77543473 792:2.1657693 
0.01813562482594938 9.906263284167598E-4 265:2.4556901 875:4.180576 879:3.099857 881:1.6010718 578:4.4055157 564:2.1910028 568:4.4294276 570:4.278642 571:4.662342 885:4.662342 719:3.6351898 
0.009181034095241345 0.02132700831572487 211:4.089246 965:2.3485427 966:3.97186 223:0.15908295 1006:1.5166944 378:4.2560763 32:2.8614476 212:3.6553931 22:2.8816297 1009:0.55121386 212:3.6553931 22:2.8816297 1012:4.290381 1014:3.2136855 1015:4.9232545 21:0.19293088 15:0.8185046 1016:2.2263331 252:3.2356732 1017:1.5889547 1019:2.236093 1020:3.3263342 
7.272852861289324E-4 6.79221613014895E-4 211:4.089246 1048:1.6972464 378:4.2560763 1049:3.2746077 33:2.7011507 1050:4.530454 1051:2.9458 1052:1.288819 965:2.3485427 1054:2.7604795 255:3.7304578 246:3.4599767 233:3.0097525 1057:0.7764356 1058:1.2771913 255:3.7304578 1059:2.2273612 1061:2.5838618 252:3.2356732 1066:2.6774518 212:3.6553931 491:3.8192499 1067:1.8781849 22:2.8816297 1069:3.7771266 46:4.5739202 1070:3.5253146 252:3.2356732 24:2.9154065 25:2.4793017 1074:2.9062214 532:2.1474943 920:3.7771266 1075:5.0075755 1076:3.2495291 1077:2.5320082 22:2.8816297 1078:2.305145 2:3.0394263 1079:3.799595 22:2.8816297 1081:2.7332528 2:3.0394263 1082:3.4643948 233:3.0097525 1083:1.1784372 1085:2.4018857 578:4.4055157 1086:2.123833 1:0.78018105 1088:4.8112807 254:3.811281 1089:2.957251 22:2.8816297 1090:3.6471987 249:3.4779253 24:2.9154065 1092:4.662342 513:3.355053 1093:2.5585382 216:3.9335954 1096:3.829421 1089:2.957251 246:3.4599767 1097:2.7663138 522:0.52305406 1098:1.1331807 1099:3.121085 255:3.7304578 525:1.7758694 1100:2.6884694 1102:4.0533333 21:0.19293088 1104:1.8938231 1:0.78018105 245:3.6623418 1106:4.472462 2:3.0394263 237:1.878761 1108:3.7610066 1110:2.0444288 1111:4.361312 1112:1.3882288 1113:2.416193 1114:1.516384 2:3.0394263 264:4.8314843 373:2.9212158 22:2.8816297 544:1.2602526 22:2.8816297 1116:2.9032836 1118:1.5509819 1119:3.038426 1120:3.925817 249:3.4779253 2:3.0394263 1122:1.5216514 24:2.9154065 1123:1.8249367 1124:3.2993975 252:3.2356732 33:2.7011507 2:3.0394263 1125:2.906467 1127:3.9863863 33:2.7011507 1128:4.510251 1133:2.8026807 522:0.52305406 1134:4.029852 388:3.5014572 252:3.2356732 1141:2.221433 388:3.5014572 388:3.5014572 1145:0.8520812 388:3.5014572 1147:2.0452402 388:3.5014572 1149:2.0715647 388:3.5014572 1151:1.2073447 388:3.5014572 1153:1.3051265 388:3.5014572 33:2.7011507 2:3.0394263 1157:4.2141843 1052:1.288819 509:4.4547334 1158:4.33416 365:1.1510106 1159:2.4045086 1160:1.1789019 1161:2.4444337 374:1.831836 257:3.6010354 18:3.4109786 228:1.8044066 1162:2.7178593 1163:2.0599318 1075:5.0075755 496:2.0372286 22:2.8816297 215:4.3148546 920:3.7771266 1111:4.361312 965:2.3485427 1169:3.7789552 33:2.7011507 1172:3.960579 257:3.6010354 24:2.9154065 516:1.965901 252:3.2356732 1175:4.02337 1176:1.8052819 1108:3.7610066 1106:4.472462 228:1.8044066 1070:3.5253146 1092:4.662342 24:2.9154065 1104:1.8938231 1:0.78018105 255:3.7304578 1180:2.3696573 24:2.9154065 2:3.0394263 1181:3.7271924 1182:4.284472 1052:1.288819 499:2.4878414 1092:4.662342 24:2.9154065 246:3.4599767 1185:4.7065454 1186:2.255088 1187:4.149382 262:2.6212041 257:3.6010354 1189:1.586336 1190:2.4001205 1193:1.3076946 252:3.2356732 388:3.5014572 395:3.8440735 1195:0.8373348 986:1.2191647 1196:2.9294295 244:4.6765823 1141:2.221433 1048:1.6972464 212:3.6553931 371:2.524804 1198:4.7387304 365:1.1510106 216:3.9335954 1199:1.2459913 1200:1.1551261 1201:4.4816055 1202:2.0404625 42:2.3900511 13:3.7523031 1057:0.7764356 1203:4.648554 374:1.831836 233:3.0097525 1204:3.4697564 24:2.9154065 2:3.0394263 1206:3.5494776 1207:2.7629452 44:2.7017636 1112:1.3882288 1208:2.4992383 1070:3.5253146 269:1.8385943 1209:4.413341 1210:3.134172 265:2.4556901 491:3.8192499 15:0.8185046 1212:3.5682428 395:3.8440735 1213:3.1271703 924:3.4599767 33:2.7011507 1215:3.9863863 1216:2.2081857 1341:4.016983 1426:1.5111402 284:1.4528356 85:0.21601525 786:0.77543473 1525:2.7758512 85:0.21601525 
0.011357225709048697 0.0 1643:3.343471 15:0.8185046 1644:3.6325655 1645:2.8222764 266:3.7645376 1646:4.209221 1647:3.5232759 1648:4.6351895 1649:5.0745225 1650:3.0627406 1652:2.7197738 
0.0 0.004089974766657799 265:2.4556901 266:3.7645376 255:3.7304578 1668:4.149382 1:0.78018105 1070:3.5253146 268:3.9893508 1672:4.0075755 1673:4.085518 
9.108427183370817E-4 7.778120206721813E-4 211:4.089246 358:4.112311 1685:3.2247958 213:3.309848 1687:1.0957372 1688:4.12432 228:1.8044066 229:1.8453526 261:3.1691763 1690:2.134255 242:1.7729318 18:3.4109786 1691:2.9412496 1692:2.4253497 254:3.811281 1693:1.1837987 879:3.099857 1017:1.5889547 1015:4.9232545 21:0.19293088 1695:1.3619848 1696:5.0745225 212:3.6553931 1697:2.9514878 18:3.4109786 744:2.1288896 232:1.418472 22:2.8816297 1701:4.9232545 249:3.4779253 1175:4.02337 2:3.0394263 1703:4.6765823 261:3.1691763 22:2.8816297 1701:4.9232545 2:3.0394263 875:4.180576 261:3.1691763 245:3.6623418 22:2.8816297 1701:4.9232545 1092:4.662342 1706:3.7863476 257:3.6010354 490:4.1537037 44:2.7017636 22:2.8816297 1701:4.9232545 1707:4.42131 229:1.8453526 261:3.1691763 1708:4.9232545 1709:3.0723562 245:3.6623418 1112:1.3882288 1711:3.966183 925:3.4327178 1713:0.94099945 1714:2.0670235 359:3.941516 490:4.1537037 1716:3.4086287 245:3.6623418 807:3.7716866 255:3.7304578 1719:3.4797616 1720:2.2613306 395:3.8440735 1723:4.12028 374:1.831836 1724:3.9805174 490:4.1537037 1190:2.4001205 21:0.19293088 246:3.4599767 1725:4.3978286 1070:3.5253146 1729:3.0106888 1714:2.0670235 359:3.941516 1730:3.607161 1731:3.3374624 1732:1.5284735 1733:3.0324721 1734:3.2393606 1050:4.530454 359:3.941516 1736:2.9555967 1737:3.8681464 1741:2.9199462 1742:2.4472418 1741:2.9199462 1743:2.4747303 1744:4.158068 1751:5.0745225 1714:2.0670235 1805:3.1554444 1812:3.005101 1805:3.1554444 1819:3.1554444 1805:3.1554444 1805:3.1554444 1879:4.622225 1883:1.3797929 1896:4.472462 
0.004095319998515735 6.877266191276659E-4 212:3.6553931 56:0.91637856 22:2.8816297 22:2.8816297 212:3.6553931 1708:4.9232545 2189:2.6640263 212:3.6553931 213:3.309848 216:3.9335954 252:3.2356732 2330:4.87495 2195:2.7151613 252:3.2356732 1729:3.0106888 56:0.91637856 2331:4.100625 2332:4.128398 808:4.7065454 252:3.2356732 806:2.8364763 1070:3.5253146 2334:3.9232547 1070:3.5253146 2335:4.4635077 56:0.91637856 1052:1.288819 15:0.8185046 2337:1.9369045 378:4.2560763 1:0.78018105 20:3.6365077 252:3.2356732 50:2.9214702 56:0.91637856 743:1.043845 1017:1.5889547 925:3.4327178 1070:3.5253146 2340:4.5739202 2380:4.520235 
7.143435137512125E-4 7.934729718041974E-4 212:3.6553931 213:3.309848 216:3.9335954 217:3.3302293 33:2.7011507 25:2.4793017 2543:3.3940358 2544:2.3762767 1937:3.4385362 2545:2.0459511 1956:3.7112238 33:2.7011507 1092:4.662342 212:3.6553931 213:3.309848 1189:1.586336 2547:2.800172 2548:2.5629733 266:3.7645376 246:3.4599767 1937:3.4385362 255:3.7304578 2549:4.3211946 213:3.309848 2550:3.2462924 2552:4.5855017 1960:4.100625 2553:2.3870678 2555:5.03976 981:2.9455311 33:2.7011507 509:4.4547334 2557:4.128398 212:3.6553931 360:4.3276286 252:3.2356732 228:1.8044066 254:3.811281 5:4.1852207 2545:2.0459511 2560:2.1140516 2555:5.03976 212:3.6553931 213:3.309848 2561:1.7671334 2562:4.8984313 1141:2.221433 212:3.6553931 544:1.2602526 1713:0.94099945 2564:3.374829 965:2.3485427 2565:1.2062699 2566:4.597401 255:3.7304578 44:2.7017636 266:3.7645376 1965:3.8356402 2567:3.6096356 255:3.7304578 2569:2.154486 18:3.4109786 257:3.6010354 254:3.811281 1089:2.957251 44:2.7017636 490:4.1537037 491:3.8192499 2571:3.3407903 2572:3.6083965 33:2.7011507 1215:3.9863863 2573:1.4351271 2574:4.7387304 2578:2.5539296 2580:4.791976 
0.010778490630764796 0.0 10:2.33899 2738:3.115481 499:2.4878414 33:2.7011507 2740:4.194662 14:3.073438 1962:3.7454636 18:3.4109786 2743:4.510251 2744:1.9830606 255:3.7304578 2745:2.577132 252:3.2356732 2746:3.6512766 15:0.8185046 
0.05160683756500504 0.022157289448662694 211:4.089246 18:3.4109786 257:3.6010354 15:0.8185046 3191:2.4675143 3192:1.9648876 242:1.7729318 1650:3.0627406 3194:1.7358004 3195:2.9086847 
0.004284394499629606 6.85654620060936E-4 13:3.7523031 14:3.073438 3308:4.7734923 15:0.8185046 3309:3.8419497 363:2.85094 365:1.1510106 373:2.9212158 56:0.91637856 245:3.6623418 3312:2.1478798 3232:3.309848 22:2.8816297 371:2.524804 3313:1.5919942 2121:2.7767618 378:4.2560763 18:3.4109786 10:2.33899 1182:4.284472 3315:2.7365642 1092:4.662342 810:4.1537037 3317:3.3726666 252:3.2356732 3319:2.4498107 3320:4.0201645 3321:2.4093323 33:2.7011507 747:4.8112807 
0.006224075865618424 0.0017459310375910891 356:2.327046 1575:2.160135 252:3.2356732 1576:1.711569 265:2.4556901 3510:3.3733864 490:4.1537037 965:2.3485427 966:3.97186 2179:3.4788425 807:3.7716866 1014:3.2136855 1015:4.9232545 233:3.0097525 1967:3.0774274 33:2.7011507 1215:3.9863863 3514:2.7131093 3515:2.0644698 564:2.1910028 568:4.4294276 570:4.278642 571:4.662342 2064:4.0533333 578:4.4055157 719:3.6351898 
0.0012108767388230826 3.663934806748593E-4 211:4.089246 358:4.112311 3557:4.42131 18:3.4109786 1074:2.9062214 1190:2.4001205 967:2.4607687 814:2.4856906 212:3.6553931 213:3.309848 22:2.8816297 1190:2.4001205 244:4.6765823 215:4.3148546 21:0.19293088 216:3.9335954 738:3.644501 925:3.4327178 1713:0.94099945 1714:2.0670235 359:3.941516 490:4.1537037 1716:3.4086287 245:3.6623418 807:3.7716866 255:3.7304578 1719:3.4797616 1720:2.2613306 395:3.8440735 1723:4.12028 374:1.831836 1724:3.9805174 490:4.1537037 1190:2.4001205 21:0.19293088 246:3.4599767 1725:4.3978286 1070:3.5253146 1729:3.0106888 1714:2.0670235 359:3.941516 1730:3.607161 1731:3.3374624 1732:1.5284735 1733:3.0324721 1734:3.2393606 1050:4.530454 359:3.941516 1736:2.9555967 1737:3.8681464 1741:2.9199462 1742:2.4472418 1741:2.9199462 1743:2.4747303 1744:4.158068 1751:5.0745225 1714:2.0670235 485:3.020804 266:3.7645376 3562:1.3593341 3563:2.3994317 3557:4.42131 211:4.089246 358:4.112311 359:3.941516 981:2.9455311 1175:4.02337 18:3.4109786 33:2.7011507 807:3.7716866 3566:3.134172 388:3.5014572 3567:3.793868 254:3.811281 212:3.6553931 246:3.4599767 3570:4.562639 213:3.309848 213:3.309848 263:3.966183 2773:3.6273644 3573:3.825324 3557:4.42131 1070:3.5253146 1714:2.0670235 359:3.941516 3578:2.8489976 3580:0.81077 1729:3.0106888 3563:2.3994317 3557:4.42131 3585:3.963372 3570:4.562639 211:4.089246 358:4.112311 3557:4.42131 212:3.6553931 213:3.309848 1695:1.3619848 1696:5.0745225 3587:1.1748934 212:3.6553931 744:2.1288896 2:3.0394263 3570:4.562639 257:3.6010354 216:3.9335954 257:3.6010354 243:2.3021395 509:4.4547334 216:3.9335954 738:3.644501 3590:4.0014153 33:2.7011507 807:3.7716866 1098:1.1331807 3570:4.562639 44:2.7017636 490:4.1537037 3591:5.0745225 21:0.19293088 22:2.8816297 3592:4.1451035 517:2.116038 3594:1.2191143 24:2.9154065 2116:2.9531267 3566:3.134172 925:3.4327178 1713:0.94099945 1714:2.0670235 359:3.941516 490:4.1537037 1716:3.4086287 245:3.6623418 807:3.7716866 255:3.7304578 1719:3.4797616 1720:2.2613306 395:3.8440735 1723:4.12028 374:1.831836 1724:3.9805174 490:4.1537037 1190:2.4001205 21:0.19293088 246:3.4599767 1725:4.3978286 1070:3.5253146 1729:3.0106888 1714:2.0670235 359:3.941516 1730:3.607161 1731:3.3374624 1732:1.5284735 1733:3.0324721 1734:3.2393606 1050:4.530454 359:3.941516 1736:2.9555967 1737:3.8681464 1741:2.9199462 1742:2.4472418 1741:2.9199462 1743:2.4747303 1744:4.158068 1751:5.0745225 1714:2.0670235 3612:1.9050438 1879:4.622225 1883:1.3797929 1896:4.472462 3612:1.9050438 1879:4.622225 1883:1.3797929 1896:4.472462 
0.020083093793464596 0.0034232028297337663 265:2.4556901 263:3.966183 373:2.9212158 1160:1.1789019 25:2.4793017 5:4.1852207 3785:2.4796696 2:3.0394263 3786:3.355744 3788:3.896025 
0.0068447700135544996 0.002210724535206846 804:2.6102564 514:3.825324 32:2.8614476 373:2.9212158 246:3.4599767 245:3.6623418 2:3.0394263 2565:1.2062699 3823:3.4760966 3824:2.3245285 252:3.2356732 245:3.6623418 18:3.4109786 3826:1.2854413 3827:3.8073506 3828:3.8841906 212:3.6553931 924:3.4599767 822:2.5204372 21:0.19293088 1695:1.3619848 3381:1.4096454 252:3.2356732 33:2.7011507 1215:3.9863863 3830:5.0745225 386:2.0920627 
0.00252837834441762 0.0016312339507900105 356:2.327046 1575:2.160135 252:3.2356732 1576:1.711569 24:2.9154065 3858:4.622225 1070:3.5253146 3861:3.5762117 3862:4.4377003 257:3.6010354 33:2.7011507 523:1.8466357 3864:4.3407903 1707:4.42131 3865:3.9805174 3866:4.7387304 3868:4.361312 257:3.6010354 557:3.0933836 1089:2.957251 1057:0.7764356 3871:3.0275722 227:1.8104329 15:0.8185046 1070:3.5253146 3875:3.0774274 252:3.2356732 263:3.966183 257:3.6010354 255:3.7304578 924:3.4599767 21:0.19293088 1695:1.3619848 3726:2.2109022 33:2.7011507 879:3.099857 3878:4.472462 
0.00517872185503938 1.7325328917309544E-4 3935:3.1329281 145:4.112311 3936:2.6923552 3937:3.1567543 3938:4.6765823 3939:2.692055 138:2.3584495 3940:3.0288734 3941:3.4368658 3942:1.8298124 3944:1.689378 2220:2.8198535 136:3.2874162 144:3.1880317 24:2.9154065 3946:3.9207075 138:2.3584495 3940:3.0288734 3947:3.3407903 3948:2.2902617 3949:2.9079442 129:3.8795457 137:4.278642 3951:3.2993975 3952:4.622225 3938:4.6765823 3939:2.692055 3972:4.0818214 3973:4.1899157 3977:4.520235 3979:4.6765823 
0.0029173973800476595 0.0016849939199972848 356:2.327046 1575:2.160135 252:3.2356732 1576:1.711569 1070:3.5253146 4473:0.8163702 388:3.5014572 4474:0.84367764 223:0.15908295 216:3.9335954 3216:3.6418202 4476:3.7223399 4477:1.4950532 252:3.2356732 2687:2.8903043 395:3.8440735 4479:2.829627 42:2.3900511 1070:3.5253146 1649:5.0745225 750:3.7505832 395:3.8440735 4486:3.4504123 24:2.9154065 4487:1.9362986 22:2.8816297 4489:4.9495835 523:1.8466357 4491:1.8002298 522:0.52305406 4492:1.4882634 249:3.4779253 4493:3.7505832 268:3.9893508 564:2.1910028 568:4.4294276 570:4.278642 571:4.662342 2219:4.7557635 2220:2.8198535 2221:3.7957687 578:4.4055157 719:3.6351898 
0.0017382601579645012 3.1137560255498E-4 356:2.327046 212:3.6553931 213:3.309848 2810:1.3762261 4616:3.8377333 744:2.1288896 224:2.1074426 4617:3.1158788 4618:4.490946 4619:2.4763706 2773:3.6273644 1706:3.7863476 2124:3.8912525 245:3.6623418 4622:3.264402 513:3.355053 1092:4.662342 4623:4.33416 2:3.0394263 4624:2.406214 4625:2.0324392 4622:3.264402 513:3.355053 1092:4.662342 212:3.6553931 213:3.309848 230:1.2399162 264:4.8314843 485:3.020804 4618:4.490946 499:2.4878414 22:2.8816297 247:4.9776125 817:4.375552 22:2.8816297 258:3.675137 1729:3.0106888 490:4.1537037 3510:3.3733864 2773:3.6273644 44:2.7017636 490:4.1537037 1057:0.7764356 265:2.4556901 4628:3.0774274 981:2.9455311 212:3.6553931 744:2.1288896 1057:0.7764356 4630:2.8834908 244:4.6765823 254:3.811281 254:3.811281 2122:2.5921252 246:3.4599767 4633:3.4661746 1937:3.4385362 214:3.312344 2:3.0394263 246:3.4599767 4635:3.8888857 4618:4.490946 1119:3.038426 1075:5.0075755 1190:2.4001205 2547:2.800172 255:3.7304578 4636:3.8483522 257:3.6010354 1729:3.0106888 263:3.966183 32:2.8614476 1057:0.7764356 4638:2.7352366 244:4.6765823 2503:3.1796527 33:2.7011507 1215:3.9863863 4639:3.5961964 4725:2.1802526 
0.005810005409963732 0.003008285181669602 356:2.327046 1575:2.160135 252:3.2356732 1576:1.711569 212:3.6553931 1190:2.4001205 4733:1.6406326 1009:0.55121386 24:2.9154065 1200:1.1551261 2545:2.0459511 33:2.7011507 4736:3.2388318 252:3.2356732 213:3.309848 1141:2.221433 1668:4.149382 378:4.2560763 24:2.9154065 4737:4.791976 33:2.7011507 262:2.6212041 808:4.7065454 1729:3.0106888 24:2.9154065 4740:4.7734923 4741:2.222195 4747:2.5038822 
0.0 5.715316116814213E-4 211:4.089246 212:3.6553931 4777:0.8362295 24:2.9154065 523:1.8466357 4778:3.292767 24:2.9154065 4779:4.413341 13:3.7523031 14:3.073438 15:0.8185046 33:2.7011507 22:2.8816297 2545:2.0459511 257:3.6010354 1190:2.4001205 4783:3.4742758 252:3.2356732 13:3.7523031 2685:3.6378298 22:2.8816297 4784:2.788965 4785:2.946608 212:3.6553931 213:3.309848 4786:1.746891 24:2.9154065 4788:2.7942476 22:2.8816297 231:2.9947383 4790:3.2166874 3378:2.2201152 744:2.1288896 212:3.6553931 4196:3.0038688 2685:3.6378298 22:2.8816297 4792:4.290381 22:2.8816297 1070:3.5253146 1210:3.134172 4793:2.522869 22:2.8816297 2545:2.0459511 1175:4.02337 4796:3.0246584 245:3.6623418 807:3.7716866 2743:4.510251 252:3.2356732 22:2.8816297 4797:2.0896952 257:3.6010354 254:3.811281 4799:2.4560385 360:4.3276286 1190:2.4001205 56:0.91637856 541:1.6908566 1189:1.586336 4800:1.6000875 4801:4.026599 263:3.966183 32:2.8614476 212:3.6553931 57:4.520235 266:3.7645376 246:3.4599767 4803:3.3978288 4804:2.4416435 255:3.7304578 4806:4.472462 18:3.4109786 2743:4.510251 255:3.7304578 4808:3.3030574 2:3.0394263 4809:3.1824276 254:3.811281 4810:2.3506565 557:3.0933836 4811:3.9441886 262:2.6212041 4812:4.3828516 4153:2.8581364 4813:3.5560083 212:3.6553931 371:2.524804 2740:4.194662 4814:3.516214 214:3.312344 373:2.9212158 246:3.4599767 56:0.91637856 32:2.8614476 4816:2.2260766 557:3.0933836 4819:3.2289076 21:0.19293088 246:3.4599767 4803:3.3978288 263:3.966183 371:2.524804 557:3.0933836 806:2.8364763 1057:0.7764356 1:0.78018105 4820:4.116277 252:3.2356732 232:1.418472 4821:2.30453 255:3.7304578 4808:3.3030574 262:2.6212041 4824:3.123509 4825:3.8704023 4826:1.0735933 2:3.0394263 4803:3.3978288 24:2.9154065 2:3.0394263 4827:4.6765823 1176:1.8052819 4828:4.128398 230:1.2399162 255:3.7304578 57:4.520235 378:4.2560763 32:2.8614476 373:2.9212158 557:3.0933836 807:3.7716866 4803:3.3978288 2501:3.5843296 1014:3.2136855 1015:4.9232545 1189:1.586336 215:4.3148546 3788:3.896025 4830:1.2964314 4837:1.9031616 4843:3.8232899 4459:0.611162 4891:4.3024454 2142:2.811676 85:0.21601525 4971:3.1673799 
0.005332971809454066 0.002020291967006443 211:4.089246 5078:4.7557635 807:3.7716866 485:3.020804 5080:2.7402363 3375:2.1823814 5081:1.2229685 245:3.6623418 807:3.7716866 920:3.7771266 56:0.91637856 24:2.9154065 2:3.0394263 2401:4.1451035 1014:3.2136855 1015:4.9232545 5083:4.2141843 257:3.6010354 557:3.0933836 5084:1.6174988 1089:2.957251 22:2.8816297 5085:1.9416226 21:0.19293088 22:2.8816297 5088:2.7516143 557:3.0933836 1089:2.957251 22:2.8816297 5089:4.0602818 2:3.0394263 255:3.7304578 5091:2.3278883 255:3.7304578 5092:2.6643076 33:2.7011507 1215:3.9863863 85:0.21601525 5112:4.7557635 
0.007787758036674325 0.0029996548506377166 212:3.6553931 213:3.309848 965:2.3485427 1182:4.284472 5242:1.6306859 262:2.6212041 15:0.8185046 33:2.7011507 25:2.4793017 378:4.2560763 32:2.8614476 212:3.6553931 18:3.4109786 5246:3.8548505 879:3.099857 5247:2.1928525 5248:4.1624775 
0.009524366215460583 0.004367832450767126 356:2.327046 1575:2.160135 252:3.2356732 1576:1.711569 213:3.309848 965:2.3485427 5092:2.6643076 5779:3.4343724 1691:2.9412496 15:0.8185046 5782:2.6012788 987:2.1343381 231:2.9947383 925:3.4327178 252:3.2356732 216:3.9335954 5783:4.27289 5784:2.7908442 5798:3.2677772 
0.0038937259539745376 8.42140716498199E-4 804:2.6102564 4170:2.7424207 557:3.0933836 15:0.8185046 4489:4.9495835 5804:4.089246 920:3.7771266 1960:4.100625 1960:4.100625 5807:2.6755702 24:2.9154065 15:0.8185046 2893:4.7065454 212:3.6553931 213:3.309848 22:2.8816297 966:3.97186 490:4.1537037 242:1.7729318 254:3.811281 21:0.19293088 514:3.825324 1085:2.4018857 5812:3.4070694 1014:3.2136855 1015:4.9232545 21:0.19293088 15:0.8185046 1016:2.2263331 5813:1.7983096 5814:3.7807915 4303:3.6312594 5843:3.2963712 
0.0022834085129900153 8.776299485521E-4 5461:4.0364323 5505:2.9911392 5852:3.0788872 1070:3.5253146 5853:4.648554 5467:3.4643948 5855:4.0014153 211:4.089246 2399:4.1899157 18:3.4109786 378:4.2560763 5858:3.6196775 491:3.8192499 1190:2.4001205 22:2.8816297 812:4.3978286 254:3.811281 1141:2.221433 925:3.4327178 5853:4.648554 5853:4.648554 5499:4.8112807 3715:2.2451649 5863:3.4039674 5502:4.597401 522:0.52305406 4153:2.8581364 5505:2.9911392 5852:3.0788872 1070:3.5253146 5078:4.7557635 128:3.593797 5855:4.0014153 211:4.089246 5853:4.648554 212:3.6553931 1697:2.9514878 557:3.0933836 1190:2.4001205 967:2.4607687 5868:4.108381 2179:3.4788425 1960:4.100625 2399:4.1899157 212:3.6553931 263:3.966183 13:3.7523031 5870:3.4062917 5871:2.0630224 5872:1.6616 33:2.7011507 807:3.7716866 5873:3.898431 5875:3.896025 1082:3.4643948 254:3.811281 814:2.4856906 257:3.6010354 1190:2.4001205 242:1.7729318 967:2.4607687 3375:2.1823814 1160:1.1789019 5876:4.1852207 1650:3.0627406 5530:3.6665652 5948:3.896025 5955:4.7387304 
0.0032799169950291467 0.0011040368657408506 224:2.1074426 4558:3.2827148 257:3.6010354 255:3.7304578 5996:4.12028 252:3.2356732 254:3.811281 1141:2.221433 24:2.9154065 4149:2.7512703 4562:4.3475237 5997:1.6190938 212:3.6553931 5998:3.5398617 5999:2.4018857 6000:4.5739202 255:3.7304578 2179:3.4788425 252:3.2356732 3375:2.1823814 6002:3.9362197 6004:3.863669 212:3.6553931 6005:3.286236 2126:3.963372 22:2.8816297 6006:1.9559546 499:2.4878414 255:3.7304578 1703:4.6765823 6007:3.9131544 499:2.4878414 254:3.811281 6008:2.8742647 5272:1.73072 212:3.6553931 215:4.3148546 3312:2.1478798 504:3.8505075 544:1.2602526 6010:3.3135974 22:2.8816297 966:3.97186 2565:1.2062699 6013:4.180576 6014:3.682412 6016:2.79615 926:1.5809249 926:1.5809249 544:1.2602526 15:0.8185046 6018:3.815247 1016:2.2263331 212:3.6553931 6079:3.8888857 
0.0 4.609507012431463E-4 356:2.327046 1575:2.160135 6159:1.4336188 1576:1.711569 13:3.7523031 14:3.073438 10:2.33899 227:1.8104329 15:0.8185046 226:2.9523065 252:3.2356732 228:1.8044066 6162:3.1593864 6163:3.3387904 5779:3.4343724 264:4.8314843 216:3.9335954 266:3.7645376 228:1.8044066 6167:3.2367237 1:0.78018105 2:3.0394263 1649:5.0745225 6168:3.680947 255:3.7304578 6169:2.9695802 212:3.6553931 371:2.524804 1198:4.7387304 365:1.1510106 490:4.1537037 491:3.8192499 216:3.9335954 54:3.2527905 33:2.7011507 6171:2.5819948 6172:3.6623418 564:2.1910028 568:4.4294276 570:4.278642 571:4.662342 578:4.4055157 719:3.6351898 
0.005267652953674557 0.0050950852966821746 356:2.327046 358:4.112311 359:3.941516 21:0.19293088 228:1.8044066 6220:3.9495835 2:3.0394263 6222:4.2452188 21:0.19293088 216:3.9335954 523:1.8466357 229:1.8453526 6223:3.733748 212:3.6553931 822:2.5204372 356:2.327046 33:2.7011507 1215:3.9863863 6224:1.6452413 6225:3.8462076 6226:4.510251 564:2.1910028 568:4.4294276 570:4.278642 571:4.662342 2064:4.0533333 578:4.4055157 6241:4.6765823 719:3.6351898 
0.0010717042808321032 3.171474444232258E-4 211:4.089246 4137:0.95755786 6325:3.9863863 6326:2.6485536 5205:2.7087226 254:3.811281 232:1.418472 810:4.1537037 1:0.78018105 2685:3.6378298 254:3.811281 2:3.0394263 814:2.4856906 1014:3.2136855 1015:4.9232545 21:0.19293088 1695:1.3619848 1696:5.0745225 212:3.6553931 213:3.309848 215:4.3148546 485:3.020804 1111:4.361312 810:4.1537037 252:3.2356732 2173:0.8334763 6331:3.6247869 21:0.19293088 246:3.4599767 3308:4.7734923 6332:4.100625 233:3.0097525 1074:2.9062214 216:3.9335954 1937:3.4385362 1070:3.5253146 1092:4.662342 6334:2.0710979 1052:1.288819 965:2.3485427 6326:2.6485536 21:0.19293088 246:3.4599767 3308:4.7734923 6332:4.100625 564:2.1910028 2894:4.9776125 1092:4.662342 1092:4.662342 6345:4.6351895 807:3.7716866 252:3.2356732 807:3.7716866 2503:3.1796527 6347:1.6337445 18:3.4109786 21:0.19293088 3312:2.1478798 6348:1.819451 228:1.8044066 1937:3.4385362 1070:3.5253146 513:3.355053 6350:2.115839 2809:1.2865309 807:3.7716866 252:3.2356732 807:3.7716866 2503:3.1796527 6347:1.6337445 18:3.4109786 21:0.19293088 3312:2.1478798 6348:1.819451 374:1.831836 228:1.8044066 808:4.7065454 1070:3.5253146 1092:4.662342 1092:4.662342 1092:4.662342 1092:4.662342 1092:4.662342 374:1.831836 246:3.4599767 808:4.7065454 21:0.19293088 6332:4.100625 1070:3.5253146 1092:4.662342 265:2.4556901 490:4.1537037 254:3.811281 255:3.7304578 6359:4.662342 212:3.6553931 5333:2.4487813 1960:4.100625 14:3.073438 925:3.4327178 1713:0.94099945 1714:2.0670235 359:3.941516 18:3.4109786 6362:2.0131955 6363:3.8548505 6364:2.7239513 6223:3.733748 1190:2.4001205 6366:3.3012235 245:3.6623418 1714:2.0670235 359:3.941516 1730:3.607161 1731:3.3374624 1732:1.5284735 1733:3.0324721 1734:3.2393606 1050:4.530454 359:3.941516 1736:2.9555967 1737:3.8681464 1741:2.9199462 1742:2.4472418 1741:2.9199462 1743:2.4747303 1744:4.158068 1751:5.0745225 1714:2.0670235 6497:3.381382 1879:4.622225 1883:1.3797929 1896:4.472462 
0.010434984455426751 3.391594587209756E-4 1691:2.9412496 2:3.0394263 6513:4.9495835 257:3.6010354 21:0.19293088 15:0.8185046 2987:3.0884974 6516:2.798252 564:2.1910028 568:4.4294276 570:4.278642 571:4.662342 2220:2.8198535 2221:3.7957687 719:3.6351898 
0.0023748905330499732 5.587514968030616E-4 6625:4.520235 6626:4.0331297 6628:2.7112238 228:1.8044066 6630:3.280383 6632:1.5962205 252:3.2356732 228:1.8044066 6634:4.9232545 6632:1.5962205 5530:3.6665652 6636:4.0331297 6638:3.7370632 5:4.1852207 23:3.7844877 23:3.7844877 252:3.2356732 6639:4.2506137 6640:2.7181778 233:3.0097525 6643:4.0745225 252:3.2356732 6644:4.0533333 22:2.8816297 6639:4.2506137 1954:3.563754 1953:3.7807915 6364:2.7239513 1:0.78018105 499:2.4878414 545:1.960579 257:3.6010354 557:3.0933836 6649:3.9156575 33:2.7011507 6650:4.7557635 245:3.6623418 228:1.8044066 6651:1.4173629 6652:1.8932029 249:3.4779253 6654:2.4643059 6655:3.6898105 255:3.7304578 6656:3.8570385 6675:4.2043138 6729:2.7647147 
3.7443682700117736E-4 7.880714098039864E-4 804:2.6102564 514:3.825324 212:3.6553931 213:3.309848 6857:1.4370576 525:1.7758694 212:3.6553931 4785:2.946608 509:4.4547334 244:4.6765823 228:1.8044066 261:3.1691763 21:0.19293088 266:3.7645376 378:4.2560763 6862:1.3339163 212:3.6553931 15:0.8185046 6863:3.339456 24:2.9154065 2:3.0394263 6864:3.5122294 1196:2.9294295 2195:2.7151613 807:3.7716866 6865:1.4947482 2:3.0394263 6866:2.499816 6867:1.5714242 548:1.6261897 6868:3.3835883 965:2.3485427 6869:2.7795053 1070:3.5253146 6870:3.3963075 6871:1.8530211 5:4.1852207 6872:3.640486 44:2.7017636 548:1.6261897 812:4.3978286 254:3.811281 1141:2.221433 6873:2.3062544 42:2.3900511 496:2.0372286 6874:3.7065456 1057:0.7764356 6875:1.8953537 6876:2.9547718 257:3.6010354 18:3.4109786 21:0.19293088 6877:2.298548 6878:2.1538339 244:4.6765823 254:3.811281 2:3.0394263 1729:3.0106888 2:3.0394263 2408:3.9468777 1052:1.288819 2500:0.93324506 817:4.375552 263:3.966183 489:2.507104 491:3.8192499 22:2.8816297 6883:2.396004 2:3.0394263 2197:2.4585724 6884:2.6916053 32:2.8614476 212:3.6553931 33:2.7011507 807:3.7716866 6885:3.8936322 2:3.0394263 2197:2.4585724 219:3.258834 6886:3.3117187 6887:3.2227545 22:2.8816297 1114:1.516384 2:3.0394263 2197:2.4585724 491:3.8192499 254:3.811281 987:2.1343381 268:3.9893508 3804:1.9997059 6889:3.617145 85:0.21601525 6951:0.47854325 
0.001541624776798584 0.0 1014:3.2136855 1015:4.9232545 491:3.8192499 257:3.6010354 214:3.312344 244:4.6765823 216:3.9335954 2493:4.9232545 557:3.0933836 258:3.675137 7104:2.273233 7105:3.7863476 249:3.4779253 7106:3.2827148 3308:4.7734923 7107:3.2880075 7109:4.284472 249:3.4779253 1200:1.1551261 1075:5.0075755 257:3.6010354 7112:4.149382 365:1.1510106 33:2.7011507 42:2.3900511 557:3.0933836 5083:4.2141843 374:1.831836 254:3.811281 7116:2.7580278 7117:2.3541563 42:2.3900511 365:1.1510106 374:1.831836 1:0.78018105 2:3.0394263 2126:3.963372 22:2.8816297 6864:3.5122294 2:3.0394263 2894:4.9776125 374:1.831836 22:2.8816297 2986:3.2484477 1092:4.662342 817:4.375552 33:2.7011507 6334:2.0710979 42:2.3900511 1650:3.0627406 7121:1.585678 5112:4.7557635 7173:4.1899157 
0.004404585327781154 0.0023673491658776696 804:2.6102564 514:3.825324 265:2.4556901 4000:3.2885997 490:4.1537037 491:3.8192499 18:3.4109786 255:3.7304578 879:3.099857 7191:1.9544697 7192:4.089246 
0.0029777033765640754 5.894476363113115E-4 5461:4.0364323 5505:2.9911392 1695:1.3619848 966:3.97186 42:2.3900511 7508:2.3339622 1070:3.5253146 5078:4.7557635 5500:3.0564463 5855:4.0014153 1175:4.02337 7511:3.3295777 5330:3.3030574 224:2.1074426 967:2.4607687 7455:2.4902854 7514:1.6772778 2:3.0394263 7516:1.3389435 509:4.4547334 252:3.2356732 7455:2.4902854 7518:4.3475237 2179:3.4788425 557:3.0933836 509:4.4547334 246:3.4599767 4150:1.3329047 3308:4.7734923 252:3.2356732 7520:2.4392061 1713:0.94099945 1014:3.2136855 1015:4.9232545 233:3.0097525 1967:3.0774274 252:3.2356732 6362:2.0131955 925:3.4327178 2179:3.4788425 7524:1.3080971 7525:2.1108525 7526:4.520235 3803:3.4862506 7525:2.1108525 1190:2.4001205 967:2.4607687 3375:2.1823814 7528:4.12028 2399:4.1899157 22:2.8816297 1959:2.2589445 244:4.6765823 215:4.3148546 2744:1.9830606 7529:2.2739198 1650:3.0627406 5530:3.6665652 7600:3.863669 
0.001998669288978848 9.337500701084255E-4 804:2.6102564 514:3.825324 212:3.6553931 360:4.3276286 7918:2.9747267 24:2.9154065 25:2.4793017 7919:3.6853564 7920:4.7734923 7447:3.714371 212:3.6553931 7922:1.6699594 7923:3.5142171 7925:4.290381 750:3.7505832 509:4.4547334 21:0.19293088 50:2.9214702 1:0.78018105 1953:3.7807915 7929:4.100625 230:1.2399162 1729:3.0106888 1014:3.2136855 7930:3.4652839 242:1.7729318 56:0.91637856 7931:3.667982 7932:3.881862 263:3.966183 32:2.8614476 212:3.6553931 1052:1.288819 56:0.91637856 233:3.0097525 7933:1.6472663 2:3.0394263 7934:3.656774 252:3.2356732 246:3.4599767 7936:2.530351 7937:1.653275 920:3.7771266 7918:2.9747267 57:4.520235 1014:3.2136855 1015:4.9232545 7938:1.6753103 7939:2.7700677 7940:5.0745225 212:3.6553931 213:3.309848 965:2.3485427 1:0.78018105 822:2.5204372 2845:3.0308328 
5.654277322875986E-4 7.553354455574064E-4 356:2.327046 1575:2.160135 252:3.2356732 1576:1.711569 1962:3.7454636 6857:1.4370576 4172:1.7591819 257:3.6010354 965:2.3485427 21:0.19293088 965:2.3485427 212:3.6553931 213:3.309848 6857:1.4370576 525:1.7758694 252:3.2356732 265:2.4556901 266:3.7645376 1016:2.2263331 212:3.6553931 233:3.0097525 213:3.309848 212:3.6553931 4803:3.3978288 8273:2.4076145 22:2.8816297 254:3.811281 24:2.9154065 8276:4.472462 257:3.6010354 2124:3.8912525 356:2.327046 7116:2.7580278 13:3.7523031 254:3.811281 2547:2.800172 14:3.073438 13:3.7523031 2176:2.3773656 212:3.6553931 360:4.3276286 24:2.9154065 219:3.258834 8283:4.4547334 981:2.9455311 8284:4.02337 32:2.8614476 212:3.6553931 254:3.811281 8287:3.2933657 22:2.8816297 255:3.7304578 8289:3.7471635 8291:2.90475 557:3.0933836 4489:4.9495835 8292:2.3878117 18:3.4109786 255:3.7304578 22:2.8816297 2337:1.9369045 1957:3.7807915 233:3.0097525 378:4.2560763 56:0.91637856 233:3.0097525 22:2.8816297 262:2.6212041 1057:0.7764356 8297:2.6982496 257:3.6010354 266:3.7645376 2190:1.7594972 1189:1.586336 263:3.966183 496:2.0372286 24:2.9154065 3216:3.6418202 509:4.4547334 8302:2.705616 8305:4.5739202 8306:4.4547334 32:2.8614476 2:3.0394263 4803:3.3978288 22:2.8816297 875:4.180576 233:3.0097525 8310:4.0044847 8313:2.3426652 2124:3.8912525 744:2.1288896 1057:0.7764356 8297:2.6982496 257:3.6010354 7918:2.9747267 14:3.073438 18:3.4109786 8315:1.6523567 215:4.3148546 233:3.0097525 265:2.4556901 266:3.7645376 8316:3.2192051 1016:2.2263331 33:2.7011507 8317:1.5682654 8321:2.9881625 8348:5.03976 5974:1.8345559 8434:2.914905 8453:3.2283914 8454:2.2148838 
0.0014909011048382715 9.681939796703497E-4 212:3.6553931 213:3.309848 1962:3.7454636 491:3.8192499 244:4.6765823 738:3.644501 15:0.8185046 8467:4.4461336 255:3.7304578 2896:1.1626903 5481:2.2392547 212:3.6553931 22:2.8816297 7201:4.354363 8469:4.510251 18:3.4109786 2743:4.510251 2744:1.9830606 2745:2.577132 252:3.2356732 8470:4.6351895 212:3.6553931 6748:2.1938994 6364:2.7239513 4491:1.8002298 32:2.8614476 212:3.6553931 252:3.2356732 2126:3.963372 2330:4.87495 212:3.6553931 490:4.1537037 6169:2.9695802 
1.7939569997616446E-4 5.481514664101258E-4 356:2.327046 1575:2.160135 252:3.2356732 1576:1.711569 212:3.6553931 822:2.5204372 244:4.6765823 15:0.8185046 8669:1.9671993 921:2.463419 2572:3.6083965 22:2.8816297 8670:1.8406383 22:2.8816297 249:3.4779253 21:0.19293088 244:4.6765823 8674:2.2119439 263:3.966183 8675:3.0990906 490:4.1537037 8677:2.9950397 18:3.4109786 8678:4.7734923 255:3.7304578 24:2.9154065 555:2.1700773 8681:2.4172275 15:0.8185046 1070:3.5253146 822:2.5204372 1729:3.0106888 18:3.4109786 2901:4.3276286 2:3.0394263 237:1.878761 2837:1.595031 2:3.0394263 2894:4.9776125 1070:3.5253146 810:4.1537037 252:3.2356732 512:4.1537037 8683:1.9955523 255:3.7304578 42:2.3900511 1693:1.1837987 360:4.3276286 212:3.6553931 496:2.0372286 10:2.33899 8685:2.756459 230:1.2399162 213:3.309848 212:3.6553931 2176:2.3773656 8688:3.659549 1141:2.221433 1584:2.1794221 212:3.6553931 920:3.7771266 2197:2.4585724 2330:4.87495 254:3.811281 22:2.8816297 14:3.073438 228:1.8044066 3371:1.7278597 255:3.7304578 521:3.0926282 213:3.309848 246:3.4599767 24:2.9154065 2:3.0394263 8694:3.1325142 744:2.1288896 212:3.6553931 18:3.4109786 2901:4.3276286 2:3.0394263 2894:4.9776125 812:4.3978286 254:3.811281 521:3.0926282 32:2.8614476 214:3.312344 212:3.6553931 2122:2.5921252 508:1.9803425 24:2.9154065 224:2.1074426 8695:3.130863 8696:3.8726702 8697:4.8314843 378:4.2560763 557:3.0933836 1:0.78018105 491:3.8192499 2:3.0394263 527:3.5122294 257:3.6010354 2561:1.7671334 3587:1.1748934 8698:2.9863863 232:1.418472 8699:1.9204283 523:1.8466357 1208:2.4992383 15:0.8185046 5147:3.1052618 18:3.4109786 2901:4.3276286 2:3.0394263 32:2.8614476 212:3.6553931 254:3.811281 521:3.0926282 214:3.312344 1057:0.7764356 243:2.3021395 522:0.52305406 2:3.0394263 22:2.8816297 212:3.6553931 1070:3.5253146 8703:3.286236 1052:1.288819 2330:4.87495 262:2.6212041 1208:2.4992383 42:2.3900511 33:2.7011507 1215:3.9863863 2179:3.4788425 2:3.0394263 8708:2.639023 8709:2.7060804 8710:4.8526735 8713:4.27289 8800:2.1330109 85:0.21601525 6283:2.5915298 8537:0.76822066 
0.005373824255724815 0.00179309483078342 211:4.089246 212:3.6553931 213:3.309848 228:1.8044066 261:3.1691763 33:2.7011507 571:4.662342 252:3.2356732 9090:3.6121244 6114:4.3902755 2126:3.963372 32:2.8614476 212:3.6553931 214:3.312344 246:3.4599767 808:4.7065454 22:2.8816297 2894:4.9776125 33:2.7011507 879:3.099857 4830:1.2964314 9091:3.1903882 564:2.1910028 568:4.4294276 570:4.278642 571:4.662342 2064:4.0533333 578:4.4055157 719:3.6351898 
7.290915672073337E-4 9.498781029739082E-4 356:2.327046 1575:2.160135 252:3.2356732 1576:1.711569 14:3.073438 4733:1.6406326 9124:1.8062565 15:0.8185046 9125:4.1325145 24:2.9154065 9128:3.3529866 18:3.4109786 544:1.2602526 9130:4.662342 33:2.7011507 50:2.9214702 252:3.2356732 367:3.6928058 9132:2.8522396 13:3.7523031 22:2.8816297 21:0.19293088 18:3.4109786 9135:4.3024454 263:3.966183 750:3.7505832 9138:3.896025 2687:2.8903043 4820:4.116277 499:2.4878414 3072:0.8957132 22:2.8816297 9139:4.4816055 499:2.4878414 1057:0.7764356 806:2.8364763 21:0.19293088 15:0.8185046 1954:3.563754 1070:3.5253146 9142:4.7734923 214:3.312344 371:2.524804 22:2.8816297 9143:4.278642 517:2.116038 252:3.2356732 523:1.8466357 9145:3.4173071 258:3.675137 1189:1.586336 9146:1.2146988 517:2.116038 3594:1.2191143 13:3.7523031 822:2.5204372 21:0.19293088 15:0.8185046 9148:2.279802 356:2.327046 5003:3.3454926 1200:1.1551261 9150:3.358519 233:3.0097525 9151:3.801521 257:3.6010354 268:3.9893508 
0.007106979502205556 0.00401809982201308 356:2.327046 1575:2.160135 252:3.2356732 1576:1.711569 1086:2.123833 216:3.9335954 9443:3.4797616 21:0.19293088 22:2.8816297 3926:2.350383 517:2.116038 21:0.19293088 965:2.3485427 879:3.099857 564:2.1910028 568:4.4294276 570:4.278642 571:4.662342 578:4.4055157 719:3.6351898 
5.284647821247894E-4 1.548606488605967E-4 5461:4.0364323 9473:3.656774 6163:3.3387904 24:2.9154065 9474:3.5377536 4571:3.7900915 1070:3.5253146 231:2.9947383 211:4.089246 212:3.6553931 24:2.9154065 25:2.4793017 252:3.2356732 1052:1.288819 257:3.6010354 8205:1.5270964 254:3.811281 22:2.8816297 1182:4.284472 9478:4.6765823 1706:3.7863476 965:2.3485427 2545:2.0459511 213:3.309848 212:3.6553931 1706:3.7863476 33:2.7011507 2557:4.128398 378:4.2560763 32:2.8614476 1200:1.1551261 2557:4.128398 245:3.6623418 2979:1.4511439 2545:2.0459511 9479:3.580832 42:2.3900511 544:1.2602526 15:0.8185046 9480:2.2115963 18:3.4109786 2547:2.800172 9482:2.0699503 22:2.8816297 50:2.9214702 257:3.6010354 356:2.327046 9483:3.0324721 252:3.2356732 254:3.811281 42:2.3900511 1713:0.94099945 1052:1.288819 9486:1.8689346 1960:4.100625 9487:3.0870051 5499:4.8112807 3715:2.2451649 5863:3.4039674 5855:4.0014153 522:0.52305406 4153:2.8581364 5505:2.9911392 9473:3.656774 6163:3.3387904 24:2.9154065 9474:3.5377536 4571:3.7900915 1070:3.5253146 5078:4.7557635 5863:3.4039674 211:4.089246 1052:1.288819 15:0.8185046 8669:1.9671993 21:0.19293088 22:2.8816297 9491:3.300614 9480:2.2115963 3580:0.81077 557:3.0933836 967:2.4607687 6167:3.2367237 24:2.9154065 9495:1.5214083 485:3.020804 6983:1.5208416 56:0.91637856 4173:2.4702964 215:4.3148546 22:2.8816297 3871:3.0275722 33:2.7011507 9496:3.6553931 365:1.1510106 557:3.0933836 1:0.78018105 2:3.0394263 3871:3.0275722 266:3.7645376 216:3.9335954 9498:4.42131 8503:1.3116876 2:3.0394263 9499:4.0431137 6163:3.3387904 252:3.2356732 2:3.0394263 1048:1.6972464 9502:1.5778348 42:2.3900511 56:0.91637856 557:3.0933836 1190:2.4001205 967:2.4607687 9503:4.3024454 1707:4.42131 9504:4.3475237 1017:1.5889547 925:3.4327178 5530:3.6665652 9584:4.9232545 
5.26902391970438E-4 2.879993276011485E-4 211:4.089246 358:4.112311 10037:4.03976 18:3.4109786 2176:2.3773656 217:3.3302293 743:1.043845 490:4.1537037 557:3.0933836 548:1.6261897 1709:3.0723562 215:4.3148546 2179:3.4788425 212:3.6553931 10039:4.194662 242:1.7729318 744:2.1288896 18:3.4109786 2064:4.0533333 21:0.19293088 10040:2.6991637 22:2.8816297 1096:3.829421 5:4.1852207 10042:4.7734923 7516:1.3389435 378:4.2560763 18:3.4109786 2116:2.9531267 490:4.1537037 544:1.2602526 22:2.8816297 3362:1.0597849 10044:1.427588 925:3.4327178 1713:0.94099945 1714:2.0670235 359:3.941516 18:3.4109786 6362:2.0131955 1729:3.0106888 8518:3.5283911 1190:2.4001205 3214:4.4055157 8519:3.1773536 8520:4.1899157 8521:2.6643076 1714:2.0670235 359:3.941516 1730:3.607161 1731:3.3374624 1732:1.5284735 1733:3.0324721 1734:3.2393606 1050:4.530454 359:3.941516 1736:2.9555967 1737:3.8681464 1741:2.9199462 1742:2.4472418 1741:2.9199462 1743:2.4747303 1744:4.158068 1751:5.0745225 1714:2.0670235 485:3.020804 266:3.7645376 3562:1.3593341 10037:4.03976 6305:4.4816055 804:2.6102564 514:3.825324 358:4.112311 359:3.941516 3585:3.963372 10051:2.8083298 10052:3.2993975 44:2.7017636 13:3.7523031 33:2.7011507 56:0.91637856 22:2.8816297 229:1.8453526 1203:4.648554 3824:2.3245285 2687:2.8903043 212:3.6553931 2896:1.1626903 374:1.831836 1709:3.0723562 3214:4.4055157 265:2.4556901 2572:3.6083965 490:4.1537037 491:3.8192499 15:0.8185046 9148:2.279802 212:3.6553931 18:3.4109786 2116:2.9531267 254:3.811281 33:2.7011507 1215:3.9863863 6305:4.4816055 10037:4.03976 10056:3.5082812 10052:3.2993975 1732:1.5284735 10057:4.026599 1751:5.0745225 10067:3.1037107 490:4.1537037 4820:4.116277 233:3.0097525 3998:4.7387304 1070:3.5253146 1714:2.0670235 359:3.941516 10072:2.8140535 4473:0.8163702 1729:3.0106888 10037:4.03976 6305:4.4816055 3585:3.963372 490:4.1537037 18:3.4109786 10075:2.7239513 10076:4.7223396 21:0.19293088 1713:0.94099945 1190:2.4001205 1070:3.5253146 229:1.8453526 1203:4.648554 365:1.1510106 22:2.8816297 254:3.811281 2902:3.4062917 7514:1.6772778 490:4.1537037 265:2.4556901 1052:1.288819 10076:4.7223396 21:0.19293088 1713:0.94099945 490:4.1537037 2195:2.7151613 8698:2.9863863 1070:3.5253146 10085:2.9872735 1203:4.648554 21:0.19293088 1713:0.94099945 10040:2.6991637 2205:3.0907457 6305:4.4816055 10037:4.03976 18:3.4109786 557:3.0933836 2195:2.7151613 8698:2.9863863 24:2.9154065 523:1.8466357 229:1.8453526 10087:1.5418316 21:0.19293088 10040:2.6991637 231:2.9947383 490:4.1537037 246:3.4599767 2683:3.226847 10089:1.89701 244:4.6765823 8218:3.0147696 233:3.0097525 6650:4.7557635 252:3.2356732 18:3.4109786 499:2.4878414 22:2.8816297 10090:2.5865595 10091:3.617145 490:4.1537037 33:2.7011507 807:3.7716866 229:1.8453526 2116:2.9531267 10092:3.060282 21:0.19293088 1713:0.94099945 10040:2.6991637 7619:4.3475237 3824:2.3245285 490:4.1537037 266:3.7645376 1695:1.3619848 9398:4.551644 10094:2.681386 255:3.7304578 10095:2.602742 18:3.4109786 2116:2.9531267 10096:2.0828533 22:2.8816297 10097:2.2964315 2:3.0394263 10098:2.719614 557:3.0933836 262:2.6212041 920:3.7771266 10101:2.2356207 21:0.19293088 228:1.8044066 10102:2.1877496 245:3.6623418 10104:4.8314843 490:4.1537037 8292:2.3878117 33:2.7011507 4006:2.2046065 216:3.9335954 542:2.139141 42:2.3900511 2979:1.4511439 1695:1.3619848 4407:4.0637984 10110:3.7523031 875:4.180576 2116:2.9531267 1006:1.5166944 490:4.1537037 557:3.0933836 4173:2.4702964 2179:3.4788425 925:3.4327178 2179:3.4788425 1741:2.9199462 1713:0.94099945 1714:2.0670235 359:3.941516 1714:2.0670235 359:3.941516 1730:3.607161 10111:4.9495835 1190:2.4001205 3824:2.3245285 245:3.6623418 1057:0.7764356 44:2.7017636 2179:3.4788425 10113:1.9832952 10114:2.2241826 254:3.811281 10115:2.1795144 42:2.3900511 265:2.4556901 3824:2.3245285 490:4.1537037 21:0.19293088 1695:1.3619848 10116:2.6724043 7613:2.3950944 490:4.1537037 4820:4.116277 1:0.78018105 10111:4.9495835 1741:2.9199462 10123:1.997609 1734:3.2393606 1050:4.530454 359:3.941516 1736:2.9555967 1737:3.8681464 1751:5.0745225 1744:4.158068 10142:4.87495 10157:3.5024257 6497:3.381382 1879:4.622225 1883:1.3797929 1896:4.472462 10251:3.4173071 10314:4.3407903 10328:3.4715586 1883:1.3797929 
0.0023277173877221218 0.0010437443282815815 804:2.6102564 514:3.825324 1695:1.3619848 3362:1.0597849 257:3.6010354 10486:3.0899951 216:3.9335954 356:2.327046 10488:5.112311 981:2.9455311 557:3.0933836 244:4.6765823 10490:1.9298962 5872:1.6616 365:1.1510106 490:4.1537037 1057:0.7764356 18:3.4109786 2116:2.9531267 21:0.19293088 56:0.91637856 2685:3.6378298 257:3.6010354 254:3.811281 10493:4.089246 557:3.0933836 509:4.4547334 10494:2.494834 491:3.8192499 813:2.5818784 213:3.309848 10496:4.4055157 509:4.4547334 21:0.19293088 22:2.8816297 213:3.309848 212:3.6553931 18:3.4109786 32:2.8614476 5959:2.1785476 42:2.3900511 15:0.8185046 7609:1.9071558 5272:1.73072 6649:3.9156575 33:2.7011507 879:3.099857 1050:4.530454 2940:4.1451035 1050:4.530454 564:2.1910028 568:4.4294276 2212:4.622225 2213:2.936483 2214:3.451273 2215:3.2969747 2216:1.9558169 885:4.662342 2064:4.0533333 578:4.4055157 2309:5.0745225 2310:2.972718 
0.005551467844784354 0.0021128635897094228 356:2.327046 1575:2.160135 252:3.2356732 10665:4.1852207 212:3.6553931 33:2.7011507 3805:4.472462 8289:3.7471635 5003:3.3454926 2:3.0394263 21:0.19293088 18:3.4109786 3216:3.6418202 18:3.4109786 212:3.6553931 24:2.9154065 8276:4.472462 257:3.6010354 1960:4.100625 255:3.7304578 1938:2.495597 257:3.6010354 10679:2.176712 3026:3.7680974 8348:5.03976 
0.006786797400044557 3.322364633572192E-4 10972:3.4157162 10973:2.200089 512:4.1537037 810:4.1537037 20:3.6365077 13:3.7523031 54:3.2527905 18:3.4109786 3824:2.3245285 6748:2.1938994 242:1.7729318 254:3.811281 378:4.2560763 216:3.9335954 10972:3.4157162 233:3.0097525 257:3.6010354 252:3.2356732 5003:3.3454926 2561:1.7671334 255:3.7304578 499:2.4878414 21:0.19293088 15:0.8185046 5147:3.1052618 13:3.7523031 822:2.5204372 925:3.4327178 5148:1.7298682 10987:2.8178446 786:0.77543473 
5.199080537427926E-4 4.243731673510927E-4 804:2.6102564 514:3.825324 212:3.6553931 214:3.312344 215:4.3148546 15:0.8185046 921:2.463419 395:3.8440735 378:4.2560763 491:3.8192499 257:3.6010354 22:2.8816297 4489:4.9495835 249:3.4779253 244:4.6765823 254:3.811281 24:2.9154065 18:3.4109786 5868:4.108381 25:2.4793017 3308:4.7734923 11228:3.8440735 212:3.6553931 965:2.3485427 233:3.0097525 7610:3.5346103 252:3.2356732 233:3.0097525 216:3.9335954 22:2.8816297 11232:3.4393737 245:3.6623418 2:3.0394263 257:3.6010354 491:3.8192499 18:3.4109786 18:3.4109786 2:3.0394263 1133:2.8026807 254:3.811281 246:3.4599767 11238:2.3980575 11239:1.6066923 257:3.6010354 212:3.6553931 808:4.7065454 258:3.675137 1965:3.8356402 810:4.1537037 395:3.8440735 1199:1.2459913 555:2.1700773 557:3.0933836 371:2.524804 11241:1.6522609 4806:4.472462 365:1.1510106 373:2.9212158 490:4.1537037 544:1.2602526 22:2.8816297 11243:3.2361982 7633:4.096799 11244:3.3000054 32:2.8614476 373:2.9212158 2330:4.87495 5084:1.6174988 509:4.4547334 22:2.8816297 11245:5.0745225 22:2.8816297 11246:1.9350369 11247:3.9232547 1189:1.586336 11249:2.9484992 11250:4.4816055 1017:1.5889547 925:3.4327178 11251:1.113905 11252:2.3736024 2142:2.811676 11325:3.9207075 11334:4.180576 
0.0100227093661476 0.00269506540630038 257:3.6010354 967:2.4607687 24:2.9154065 8276:4.472462 925:3.4327178 11336:3.8865318 564:2.1910028 568:4.4294276 570:4.278642 571:4.662342 2064:4.0533333 578:4.4055157 8348:5.03976 719:3.6351898 
0.009909278530270488 0.0053481759450479515 211:4.089246 212:3.6553931 5999:2.4018857 246:3.4599767 522:0.52305406 21:0.19293088 7613:2.3950944 252:3.2356732 11469:2.880934 212:3.6553931 246:3.4599767 32:2.8614476 212:3.6553931 22:2.8816297 11471:1.8527387 212:3.6553931 22:2.8816297 5089:4.0602818 2:3.0394263 11474:1.9661547 2409:1.5297828 924:3.4599767 
0.01315545476209108 0.002689968391048363 211:4.089246 1942:1.9985194 213:3.309848 212:3.6553931 1189:1.586336 216:3.9335954 2116:2.9531267 490:4.1537037 491:3.8192499 224:2.1074426 3472:3.4643948 32:2.8614476 212:3.6553931 254:3.811281 2477:4.54092 33:2.7011507 879:3.099857 11626:3.5796723 564:2.1910028 568:4.4294276 11630:3.4797616 11631:3.0166662 2215:3.2969747 2220:2.8198535 2214:3.451273 2215:3.2969747 2216:1.9558169 2219:4.7557635 2220:2.8198535 2221:3.7957687 2309:5.0745225 2310:2.972718 
0.04006688638759055 0.0017022734708667315 378:4.2560763 5206:2.9439206 490:4.1537037 255:3.7304578 11809:2.8243058 11810:3.9181752 
4.157932255077404E-4 5.539738352144235E-4 211:4.089246 4137:0.95755786 212:3.6553931 213:3.309848 1190:2.4001205 5999:2.4018857 244:4.6765823 215:4.3148546 1057:0.7764356 11850:1.3390632 981:2.9455311 509:4.4547334 245:3.6623418 22:2.8816297 6114:4.3902755 1070:3.5253146 262:2.6212041 365:1.1510106 395:3.8440735 244:4.6765823 216:3.9335954 2895:1.7191826 223:0.15908295 233:3.0097525 11852:1.9979123 1070:3.5253146 11853:1.3154466 4826:1.0735933 1057:0.7764356 11855:4.3902755 981:2.9455311 244:4.6765823 254:3.811281 5:4.1852207 10042:4.7734923 265:2.4556901 1554:4.6913056 490:4.1537037 22:2.8816297 11856:2.8511562 925:3.4327178 1713:0.94099945 1714:2.0670235 359:3.941516 2744:1.9830606 3211:3.811281 233:3.0097525 10040:2.6991637 1966:3.1700773 33:2.7011507 807:3.7716866 21:0.19293088 10040:2.6991637 1714:2.0670235 359:3.941516 1730:3.607161 1731:3.3374624 1732:1.5284735 1733:3.0324721 1734:3.2393606 1050:4.530454 359:3.941516 1736:2.9555967 1737:3.8681464 1741:2.9199462 1742:2.4472418 1741:2.9199462 1743:2.4747303 1744:4.158068 1751:5.0745225 1714:2.0670235 485:3.020804 266:3.7645376 3562:1.3593341 211:4.089246 358:4.112311 359:3.941516 11864:3.4853177 21:0.19293088 246:3.4599767 1958:4.662342 246:3.4599767 490:4.1537037 2902:3.4062917 11865:2.767383 14:3.073438 6364:2.7239513 249:3.4779253 44:2.7017636 11868:2.2943852 42:2.3900511 1176:1.8052819 3381:1.4096454 32:2.8614476 2:3.0394263 11869:2.4058259 11870:4.2192054 233:3.0097525 234:3.374829 4154:1.9660137 7874:1.1424377 2:3.0394263 6740:4.8526735 11871:2.0501735 42:2.3900511 1160:1.1789019 246:3.4599767 32:2.8614476 1057:0.7764356 4489:4.9495835 254:3.811281 263:3.966183 2330:4.87495 212:3.6553931 57:4.520235 266:3.7645376 246:3.4599767 11870:4.2192054 1014:3.2136855 1015:4.9232545 21:0.19293088 1695:1.3619848 2409:1.5297828 33:2.7011507 1215:3.9863863 11875:2.223264 1070:3.5253146 1714:2.0670235 359:3.941516 5080:2.7402363 4473:0.8163702 1729:3.0106888 3585:3.963372 5505:2.9911392 10116:2.6724043 211:4.089246 4137:0.95755786 11878:3.5043688 212:3.6553931 213:3.309848 22:2.8816297 1190:2.4001205 24:2.9154065 1713:0.94099945 2116:2.9531267 1690:2.134255 557:3.0933836 7612:0.9200426 15:0.8185046 8669:1.9671993 24:2.9154065 2:3.0394263 2893:4.7065454 557:3.0933836 7612:0.9200426 6857:1.4370576 11880:2.4440944 21:0.19293088 216:3.9335954 252:3.2356732 246:3.4599767 11881:4.8112807 22:2.8816297 11882:3.793868 257:3.6010354 1707:4.42131 265:2.4556901 10571:4.209221 490:4.1537037 22:2.8816297 1070:3.5253146 33:2.7011507 966:3.97186 244:4.6765823 2122:2.5921252 822:2.5204372 216:3.9335954 216:3.9335954 1958:4.662342 44:2.7017636 490:4.1537037 244:4.6765823 215:4.3148546 1:0.78018105 491:3.8192499 1724:3.9805174 925:3.4327178 1713:0.94099945 1714:2.0670235 359:3.941516 18:3.4109786 6362:2.0131955 1729:3.0106888 8518:3.5283911 1190:2.4001205 3214:4.4055157 8519:3.1773536 8520:4.1899157 8521:2.6643076 1714:2.0670235 359:3.941516 1730:3.607161 1731:3.3374624 1732:1.5284735 1733:3.0324721 1734:3.2393606 1050:4.530454 359:3.941516 1736:2.9555967 1737:3.8681464 1741:2.9199462 1742:2.4472418 1741:2.9199462 1743:2.4747303 1744:4.158068 1751:5.0745225 1714:2.0670235 485:3.020804 266:3.7645376 3562:1.3593341 356:2.327046 358:4.112311 359:3.941516 557:3.0933836 1052:1.288819 981:2.9455311 266:3.7645376 216:3.9335954 217:3.3302293 255:3.7304578 7205:2.3444133 246:3.4599767 212:3.6553931 32:2.8614476 11891:3.3536742 2901:4.3276286 2173:0.8334763 212:3.6553931 246:3.4599767 4150:1.3329047 11893:3.1956177 388:3.5014572 2901:4.3276286 24:2.9154065 2:3.0394263 2893:4.7065454 987:2.1343381 11891:3.3536742 266:3.7645376 11897:2.2913933 3371:1.7278597 212:3.6553931 490:4.1537037 265:2.4556901 557:3.0933836 258:3.675137 548:1.6261897 244:4.6765823 15:0.8185046 11898:4.54092 8206:2.2295794 212:3.6553931 11899:1.5455093 1729:3.0106888 490:4.1537037 11900:3.0481935 263:3.966183 548:1.6261897 1196:2.9294295 2547:2.800172 11901:2.337396 21:0.19293088 490:4.1537037 1014:3.2136855 1015:4.9232545 233:3.0097525 1967:3.0774274 33:2.7011507 1215:3.9863863 11875:2.223264 564:2.1910028 1092:4.662342 806:2.8364763 1687:1.0957372 486:0.7694058 1687:1.0957372 486:0.7694058 1687:1.0957372 486:0.7694058 1687:1.0957372 486:0.7694058 1687:1.0957372 486:0.7694058 1687:1.0957372 486:0.7694058 1070:3.5253146 1714:2.0670235 359:3.941516 5080:2.7402363 4473:0.8163702 1729:3.0106888 3585:3.963372 5505:2.9911392 11924:4.096799 10116:2.6724043 211:4.089246 4137:0.95755786 212:3.6553931 213:3.309848 22:2.8816297 4432:2.8520226 1190:2.4001205 8512:2.3563669 24:2.9154065 1713:0.94099945 2116:2.9531267 1690:2.134255 212:3.6553931 213:3.309848 22:2.8816297 4432:2.8520226 544:1.2602526 22:2.8816297 4562:4.3475237 1690:2.134255 266:3.7645376 231:2.9947383 22:2.8816297 255:3.7304578 11926:2.5833943 13:3.7523031 44:2.7017636 22:2.8816297 11927:4.87495 1052:1.288819 981:2.9455311 254:3.811281 11930:3.0892456 11931:4.9495835 557:3.0933836 33:2.7011507 261:3.1691763 255:3.7304578 25:2.4793017 217:3.3302293 752:3.2393606 374:1.831836 1724:3.9805174 490:4.1537037 1709:3.0723562 967:2.4607687 1:0.78018105 491:3.8192499 212:3.6553931 22:2.8816297 966:3.97186 374:1.831836 967:2.4607687 21:0.19293088 490:4.1537037 544:1.2602526 22:2.8816297 4562:4.3475237 24:2.9154065 1713:0.94099945 2116:2.9531267 2901:4.3276286 925:3.4327178 1713:0.94099945 1714:2.0670235 359:3.941516 18:3.4109786 6362:2.0131955 1729:3.0106888 8518:3.5283911 1190:2.4001205 3214:4.4055157 8519:3.1773536 8520:4.1899157 8521:2.6643076 1714:2.0670235 359:3.941516 1730:3.607161 1731:3.3374624 1732:1.5284735 1733:3.0324721 1734:3.2393606 1050:4.530454 359:3.941516 1736:2.9555967 1737:3.8681464 1741:2.9199462 1742:2.4472418 1741:2.9199462 1743:2.4747303 1744:4.158068 1751:5.0745225 1714:2.0670235 485:3.020804 4473:0.8163702 1:0.78018105 3562:1.3593341 211:4.089246 358:4.112311 359:3.941516 1052:1.288819 216:3.9335954 11893:3.1956177 806:2.8364763 11239:1.6066923 25:2.4793017 808:4.7065454 1070:3.5253146 1092:4.662342 24:2.9154065 4172:1.7591819 1014:3.2136855 1015:4.9232545 21:0.19293088 1695:1.3619848 3726:2.2109022 33:2.7011507 1215:3.9863863 11875:2.223264 1070:3.5253146 1714:2.0670235 359:3.941516 11945:4.8526735 4473:0.8163702 1729:3.0106888 3585:3.963372 10116:2.6724043 356:2.327046 4137:0.95755786 265:2.4556901 1554:4.6913056 490:4.1537037 965:2.3485427 1016:2.2263331 365:1.1510106 212:3.6553931 22:2.8816297 966:3.97186 25:2.4793017 7615:1.1054327 986:1.2191647 1958:4.662342 744:2.1288896 22:2.8816297 806:2.8364763 11952:3.963372 499:2.4878414 11953:2.3898265 744:2.1288896 22:2.8816297 11954:2.9471476 2:3.0394263 11955:0.99566394 920:3.7771266 22:2.8816297 806:2.8364763 22:2.8816297 245:3.6623418 246:3.4599767 808:4.7065454 11960:2.1325557 499:2.4878414 44:2.7017636 490:4.1537037 491:3.8192499 1015:4.9232545 252:3.2356732 879:3.099857 11875:2.223264 22:2.8816297 11927:4.87495 11961:2.1844275 1052:1.288819 11962:2.1357942 522:0.52305406 807:3.7716866 9150:3.358519 750:3.7505832 1092:4.662342 2:3.0394263 2179:3.4788425 246:3.4599767 966:3.97186 557:3.0933836 32:2.8614476 262:2.6212041 743:1.043845 18:3.4109786 1:0.78018105 523:1.8466357 4432:2.8520226 33:2.7011507 25:2.4793017 356:2.327046 808:4.7065454 216:3.9335954 9150:3.358519 1092:4.662342 2:3.0394263 1052:1.288819 1070:3.5253146 2:3.0394263 6081:2.8206596 490:4.1537037 491:3.8192499 22:2.8816297 966:3.97186 4432:2.8520226 11881:4.8112807 1070:3.5253146 388:3.5014572 1687:1.0957372 486:0.7694058 252:3.2356732 806:2.8364763 212:3.6553931 371:2.524804 374:1.831836 215:4.3148546 1048:1.6972464 33:2.7011507 8219:2.925817 485:3.020804 1181:3.7271924 1111:4.361312 8289:3.7471635 5003:3.3454926 22:2.8816297 3828:3.8841906 1960:4.100625 5003:3.3454926 22:2.8816297 4432:2.8520226 544:1.2602526 22:2.8816297 4562:4.3475237 8512:2.3563669 24:2.9154065 1713:0.94099945 2116:2.9531267 42:2.3900511 32:2.8614476 925:3.4327178 1713:0.94099945 1714:2.0670235 359:3.941516 18:3.4109786 6362:2.0131955 1729:3.0106888 8518:3.5283911 1190:2.4001205 3214:4.4055157 8519:3.1773536 8520:4.1899157 8521:2.6643076 1714:2.0670235 359:3.941516 1730:3.607161 1731:3.3374624 1732:1.5284735 1733:3.0324721 1734:3.2393606 1050:4.530454 359:3.941516 1736:2.9555967 1737:3.8681464 1741:2.9199462 1742:2.4472418 1741:2.9199462 1743:2.4747303 1744:4.158068 1751:5.0745225 1714:2.0670235 485:3.020804 4473:0.8163702 1:0.78018105 3562:1.3593341 358:4.112311 11971:4.6096354 11972:0.92033434 1014:3.2136855 1015:4.9232545 21:0.19293088 22:2.8816297 1212:3.5682428 54:3.2527905 490:4.1537037 265:2.4556901 244:4.6765823 245:3.6623418 22:2.8816297 3723:3.898431 212:3.6553931 246:3.4599767 7615:1.1054327 7648:2.9764557 32:2.8614476 365:1.1510106 212:3.6553931 22:2.8816297 966:3.97186 25:2.4793017 7615:1.1054327 986:1.2191647 15:0.8185046 3723:3.898431 744:2.1288896 22:2.8816297 806:2.8364763 11952:3.963372 499:2.4878414 1015:4.9232545 252:3.2356732 879:3.099857 11875:2.223264 1070:3.5253146 11630:3.4797616 485:3.020804 266:3.7645376 3562:1.3593341 1714:2.0670235 359:3.941516 356:2.327046 4137:0.95755786 1014:3.2136855 1015:4.9232545 21:0.19293088 1713:0.94099945 4139:4.530454 485:3.020804 265:2.4556901 1554:4.6913056 490:4.1537037 744:2.1288896 557:3.0933836 255:3.7304578 523:1.8466357 11980:2.7528205 1:0.78018105 2:3.0394263 11981:4.199461 4149:2.7512703 10116:2.6724043 257:3.6010354 216:3.9335954 11983:2.5573266 1070:3.5253146 257:3.6010354 557:3.0933836 255:3.7304578 11987:3.3970675 13:3.7523031 1645:2.8222764 490:4.1537037 266:3.7645376 1713:0.94099945 11988:2.1261501 252:3.2356732 1554:4.6913056 4820:4.116277 21:0.19293088 22:2.8816297 386:2.0920627 11989:4.6351895 211:4.089246 212:3.6553931 360:4.3276286 252:3.2356732 5481:2.2392547 5999:2.4018857 224:2.1074426 2116:2.9531267 21:0.19293088 246:3.4599767 810:4.1537037 2:3.0394263 818:2.3597736 11991:1.3522245 261:3.1691763 2:3.0394263 2337:1.9369045 261:3.1691763 5959:2.1785476 246:3.4599767 808:4.7065454 2:3.0394263 2124:3.8912525 8208:2.5466778 11993:2.1671557 4816:2.2260766 1057:0.7764356 11994:2.1111674 920:3.7771266 11995:4.622225 11996:1.342437 54:3.2527905 263:3.966183 2680:2.1060784 254:3.811281 2:3.0394263 527:3.5122294 257:3.6010354 2330:4.87495 1200:1.1551261 261:3.1691763 920:3.7771266 1960:4.100625 920:3.7771266 2895:1.7191826 42:2.3900511 263:3.966183 257:3.6010354 2:3.0394263 11998:2.5013607 2809:1.2865309 246:3.4599767 3072:0.8957132 365:1.1510106 212:3.6553931 22:2.8816297 966:3.97186 25:2.4793017 7615:1.1054327 986:1.2191647 1958:4.662342 744:2.1288896 22:2.8816297 806:2.8364763 11952:3.963372 499:2.4878414 11953:2.3898265 744:2.1288896 22:2.8816297 11954:2.9471476 2:3.0394263 11955:0.99566394 920:3.7771266 22:2.8816297 806:2.8364763 22:2.8816297 245:3.6623418 246:3.4599767 808:4.7065454 11960:2.1325557 499:2.4878414 44:2.7017636 490:4.1537037 491:3.8192499 1015:4.9232545 252:3.2356732 879:3.099857 11875:2.223264 2:3.0394263 11998:2.5013607 24:2.9154065 2:3.0394263 2809:1.2865309 252:3.2356732 257:3.6010354 2:3.0394263 744:2.1288896 2:3.0394263 808:4.7065454 1070:3.5253146 233:3.0097525 1074:2.9062214 1048:1.6972464 12004:3.6499128 920:3.7771266 7514:1.6772778 216:3.9335954 7516:1.3389435 243:2.3021395 509:4.4547334 228:1.8044066 12006:3.8841906 1707:4.42131 7518:4.3475237 490:4.1537037 265:2.4556901 254:3.811281 255:3.7304578 6359:4.662342 244:4.6765823 987:2.1343381 525:1.7758694 8516:3.1048734 925:3.4327178 1713:0.94099945 1714:2.0670235 359:3.941516 18:3.4109786 6362:2.0131955 1729:3.0106888 8518:3.5283911 1190:2.4001205 3214:4.4055157 8519:3.1773536 8520:4.1899157 8521:2.6643076 1714:2.0670235 359:3.941516 1730:3.607161 1731:3.3374624 1732:1.5284735 1733:3.0324721 1734:3.2393606 1050:4.530454 359:3.941516 1736:2.9555967 1737:3.8681464 1741:2.9199462 1742:2.4472418 1741:2.9199462 1743:2.4747303 1744:4.158068 1751:5.0745225 1714:2.0670235 5974:1.8345559 1879:4.622225 1883:1.3797929 1896:4.472462 2142:2.811676 85:0.21601525 2142:2.811676 4329:1.8643377 6497:3.381382 1879:4.622225 1883:1.3797929 1896:4.472462 284:1.4528356 85:0.21601525 12220:4.3902755 1426:1.5111402 12303:3.4237294 12220:4.3902755 6497:3.381382 1879:4.622225 1883:1.3797929 1896:4.472462 7463:2.4209883 7463:2.4209883 2142:2.811676 6497:3.381382 1879:4.622225 1883:1.3797929 1896:4.472462 7463:2.4209883 12602:2.0621774 6283:2.5915298 7463:2.4209883 7463:2.4209883 85:0.21601525 6497:3.381382 1879:4.622225 1883:1.3797929 1896:4.472462 
0.0 0.002377456990778899 13:3.7523031 246:3.4599767 12692:1.9737499 523:1.8466357 247:4.9776125 8931:4.4816055 245:3.6623418 11535:3.7034545 32:2.8614476 1200:1.1551261 12692:1.9737499 12695:3.1791918 42:2.3900511 564:2.1910028 568:4.4294276 570:4.278642 571:4.662342 2220:2.8198535 2221:3.7957687 578:4.4055157 719:3.6351898 
0.0031322586791067237 7.348755062205858E-5 10:2.33899 12719:3.9283943 1175:4.02337 15:0.8185046 12722:3.4706566 33:2.7011507 523:1.8466357 12723:4.261609 1070:3.5253146 12724:5.0075755 12725:2.441475 12726:3.3282776 1707:4.42131 12727:2.106351 12728:4.209221 557:3.0933836 243:2.3021395 967:2.4607687 13:3.7523031 228:1.8044066 12731:3.7223399 12732:1.8351187 5:4.1852207 12722:3.4706566 252:3.2356732 2:3.0394263 4803:3.3978288 5481:2.2392547 254:3.811281 1729:3.0106888 25:2.4793017 12692:1.9737499 12735:2.5131228 13:3.7523031 1716:3.4086287 24:2.9154065 1200:1.1551261 12736:2.733913 2545:2.0459511 252:3.2356732 499:2.4878414 252:3.2356732 1009:0.55121386 5996:4.12028 564:2.1910028 568:4.4294276 7212:5.03976 2059:3.1103413 2219:4.7557635 2220:2.8198535 2221:3.7957687 578:4.4055157 12760:2.3762767 
0.004062081419595723 2.6729701381427096E-4 12816:3.682412 1575:2.160135 12816:3.682412 1576:1.711569 257:3.6010354 557:3.0933836 1089:2.957251 12817:2.348951 15:0.8185046 12818:2.6399534 12819:1.9558444 1070:3.5253146 966:3.97186 12821:4.551644 1691:2.9412496 24:2.9154065 224:2.1074426 212:3.6553931 371:2.524804 965:2.3485427 33:2.7011507 25:2.4793017 1691:2.9412496 266:3.7645376 228:1.8044066 3363:2.0483978 255:3.7304578 3587:1.1748934 22:2.8816297 12826:3.815247 12827:2.7640061 255:3.7304578 506:3.7370632 7940:5.0745225 378:4.2560763 252:3.2356732 263:3.966183 212:3.6553931 2501:3.5843296 924:3.4599767 21:0.19293088 1695:1.3619848 1016:2.2263331 1650:3.0627406 12829:1.5029688 12831:4.1537037 12831:4.1537037 12867:4.7557635 
0.0036487587397151466 0.0011264210104503787 211:4.089246 1948:5.112311 12879:0.59685254 22:2.8816297 12880:4.3211946 252:3.2356732 2195:2.7151613 252:3.2356732 255:3.7304578 56:0.91637856 22:2.8816297 2401:4.1451035 263:3.966183 212:3.6553931 24:2.9154065 2:3.0394263 2401:4.1451035 257:3.6010354 22:2.8816297 11855:4.3902755 255:3.7304578 10095:2.602742 8206:2.2295794 365:1.1510106 15:0.8185046 2060:2.6910062 746:1.6452278 12881:4.8984313 2190:1.7594972 374:1.831836 1729:3.0106888 2493:4.9232545 257:3.6010354 22:2.8816297 12882:2.739399 2:3.0394263 11855:4.3902755 925:3.4327178 564:2.1910028 568:4.4294276 2212:4.622225 2213:2.936483 2214:3.451273 2215:3.2969747 2216:1.9558169 2219:4.7557635 2220:2.8198535 2221:3.7957687 2064:4.0533333 578:4.4055157 85:0.21601525 1426:1.5111402 2309:5.0745225 2310:2.972718 
3.3669384563066613E-4 2.8062696248186414E-5 13:3.7523031 506:3.7370632 258:3.675137 3210:3.580832 216:3.9335954 378:4.2560763 2687:2.8903043 212:3.6553931 18:3.4109786 2501:3.5843296 13:3.7523031 499:2.4878414 7925:4.290381 13086:3.896025 56:0.91637856 11246:1.9350369 13087:2.1742008 13088:4.1325145 810:4.1537037 14:3.073438 3375:2.1823814 245:3.6623418 13089:4.9495835 13090:2.5199323 13091:3.2856472 13092:3.8073506 13094:3.6096356 13:3.7523031 14:3.073438 10:2.33899 13095:3.8419497 2547:2.800172 13096:1.7253258 252:3.2356732 13097:3.680947 13098:4.7223396 13099:3.4976053 56:0.91637856 555:2.1700773 4188:2.865902 4196:3.0038688 24:2.9154065 15:0.8185046 13100:2.5265427 13101:2.7045338 252:3.2356732 4151:2.9941363 56:0.91637856 504:3.8505075 14:3.073438 228:1.8044066 13102:4.1852207 252:3.2356732 13103:3.8212652 56:0.91637856 7613:2.3950944 13104:4.8112807 252:3.2356732 13105:4.8984313 13:3.7523031 499:2.4878414 2:3.0394263 13106:4.8314843 18:3.4109786 13:3.7523031 2547:2.800172 506:3.7370632 496:2.0372286 13:3.7523031 1960:4.100625 4196:3.0038688 4801:4.026599 499:2.4878414 252:3.2356732 56:0.91637856 22:2.8816297 13108:2.7432637 13109:2.3872907 254:3.811281 3824:2.3245285 32:2.8614476 373:2.9212158 214:3.312344 254:3.811281 15:0.8185046 2561:1.7671334 1959:2.2589445 2501:3.5843296 13138:4.6096354 13192:2.1048734 
0.00621207283305015 0.0029679449753161656 356:2.327046 1575:2.160135 356:2.327046 1576:1.711569 212:3.6553931 265:2.4556901 490:4.1537037 22:2.8816297 817:4.375552 2179:3.4788425 245:3.6623418 224:2.1074426 255:3.7304578 3510:3.3733864 22:2.8816297 3471:3.7523031 1015:4.9232545 3194:1.7358004 13203:3.5273633 564:2.1910028 568:4.4294276 570:4.278642 571:4.662342 2220:2.8198535 2221:3.7957687 2064:4.0533333 578:4.4055157 719:3.6351898 
9.49213304204626E-4 6.581016622766408E-4 356:2.327046 1575:2.160135 252:3.2356732 1576:1.711569 920:3.7771266 7918:2.9747267 213:3.309848 212:3.6553931 12732:1.8351187 255:3.7304578 807:3.7716866 24:2.9154065 558:1.8950902 257:3.6010354 2:3.0394263 24:2.9154065 807:3.7716866 1200:1.1551261 13253:3.7223399 356:2.327046 4790:3.2166874 24:2.9154065 2:3.0394263 13254:3.9283943 1:0.78018105 13255:4.6096354 1149:2.0715647 2:3.0394263 2561:1.7671334 509:4.4547334 13255:4.6096354 1149:2.0715647 214:3.312344 56:0.91637856 233:3.0097525 13258:2.8222764 13259:2.2490962 266:3.7645376 22:2.8816297 13255:4.6096354 1149:2.0715647 499:2.4878414 13261:3.7734923 6643:4.0745225 252:3.2356732 13262:3.4377003 252:3.2356732 509:4.4547334 233:3.0097525 6644:4.0533333 22:2.8816297 13263:4.12028 245:3.6623418 13255:4.6096354 1149:2.0715647 5333:2.4487813 255:3.7304578 5205:2.7087226 22:2.8816297 14:3.073438 21:0.19293088 252:3.2356732 216:3.9335954 6547:2.4759142 544:1.2602526 4137:0.95755786 214:3.312344 13267:2.4294276 13268:2.9781919 5779:3.4343724 22:2.8816297 245:3.6623418 5872:1.6616 24:2.9154065 2:3.0394263 13270:4.096799 13271:3.0911217 5779:3.4343724 525:1.7758694 13:3.7523031 4820:4.116277 5003:3.3454926 245:3.6623418 9765:1.3077316 2:3.0394263 13273:2.082595 1:0.78018105 246:3.4599767 13274:3.6736968 6547:2.4759142 252:3.2356732 13276:4.3828516 2:3.0394263 13278:2.0528164 15:0.8185046 7932:3.881862 2:3.0394263 9499:4.0431137 6163:3.3387904 42:2.3900511 21:0.19293088 1695:1.3619848 1016:2.2263331 924:3.4599767 212:3.6553931 822:2.5204372 1591:3.5346103 252:3.2356732 33:2.7011507 1215:3.9863863 5965:4.8526735 85:0.21601525 13308:3.8483522 85:0.21601525 13374:1.8974911 
0.010894805790579795 0.0021146791869728495 544:1.2602526 1695:1.3619848 1957:3.7807915 1937:3.4385362 490:4.1537037 246:3.4599767 808:4.7065454 21:0.19293088 246:3.4599767 1960:4.100625 22:2.8816297 9398:4.551644 2:3.0394263 3231:1.1233711 13522:3.0173001 
0.0038841637641413343 0.00265255606194514 356:2.327046 358:4.112311 359:3.941516 33:2.7011507 257:3.6010354 3375:2.1823814 24:2.9154065 8276:4.472462 264:4.8314843 212:3.6553931 15:0.8185046 1957:3.7807915 395:3.8440735 249:3.4779253 378:4.2560763 1200:1.1551261 8206:2.2295794 13565:2.019654 252:3.2356732 2992:2.451273 986:1.2191647 56:0.91637856 1:0.78018105 13566:3.960579 216:3.9335954 1075:5.0075755 13569:3.5527308 268:3.9893508 8348:5.03976 
0.002975884350860752 9.010909266819131E-4 804:2.6102564 514:3.825324 13:3.7523031 4139:4.530454 1729:3.0106888 22:2.8816297 1648:4.6351895 523:1.8466357 9309:3.3073666 1182:4.284472 1057:0.7764356 371:2.524804 252:3.2356732 13645:3.2897863 750:3.7505832 806:2.8364763 378:4.2560763 371:2.524804 22:2.8816297 1648:4.6351895 544:1.2602526 1695:1.3619848 6168:3.680947 13647:2.8040376 6983:1.5208416 1015:4.9232545 233:3.0097525 1967:3.0774274 490:4.1537037 44:2.7017636 56:0.91637856 13648:3.1480942 508:1.9803425 2195:2.7151613 13497:4.7065454 10044:1.427588 1160:1.1789019 786:0.77543473 
0.004253215915951079 0.0020131535142103836 211:4.089246 212:3.6553931 1729:3.0106888 246:3.4599767 13688:2.4182644 5461:4.0364323 13691:4.3211946 257:3.6010354 252:3.2356732 5461:4.0364323 21:0.19293088 13695:2.8614476 212:3.6553931 32:2.8614476 22:2.8816297 5499:4.8112807 1122:1.5216514 13697:2.5955954 242:1.7729318 15:0.8185046 557:3.0933836 254:3.811281 1:0.78018105 914:2.6485536 13688:2.4182644 233:3.0097525 7203:3.9776123 2478:1.6655478 22:2.8816297 11855:4.3902755 1713:0.94099945 491:3.8192499 1650:3.0627406 13700:2.1957135 
0.00562066940779303 8.717076714472034E-4 224:2.1074426 4558:3.2827148 13812:3.2289076 13813:5.0075755 257:3.6010354 254:3.811281 233:3.0097525 214:3.312344 2987:3.0884974 233:3.0097525 13817:3.4751852 509:4.4547334 1118:1.5509819 233:3.0097525 738:3.644501 13818:2.0095654 257:3.6010354 491:3.8192499 216:3.9335954 2994:2.2211285 1940:1.6127738 2189:2.6640263 1014:3.2136855 1015:4.9232545 564:2.1910028 568:4.4294276 2059:3.1103413 7338:3.4504123 578:4.4055157 769:0.888756 
0.003192611872716084 7.435455519460517E-4 212:3.6553931 965:2.3485427 212:3.6553931 6748:2.1938994 6364:2.7239513 13998:3.0282223 252:3.2356732 14000:2.8304515 212:3.6553931 1:0.78018105 6168:3.680947 32:2.8614476 14002:2.8701763 
0.05823074027471747 0.004079349516085112 258:3.675137 212:3.6553931 5481:2.2392547 1141:2.221433 6748:2.1938994 
0.006920668355226316 0.0 13998:3.0282223 1070:3.5253146 14191:3.8462076 14192:2.7192943 14193:3.3985913 252:3.2356732 14195:2.0659578 21:0.19293088 6875:1.8953537 24:2.9154065 564:2.1910028 568:4.4294276 570:4.278642 571:4.662342 2219:4.7557635 2220:2.8198535 2221:3.7957687 578:4.4055157 719:3.6351898 
0.0035190640059743357 0.0023770621988019654 356:2.327046 1575:2.160135 252:3.2356732 1576:1.711569 212:3.6553931 1713:0.94099945 8214:3.9362197 356:2.327046 5868:4.108381 216:3.9335954 7447:3.714371 33:2.7011507 254:3.811281 5092:2.6643076 214:3.312344 490:4.1537037 509:4.4547334 14265:2.0435855 1070:3.5253146 388:3.5014572 255:3.7304578 212:3.6553931 265:2.4556901 266:3.7645376 11054:4.0431137 252:3.2356732 14268:2.834806 2992:2.451273 230:1.2399162 231:2.9947383 257:3.6010354 33:2.7011507 1215:3.9863863 3194:1.7358004 14269:4.9495835 10722:3.8232899 14298:5.0745225 
0.008244050335576944 0.004593385858016828 356:2.327046 1575:2.160135 252:3.2356732 1576:1.711569 7922:1.6699594 3371:1.7278597 360:4.3276286 212:3.6553931 245:3.6623418 4149:2.7512703 3362:1.0597849 254:3.811281 255:3.7304578 33:2.7011507 2:3.0394263 265:2.4556901 266:3.7645376 3371:1.7278597 14342:5.0075755 14343:4.7557635 
0.0404811419406556 0.0 1014:3.2136855 1015:4.9232545 21:0.19293088 246:3.4599767 14674:3.1856878 
0.003998006127267205 0.0022458892096106505 356:2.327046 1575:2.160135 252:3.2356732 1576:1.711569 212:3.6553931 213:3.309848 246:3.4599767 21:0.19293088 228:1.8044066 14849:3.6418202 227:1.8104329 228:1.8044066 2944:2.0757546 4568:2.4284456 4559:4.7734923 920:3.7771266 492:1.6338232 10614:4.472462 744:2.1288896 230:1.2399162 1:0.78018105 523:1.8466357 254:3.811281 14852:2.9322894 557:3.0933836 21:0.19293088 264:4.8314843 14853:3.6146276 224:2.1074426 4568:2.4284456 227:1.8104329 228:1.8044066 229:1.8453526 4558:3.2827148 255:3.7304578 8220:4.128398 18:3.4109786 4784:2.788965 215:4.3148546 6857:1.4370576 212:3.6553931 21:0.19293088 15:0.8185046 8669:1.9671993 33:2.7011507 1215:3.9863863 4830:1.2964314 14856:3.8526735 14898:3.510251 
0.0018164225289404794 2.3410131376210794E-4 7635:2.6758592 15271:2.2609413 212:3.6553931 213:3.309848 491:3.8192499 18:3.4109786 3718:2.1346288 1729:3.0106888 246:3.4599767 4803:3.3978288 3585:3.963372 15273:3.1079895 1122:1.5216514 213:3.309848 212:3.6553931 228:1.8044066 2179:3.4788425 15275:1.806042 5812:3.4070694 15276:3.3079855 212:3.6553931 18:3.4109786 22:2.8816297 246:3.4599767 22:2.8816297 258:3.675137 15279:2.2359357 245:3.6623418 15280:4.296371 3066:3.562639 252:3.2356732 15281:4.597401 15282:1.6228383 2547:2.800172 14703:2.605437 9503:4.3024454 513:3.355053 11432:1.5184411 230:1.2399162 242:1.7729318 254:3.811281 1729:3.0106888 22:2.8816297 15285:2.556228 22:2.8816297 1584:2.1794221 223:0.15908295 24:2.9154065 9495:1.5214083 33:2.7011507 15288:3.0505843 212:3.6553931 228:1.8044066 527:3.5122294 2126:3.963372 2:3.0394263 4623:4.33416 15292:2.0705595 15293:3.2538831 509:4.4547334 244:4.6765823 15292:2.0705595 15293:3.2538831 21:0.19293088 3312:2.1478798 14373:3.8232899 1175:4.02337 22:2.8816297 1584:2.1794221 2:3.0394263 257:3.6010354 258:3.675137 14703:2.605437 11901:2.337396 496:2.0372286 22:2.8816297 6000:4.5739202 254:3.811281 1141:2.221433 24:2.9154065 22:2.8816297 15295:2.2864718 4616:3.8377333 252:3.2356732 1962:3.7454636 2:3.0394263 15297:3.1633646 1085:2.4018857 14933:4.267213 4427:3.7645376 44:2.7017636 212:3.6553931 15276:3.3079855 254:3.811281 5003:3.3454926 822:2.5204372 18:3.4109786 231:2.9947383 15298:0.9275627 257:3.6010354 44:2.7017636 490:4.1537037 557:3.0933836 14162:3.5263379 1017:1.5889547 925:3.4327178 15382:3.4947388 
0.0067852041612442085 3.643512899300163E-4 7613:2.3950944 11145:3.7271924 257:3.6010354 356:2.327046 1938:2.495597 1957:3.7807915 257:3.6010354 1:0.78018105 15519:4.622225 56:0.91637856 744:2.1288896 13102:4.1852207 15520:4.17598 1960:4.100625 214:3.312344 15519:4.622225 509:4.4547334 245:3.6623418 246:3.4599767 233:3.0097525 818:2.3597736 555:2.1700773 808:4.7065454 15522:3.0975614 
0.001776848240266935 0.0010462398438483783 804:2.6102564 514:3.825324 212:3.6553931 1695:1.3619848 3381:1.4096454 252:3.2356732 504:3.8505075 378:4.2560763 212:3.6553931 987:2.1343381 246:3.4599767 504:3.8505075 4188:2.865902 2985:3.963372 212:3.6553931 213:3.309848 1070:3.5253146 252:3.2356732 2985:3.963372 15793:3.6553931 1070:3.5253146 212:3.6553931 213:3.309848 15796:2.4262438 257:3.6010354 18:3.4109786 5519:2.857697 231:2.9947383 15797:2.4007337 1960:4.100625 13:3.7523031 499:2.4878414 1956:3.7112238 13095:3.8419497 212:3.6553931 252:3.2356732 965:2.3485427 4137:0.95755786 18:3.4109786 257:3.6010354 21:0.19293088 367:3.6928058 252:3.2356732 4792:4.290381 32:2.8614476 212:3.6553931 987:2.1343381 265:2.4556901 266:3.7645376 1695:1.3619848 
0.0040357891608609215 0.002255393339732688 356:2.327046 1575:2.160135 252:3.2356732 1576:1.711569 212:3.6553931 213:3.309848 228:1.8044066 252:3.2356732 3312:2.1478798 24:2.9154065 920:3.7771266 2895:1.7191826 264:4.8314843 212:3.6553931 246:3.4599767 15892:3.995341 249:3.4779253 544:1.2602526 22:2.8816297 10095:2.602742 981:2.9455311 32:2.8614476 212:3.6553931 22:2.8816297 24:2.9154065 2:3.0394263 2401:4.1451035 257:3.6010354 557:3.0933836 1089:2.957251 544:1.2602526 22:2.8816297 2401:4.1451035 255:3.7304578 10095:2.602742 4816:2.2260766 2203:3.1459558 212:3.6553931 230:1.2399162 4173:2.4702964 1015:4.9232545 85:0.21601525 
6.184701686523863E-4 0.0 212:3.6553931 360:4.3276286 33:2.7011507 2:3.0394263 4489:4.9495835 965:2.3485427 817:4.375552 4425:4.010689 15934:4.2452188 252:3.2356732 33:2.7011507 15936:4.112311 255:3.7304578 6887:3.2227545 361:4.4294276 216:3.9335954 217:3.3302293 213:3.309848 212:3.6553931 365:1.1510106 233:3.0097525 517:2.116038 15939:3.562639 22:2.8816297 14934:2.4730961 42:2.3900511 212:3.6553931 4489:4.9495835 230:1.2399162 255:3.7304578 15941:3.7523031 252:3.2356732 33:2.7011507 807:3.7716866 229:1.8453526 557:3.0933836 214:3.312344 15:0.8185046 11898:4.54092 
0.003438387800192296 0.0013864042479055632 804:2.6102564 514:3.825324 212:3.6553931 213:3.309848 228:1.8044066 9502:1.5778348 252:3.2356732 2569:2.154486 965:2.3485427 6883:2.396004 252:3.2356732 11582:2.7833755 817:4.375552 1938:2.495597 32:2.8614476 18:3.4109786 2503:3.1796527 212:3.6553931 2330:4.87495 750:3.7505832 1729:3.0106888 6742:3.140445 252:3.2356732 32:2.8614476 491:3.8192499 18:3.4109786 254:3.811281 16182:3.9863863 15419:2.1041756 32:2.8614476 491:3.8192499 214:3.312344 16183:3.7387302 965:2.3485427 4432:2.8520226 2122:2.5921252 1014:3.2136855 1015:4.9232545 233:3.0097525 1967:3.0774274 33:2.7011507 1215:3.9863863 16185:2.7657802 16186:3.4742758 
0.0 0.0023776628938506333 212:3.6553931 265:2.4556901 266:3.7645376 395:3.8440735 2940:4.1451035 1014:3.2136855 1015:4.9232545 
0.008296952943639174 0.004509120262839806 356:2.327046 1575:2.160135 252:3.2356732 1576:1.711569 212:3.6553931 544:1.2602526 16289:3.8592374 1:0.78018105 16290:3.6209493 4567:2.6162624 265:2.4556901 4000:3.2885997 490:4.1537037 491:3.8192499 16291:3.520235 33:2.7011507 1215:3.9863863 16292:4.551644 
0.0037766267831750282 0.0024379761818613672 211:4.089246 981:2.9455311 2173:0.8334763 2:3.0394263 1070:3.5253146 491:3.8192499 4558:3.2827148 33:2.7011507 16304:5.0745225 254:3.811281 24:2.9154065 4149:2.7512703 392:1.5442907 42:2.3900511 216:3.9335954 16307:4.5739202 16308:5.112311 16309:3.208235 16317:3.8377333 16318:4.5739202 6632:1.5962205 16320:3.4724624 16318:4.5739202 6632:1.5962205 3235:5.0745225 3865:3.9805174 16324:4.284472 16327:3.9468777 8934:2.405438 212:3.6553931 16329:4.597401 22:2.8816297 966:3.97186 499:2.4878414 33:2.7011507 1215:3.9863863 13793:4.12432 564:2.1910028 568:4.4294276 570:4.278642 571:4.662342 578:4.4055157 719:3.6351898 
0.008993662430010048 8.937552540351305E-4 264:4.8314843 224:2.1074426 16558:3.4221148 254:3.811281 22:2.8816297 7021:4.9495835 2987:3.0884974 254:3.811281 22:2.8816297 16559:2.9707186 1:0.78018105 491:3.8192499 4826:1.0735933 16560:2.2183979 2:3.0394263 1116:2.9032836 16561:1.5125469 216:3.9335954 16562:2.2053885 4974:1.4661212 378:4.2560763 16563:4.3475237 2987:3.0884974 9399:2.3926032 230:1.2399162 254:3.811281 
0.0017905769113776206 0.001213754185019611 211:4.089246 212:3.6553931 216:3.9335954 4776:4.296371 2195:2.7151613 16733:2.4821606 360:4.3276286 212:3.6553931 356:2.327046 361:4.4294276 33:2.7011507 807:3.7716866 213:3.309848 233:3.0097525 2401:4.1451035 16734:2.8061783 813:2.5818784 392:1.5442907 263:3.966183 16735:3.0305054 257:3.6010354 491:3.8192499 5782:2.6012788 22:2.8816297 218:2.8415263 2:3.0394263 806:2.8364763 212:3.6553931 16736:4.284472 738:3.644501 1965:3.8356402 16737:2.4200249 810:4.1537037 512:4.1537037 252:3.2356732 16738:3.4679618 212:3.6553931 371:2.524804 22:2.8816297 806:2.8364763 10095:2.602742 485:3.020804 486:0.7694058 249:3.4779253 3594:1.2191143 56:0.91637856 22:2.8816297 4489:4.9495835 1070:3.5253146 743:1.043845 1057:0.7764356 33:2.7011507 252:3.2356732 24:2.9154065 2:3.0394263 33:2.7011507 231:2.9947383 213:3.309848 212:3.6553931 16742:4.278642 6884:2.6916053 557:3.0933836 16744:3.0752468 15:0.8185046 11630:3.4797616 10087:1.5418316 16753:3.9834418 7463:2.4209883 582:1.8967215 16777:1.388512 85:0.21601525 10328:3.4715586 
0.0035585119869690875 0.003019078032359453 356:2.327046 358:4.112311 359:3.941516 1:0.78018105 1965:3.8356402 2330:4.87495 212:3.6553931 8208:2.5466778 228:1.8044066 1958:4.662342 14:3.073438 212:3.6553931 509:4.4547334 2902:3.4062917 22:2.8816297 2894:4.9776125 486:0.7694058 249:3.4779253 378:4.2560763 4145:1.5682768 490:4.1537037 18:3.4109786 265:2.4556901 4628:3.0774274 1014:3.2136855 1015:4.9232545 268:3.9893508 3155:1.5342555 564:2.1910028 568:4.4294276 570:4.278642 571:4.662342 2064:4.0533333 578:4.4055157 16923:2.5750644 719:3.6351898 
0.018893128473698773 0.0014423636008920363 2979:1.4511439 21:0.19293088 15:0.8185046 9143:4.278642 523:1.8466357 16964:2.6375651 5754:1.4387372 252:3.2356732 16965:3.2891924 16966:2.349564 16967:2.6056828 1122:1.5216514 
0.0065392406391888164 0.0010734045653032513 804:2.6102564 8138:3.8795457 557:3.0933836 16981:3.4688582 365:1.1510106 373:2.9212158 22:2.8816297 2894:4.9776125 2:3.0394263 8512:2.3563669 544:1.2602526 22:2.8816297 2401:4.1451035 544:1.2602526 1057:0.7764356 7609:1.9071558 371:2.524804 212:3.6553931 356:2.327046 1198:4.7387304 987:2.1343381 231:2.9947383 33:2.7011507 1215:3.9863863 16983:1.9789172 16984:2.7284956 8154:3.8614476 5798:3.2677772 
0.004505807619688251 5.5857476366628E-4 212:3.6553931 5333:2.4487813 544:1.2602526 22:2.8816297 1:0.78018105 44:2.7017636 490:4.1537037 491:3.8192499 214:3.312344 965:2.3485427 13087:2.1742008 17136:4.9232545 1009:0.55121386 5996:4.12028 262:2.6212041 212:3.6553931 10039:4.194662 499:2.4878414 33:2.7011507 17138:3.2610526 212:3.6553931 395:3.8440735 15860:5.0075755 13087:2.1742008 265:2.4556901 266:3.7645376 4557:4.0331297 924:3.4599767 17141:2.8825593 17142:3.74887 10157:3.5024257 
0.012061814749196454 0.0 1646:4.209221 252:3.2356732 17891:3.793868 21:0.19293088 14651:2.174565 2:3.0394263 6655:3.6898105 1070:3.5253146 2:3.0394263 8:3.675137 5:4.1852207 
0.01396906426343102 0.0021016287170583904 211:4.089246 378:4.2560763 1189:1.586336 257:3.6010354 22:2.8816297 218:2.8415263 1:0.78018105 25:2.4793017 914:2.6485536 17521:4.4461336 33:2.7011507 17911:2.6859477 252:3.2356732 55:4.194662 1960:4.100625 56:0.91637856 10617:3.4157162 1089:2.957251 13:3.7523031 557:3.0933836 5779:3.4343724 1014:3.2136855 1015:4.9232545 21:0.19293088 22:2.8816297 3726:2.2109022 
1.9682859600211593E-4 4.4041138567163025E-4 356:2.327046 1575:2.160135 252:3.2356732 1576:1.711569 13:3.7523031 14:3.073438 7261:1.3665975 6655:3.6898105 1:0.78018105 4820:4.116277 15568:2.5748353 16560:2.2183979 2:3.0394263 50:2.9214702 18395:5.03976 32:2.8614476 18396:1.4871107 42:2.3900511 18397:3.8462076 18398:4.597401 18399:3.8093114 32:2.8614476 18396:1.4871107 42:2.3900511 18400:4.551644 395:3.8440735 2743:4.510251 18399:3.8093114 32:2.8614476 18396:1.4871107 42:2.3900511 18403:4.8112807 16560:2.2183979 18404:3.5294216 18405:3.728822 18406:3.4452827 18408:2.961694 4088:2.1468954 32:2.8614476 18396:1.4871107 42:2.3900511 18410:4.490946 490:4.1537037 246:3.4599767 14674:3.1856878 249:3.4779253 18411:3.3777292 1200:1.1551261 2837:1.595031 1729:3.0106888 268:3.9893508 18412:2.1140912 564:2.1910028 568:4.4294276 570:4.278642 571:4.662342 2219:4.7557635 2220:2.8198535 2221:3.7957687 719:3.6351898 
0.0 0.0015640599557878768 356:2.327046 1575:2.160135 252:3.2356732 1576:1.711569 263:3.966183 2985:3.963372 212:3.6553931 266:3.7645376 4819:3.2289076 255:3.7304578 212:3.6553931 213:3.309848 22:2.8816297 14934:2.4730961 227:1.8104329 15:0.8185046 1182:4.284472 1070:3.5253146 2:3.0394263 38:2.8438606 3865:3.9805174 18513:4.6913056 925:3.4327178 2179:3.4788425 18517:3.6158845 18518:2.638625 822:2.5204372 3155:1.5342555 18519:4.7223396 564:2.1910028 568:4.4294276 570:4.278642 571:4.662342 885:4.662342 578:4.4055157 100:2.9619732 719:3.6351898 
0.0 0.0013455878124251392 804:2.6102564 514:3.825324 212:3.6553931 213:3.309848 5999:2.4018857 216:3.9335954 21:0.19293088 2578:2.5539296 216:3.9335954 18835:1.688068 252:3.2356732 9643:2.094519 744:2.1288896 9487:3.0870051 252:3.2356732 233:3.0097525 1083:1.1784372 18837:5.0745225 42:2.3900511 18839:3.154573 252:3.2356732 1938:2.495597 18841:3.048875 18842:3.0176175 252:3.2356732 44:2.7017636 24:2.9154065 1083:1.1784372 1070:3.5253146 5868:4.108381 249:3.4779253 21:0.19293088 18837:5.0745225 1193:1.3076946 42:2.3900511 981:2.9455311 557:3.0933836 56:0.91637856 18844:2.785975 10886:0.023510125 24:2.9154065 2:3.0394263 6877:2.298548 18845:1.9337786 33:2.7011507 11243:3.2361982 18847:1.7400686 42:2.3900511 212:3.6553931 371:2.524804 1198:4.7387304 365:1.1510106 490:4.1537037 56:0.91637856 2940:4.1451035 18848:3.544109 54:3.2527905 4816:2.2260766 18849:2.8834908 32:2.8614476 212:3.6553931 822:2.5204372 56:0.91637856 2500:0.93324506 18850:2.436033 1122:1.5216514 5779:3.4343724 1017:1.5889547 925:3.4327178 18852:2.735734 18853:2.9179227 85:0.21601525 18901:3.286826 
0.01060701785686726 0.0 371:2.524804 378:4.2560763 2:3.0394263 18941:3.9550464 808:4.7065454 7508:2.3339622 56:0.91637856 22:2.8816297 371:2.524804 212:3.6553931 266:3.7645376 18944:2.4418964 255:3.7304578 219:3.258834 1014:3.2136855 1015:4.9232545 18947:2.8243058 18948:2.0003462 18949:4.02337 
0.0014939088343593476 7.445585284401804E-4 356:2.327046 1575:2.160135 252:3.2356732 1576:1.711569 21:0.19293088 15:0.8185046 18975:2.1623447 18976:3.2409503 1586:1.8729204 212:3.6553931 15:0.8185046 4562:4.3475237 24:2.9154065 2:3.0394263 18:3.4109786 252:3.2356732 2:3.0394263 808:4.7065454 1070:3.5253146 233:3.0097525 10085:2.9872735 1070:3.5253146 18979:4.13667 257:3.6010354 231:2.9947383 378:4.2560763 212:3.6553931 4006:2.2046065 21:0.19293088 2555:5.03976 18981:2.426732 966:3.97186 11953:2.3898265 2845:3.0308328 743:1.043845 15:0.8185046 4562:4.3475237 1:0.78018105 2:3.0394263 21:0.19293088 11869:2.4058259 18:3.4109786 18983:2.138889 252:3.2356732 2:3.0394263 18983:2.138889 808:4.7065454 370:1.8125066 257:3.6010354 371:2.524804 491:3.8192499 356:2.327046 44:2.7017636 490:4.1537037 491:3.8192499 2126:3.963372 15:0.8185046 6877:2.298548 4562:4.3475237 257:3.6010354 1960:4.100625 5003:3.3454926 1:0.78018105 15:0.8185046 4562:4.3475237 2845:3.0308328 257:3.6010354 365:1.1510106 258:3.675137 499:2.4878414 1057:0.7764356 21:0.19293088 18975:2.1623447 18986:2.1146467 1014:3.2136855 1015:4.9232545 21:0.19293088 1695:1.3619848 3079:2.6914554 252:3.2356732 33:2.7011507 1215:3.9863863 18988:2.4465594 18989:3.2126894 252:3.2356732 18992:4.9495835 18993:3.7753057 1751:5.0745225 3998:4.7387304 564:2.1910028 568:4.4294276 570:4.278642 571:4.662342 578:4.4055157 85:0.21601525 10328:3.4715586 719:3.6351898 
5.620695525467008E-4 0.0 212:3.6553931 213:3.309848 509:4.4547334 22:2.8816297 15:0.8185046 4489:4.9495835 22:2.8816297 50:2.9214702 5088:2.7516143 5519:2.857697 543:3.1056504 19090:3.157192 543:3.1056504 19091:3.811281 263:3.966183 7628:1.685371 1057:0.7764356 4616:3.8377333 22:2.8816297 743:1.043845 214:3.312344 13:3.7523031 14911:3.2294242 266:3.7645376 13497:4.7065454 212:3.6553931 246:3.4599767 1070:3.5253146 388:3.5014572 13497:4.7065454 1706:3.7863476 214:3.312344 557:3.0933836 4820:4.116277 255:3.7304578 4783:3.4742758 2124:3.8912525 213:3.309848 212:3.6553931 246:3.4599767 516:1.965901 245:3.6623418 737:4.3024454 1706:3.7863476 4820:4.116277 257:3.6010354 243:2.3021395 244:4.6765823 4783:3.4742758 252:3.2356732 2:3.0394263 257:3.6010354 4173:2.4702964 2399:4.1899157 246:3.4599767 16638:2.082153 744:2.1288896 22:2.8816297 8:3.675137 2982:2.0644345 2190:1.7594972 263:3.966183 490:4.1537037 5481:2.2392547 233:3.0097525 734:4.662342 252:3.2356732 19099:2.2880666 257:3.6010354 22:2.8816297 13263:4.12028 19100:3.7127945 233:3.0097525 19101:2.374035 42:2.3900511 22:2.8816297 19102:3.9335954 1:0.78018105 19103:2.9393897 19105:5.03976 233:3.0097525 7451:3.0308328 499:2.4878414 22:2.8816297 13259:2.2490962 244:4.6765823 2122:2.5921252 266:3.7645376 920:3.7771266 233:3.0097525 19101:2.374035 491:3.8192499 257:3.6010354 56:0.91637856 1189:1.586336 4800:1.6000875 744:2.1288896 22:2.8816297 50:2.9214702 252:3.2356732 8698:2.9863863 967:2.4607687 7626:4.0464935 509:4.4547334 18:3.4109786 19110:4.87495 32:2.8614476 254:3.811281 375:2.986091 242:1.7729318 254:3.811281 744:2.1288896 22:2.8816297 3871:3.0275722 18:3.4109786 19110:4.87495 2190:1.7594972 564:2.1910028 568:4.4294276 570:4.278642 571:4.662342 16710:5.0745225 16711:4.361312 2219:4.7557635 2220:2.8198535 2221:3.7957687 578:4.4055157 19119:4.6765823 19159:2.6325655 19161:2.464839 5974:1.8345559 5974:1.8345559 5974:1.8345559 4329:1.8643377 719:3.6351898 
0.05331249411422241 0.003264227819720665 19231:2.2554173 252:3.2356732 806:2.8364763 21:0.19293088 15:0.8185046 2:3.0394263 2545:2.0459511 
0.0018830582985609723 0.0012251964497760426 356:2.327046 1575:2.160135 252:3.2356732 1576:1.711569 214:3.312344 13:3.7523031 356:2.327046 19439:3.7826357 245:3.6623418 19440:2.882792 499:2.4878414 499:2.4878414 13:3.7523031 1:0.78018105 523:1.8466357 522:0.52305406 229:1.8453526 245:3.6623418 1713:0.94099945 19443:2.8783922 214:3.312344 13:3.7523031 356:2.327046 19444:2.4406333 1070:3.5253146 246:3.4599767 22:2.8816297 1713:0.94099945 2116:2.9531267 499:2.4878414 252:3.2356732 56:0.91637856 22:2.8816297 517:2.116038 9990:3.9495835 356:2.327046 6649:3.9156575 14:3.073438 13:3.7523031 4820:4.116277 19447:2.5595322 5003:3.3454926 557:3.0933836 15:0.8185046 4489:4.9495835 1713:0.94099945 56:0.91637856 245:3.6623418 15105:2.203826 255:3.7304578 14162:3.5263379 544:1.2602526 15:0.8185046 8316:3.2192051 1212:3.5682428 1070:3.5253146 822:2.5204372 54:3.2527905 13:3.7523031 4820:4.116277 356:2.327046 1198:4.7387304 925:3.4327178 19451:2.9449935 17658:3.9106655 252:3.2356732 1695:1.3619848 19252:1.9788882 19477:2.764183 
0.019193211933816984 0.004767747331574299 211:4.089246 1048:1.6972464 490:4.1537037 491:3.8192499 265:2.4556901 22:2.8816297 3073:1.5784695 249:3.4779253 3471:3.7523031 24:2.9154065 224:2.1074426 924:3.4599767 252:3.2356732 879:3.099857 19612:2.5472147 3515:2.0644698 
0.08325409491025133 0.002298149248659653 265:2.4556901 5004:2.4386199 1014:3.2136855 1015:4.9232545 
0.0028887924562202624 2.1298884014251039E-4 13:3.7523031 499:2.4878414 233:3.0097525 1195:0.8373348 24:2.9154065 523:1.8466357 247:4.9776125 252:3.2356732 19629:3.1951396 2545:2.0459511 19630:4.261609 1957:3.7807915 14:3.073438 228:1.8044066 4809:3.1824276 2126:3.963372 19632:0.4682019 22:2.8816297 19633:4.3024454 375:2.986091 32:2.8614476 262:2.6212041 254:3.811281 4799:2.4560385 22:2.8816297 4792:4.290381 231:2.9947383 522:0.52305406 19634:3.4706566 2993:3.121085 2:3.0394263 4803:3.3978288 18:3.4109786 13:3.7523031 258:3.675137 1668:4.149382 
0.17492538835300803 0.0 50:2.9214702 3926:2.350383 
5.09983841808711E-4 8.993348002330512E-4 211:4.089246 358:4.112311 359:3.941516 1014:3.2136855 1015:4.9232545 21:0.19293088 22:2.8816297 4557:4.0331297 557:3.0933836 1175:4.02337 3375:2.1823814 212:3.6553931 374:1.831836 21:0.19293088 22:2.8816297 10051:2.8083298 10052:3.2993975 2896:1.1626903 22:2.8816297 966:3.97186 21:0.19293088 246:3.4599767 2901:4.3276286 557:3.0933836 15:0.8185046 4489:4.9495835 22:2.8816297 21:0.19293088 2979:1.4511439 20007:1.5057244 233:3.0097525 10040:2.6991637 3380:1.9851178 255:3.7304578 2501:3.5843296 4088:2.1468954 744:2.1288896 1057:0.7764356 20008:2.0328336 4571:3.7900915 44:2.7017636 10:2.33899 20009:2.5128248 10:2.33899 20010:1.8205184 395:3.8440735 1723:4.12028 233:3.0097525 558:1.8950902 244:4.6765823 1141:2.221433 20011:4.290381 214:3.312344 13:3.7523031 230:1.2399162 233:3.0097525 9151:3.801521 2:3.0394263 56:0.91637856 2501:3.5843296 4616:3.8377333 371:2.524804 18:3.4109786 356:2.327046 17858:2.8697243 743:1.043845 33:2.7011507 1215:3.9863863 2142:2.811676 17575:2.878162 
0.0169204441419523 0.0017157639548327774 232:1.418472 20064:2.5578768 20065:2.7107537 257:3.6010354 22:2.8816297 7628:1.685371 231:2.9947383 1938:2.495597 378:4.2560763 22:2.8816297 20067:2.8087223 257:3.6010354 15:0.8185046 2051:2.0862608 2126:3.963372 
0.010572431927015097 0.0028821114595592805 211:4.089246 214:3.312344 1:0.78018105 4820:4.116277 233:3.0097525 1116:2.9032836 738:3.644501 15:0.8185046 223:0.15908295 371:2.524804 212:3.6553931 33:2.7011507 807:3.7716866 1708:4.9232545 2744:1.9830606 1070:3.5253146 20086:2.1262724 20087:3.9283943 378:4.2560763 2993:3.121085 18:3.4109786 20089:3.0097525 
0.0067369479821550666 4.6128251200257427E-4 485:3.020804 4473:0.8163702 2687:2.8903043 233:3.0097525 20291:5.03976 20292:1.9757056 22:2.8816297 2051:2.0862608 249:3.4779253 20291:5.03976 20294:2.5933187 42:2.3900511 14449:1.4454272 42:2.3900511 22:2.8816297 252:3.2356732 13623:1.9764268 13:3.7523031 4567:2.6162624 490:4.1537037 1122:1.5216514 486:0.7694058 4473:0.8163702 1017:1.5889547 925:3.4327178 20298:1.2997317 564:2.1910028 568:4.4294276 570:4.278642 571:4.662342 578:4.4055157 20307:3.309848 719:3.6351898 
0.028568510320230008 0.0040462839314712425 265:2.4556901 490:4.1537037 491:3.8192499 5754:1.4387372 5:4.1852207 4491:1.8002298 21:0.19293088 
0.0031984302881561096 0.0019187644445971801 211:4.089246 212:3.6553931 244:4.6765823 15:0.8185046 921:2.463419 395:3.8440735 373:2.9212158 24:2.9154065 2:3.0394263 5476:2.914905 6871:1.8530211 254:3.811281 228:1.8044066 2493:4.9232545 2501:3.5843296 22:2.8816297 20369:2.575179 20372:2.2565165 212:3.6553931 21:0.19293088 228:1.8044066 15739:4.622225 4092:3.1186743 496:2.0372286 373:2.9212158 258:3.675137 812:4.3978286 254:3.811281 255:3.7304578 558:1.8950902 257:3.6010354 1017:1.5889547 925:3.4327178 17531:1.6628746 20374:3.4001205 987:2.1343381 231:2.9947383 5083:4.2141843 3362:1.0597849 85:0.21601525 20401:2.4116073 
0.003186979763570108 0.0018092200679947653 356:2.327046 1575:2.160135 252:3.2356732 1576:1.711569 22:2.8816297 20639:4.016983 1957:3.7807915 378:4.2560763 212:3.6553931 24:2.9154065 1695:1.3619848 8146:4.0364323 2:3.0394263 5:4.1852207 10042:4.7734923 20640:1.9782788 1579:4.6765823 20641:3.2136855 212:3.6553931 360:4.3276286 20642:3.1476657 5081:1.2229685 1:0.78018105 2:3.0394263 1580:5.03976 920:3.7771266 56:0.91637856 1:0.78018105 2:3.0394263 1649:5.0745225 920:3.7771266 1579:4.6765823 1588:2.505051 1014:3.2136855 1015:4.9232545 21:0.19293088 1695:1.3619848 1016:2.2263331 233:3.0097525 1967:3.0774274 33:2.7011507 1215:3.9863863 19715:2.6291776 
0.0019485317908086441 1.529786858260657E-4 213:3.309848 216:3.9335954 3216:3.6418202 20832:2.2278244 252:3.2356732 20833:3.8681464 252:3.2356732 20835:4.8526735 9307:2.5653198 5:4.1852207 4785:2.946608 213:3.309848 212:3.6553931 233:3.0097525 20836:4.562639 1057:0.7764356 14931:3.4643948 504:3.8505075 252:3.2356732 557:3.0933836 2687:2.8903043 33:2.7011507 20837:3.7698882 252:3.2356732 16226:4.3407903 42:2.3900511 56:0.91637856 20839:2.804232 33:2.7011507 20840:3.5152144 245:3.6623418 20841:4.180576 5333:2.4487813 2409:1.5297828 263:3.966183 231:2.9947383 216:3.9335954 20844:2.0842946 257:3.6010354 557:3.0933836 6649:3.9156575 228:1.8044066 20845:1.7449211 920:3.7771266 20103:4.622225 33:2.7011507 255:3.7304578 20846:3.1678283 9815:2.3970675 
0.06722823822978609 0.0 5:4.1852207 6872:3.640486 
0.03243979206471659 0.0026759212629215053 33:2.7011507 263:3.966183 21:0.19293088 13998:3.0282223 32:2.8614476 212:3.6553931 21067:3.1537037 
0.007116524622519373 3.294856055698465E-4 3944:1.689378 22159:3.2136855 24:2.9154065 20173:2.036797 152:2.8998811 22160:2.9600227 3937:3.1567543 24:2.9154065 22161:2.2025604 3944:1.689378 128:3.593797 153:3.9106655 22162:3.4521356 22161:2.2025604 22163:2.7023778 22164:2.3248506 8885:3.4078484 22165:2.957251 129:3.8795457 159:3.9468777 137:4.278642 3951:3.2993975 22161:2.2025604 20203:3.563754 3977:4.520235 3979:4.6765823 
0.05807483865371272 0.0027511018641329806 211:4.089246 212:3.6553931 360:4.3276286 22329:4.3024454 252:3.2356732 13:3.7523031 14:3.073438 11505:3.3142257 22331:3.554913 18:3.4109786 4784:2.788965 509:4.4547334 21:0.19293088 22332:3.5727787 1960:4.100625 557:3.0933836 56:0.91637856 15:0.8185046 4489:4.9495835 21:0.19293088 22333:3.3276289 268:3.9893508 22334:2.6637452 5342:1.5072312 14898:3.510251 22348:2.1023967 
0.0012403874847076097 0.002448494534949033 212:3.6553931 245:3.6623418 22:2.8816297 1016:2.2263331 1070:3.5253146 10665:4.1852207 359:3.941516 1707:4.42131 245:3.6623418 965:2.3485427 10116:2.6724043 255:3.7304578 246:3.4599767 17856:2.451963 219:3.258834 1015:4.9232545 358:4.112311 359:3.941516 212:3.6553931 22:2.8816297 9487:3.0870051 249:3.4779253 3145:3.410194 32:2.8614476 212:3.6553931 1:0.78018105 2:3.0394263 1160:1.1789019 223:0.15908295 2:3.0394263 22358:3.4706566 1133:2.8026807 22359:3.208235 965:2.3485427 243:2.3021395 245:3.6623418 22:2.8816297 1092:4.662342 22:2.8816297 1160:1.1789019 257:3.6010354 33:2.7011507 807:3.7716866 1200:1.1551261 261:3.1691763 509:4.4547334 22:2.8816297 1092:4.662342 252:3.2356732 22:2.8816297 1707:4.42131 1092:4.662342 808:4.7065454 4427:3.7645376 2:3.0394263 1133:2.8026807 1200:1.1551261 1182:4.284472 491:3.8192499 378:4.2560763 2687:2.8903043 212:3.6553931 264:4.8314843 266:3.7645376 22366:4.209221 6883:2.396004 255:3.7304578 5484:3.6471987 925:3.4327178 5274:4.0781565 564:2.1910028 568:4.4294276 570:4.278642 571:4.662342 2064:4.0533333 578:4.4055157 4459:0.611162 719:3.6351898 
0.003450341546153457 5.602156791487032E-4 18:3.4109786 3216:3.6418202 1070:3.5253146 257:3.6010354 33:2.7011507 807:3.7716866 1070:3.5253146 233:3.0097525 920:3.7771266 22542:2.1122715 219:3.258834 13106:4.8314843 257:3.6010354 2:3.0394263 1075:5.0075755 356:2.327046 1938:2.495597 252:3.2356732 15730:1.5525892 744:2.1288896 5333:2.4487813 33:2.7011507 2:3.0394263 7932:3.881862 254:3.811281 5332:2.5969188 2:3.0394263 244:4.6765823 1944:3.675137 1:0.78018105 378:4.2560763 257:3.6010354 1695:1.3619848 13106:4.8314843 1122:1.5216514 252:3.2356732 32:2.8614476 557:3.0933836 2503:3.1796527 22545:4.0567937 22:2.8816297 22546:3.5082812 24:2.9154065 3999:1.3898265 33:2.7011507 523:1.8466357 10679:2.176712 
0.003977957308282475 7.0619504489926E-4 3803:3.4862506 211:4.089246 212:3.6553931 371:2.524804 246:3.4599767 19714:4.3902755 21:0.19293088 18:3.4109786 8026:1.307014 738:3.644501 11249:2.9484992 5779:3.4343724 557:3.0933836 15:0.8185046 11855:4.3902755 374:1.831836 371:2.524804 212:3.6553931 965:2.3485427 11582:2.7833755 966:3.97186 24:2.9154065 22870:3.3211946 3510:3.3733864 378:4.2560763 212:3.6553931 1057:0.7764356 11855:4.3902755 11356:2.5042713 6983:1.5208416 1015:4.9232545 252:3.2356732 925:3.4327178 22871:2.8222764 564:2.1910028 568:4.4294276 570:4.278642 571:4.662342 2219:4.7557635 2220:2.8198535 2221:3.7957687 2064:4.0533333 578:4.4055157 719:3.6351898 
0.005208831396140022 2.469648010228847E-4 23061:4.03976 523:1.8466357 6223:3.733748 13:3.7523031 14:3.073438 22:2.8816297 21:0.19293088 22:2.8816297 16226:4.3407903 1690:2.134255 14:3.073438 15:0.8185046 21300:4.8526735 378:4.2560763 23062:1.4835877 373:2.9212158 22:2.8816297 966:3.97186 216:3.9335954 1160:1.1789019 230:1.2399162 14062:1.662342 242:1.7729318 13:3.7523031 44:2.7017636 230:1.2399162 231:2.9947383 254:3.811281 10044:1.427588 214:3.312344 1160:1.1789019 2:3.0394263 2493:4.9232545 254:3.811281 17354:1.7922213 257:3.6010354 265:2.4556901 1016:2.2263331 1729:3.0106888 4000:3.2885997 924:3.4599767 
0.004379442126329227 0.002408837728466107 212:3.6553931 213:3.309848 233:3.0097525 4777:0.8362295 15:0.8185046 875:4.180576 21:0.19293088 965:2.3485427 8931:4.4816055 5779:3.4343724 212:3.6553931 6748:2.1938994 378:4.2560763 6884:2.6916053 2126:3.963372 212:3.6553931 22:2.8816297 4819:3.2289076 6169:2.9695802 32:2.8614476 268:3.9893508 23359:2.991737 23360:4.8314843 23361:2.217391 
0.003843658762744365 9.95277091381652E-5 13:3.7523031 23381:1.711459 216:3.9335954 1952:3.4825308 252:3.2356732 23383:1.6031573 9362:4.662342 512:4.1537037 252:3.2356732 18:3.4109786 3216:3.6418202 1175:4.02337 23387:2.8679214 6364:2.7239513 4491:1.8002298 255:3.7304578 1180:2.3696573 1:0.78018105 4796:3.0246584 1070:3.5253146 2743:4.510251 252:3.2356732 523:1.8466357 229:1.8453526 50:2.9214702 924:3.4599767 24:2.9154065 1967:3.0774274 16087:2.5142171 20490:4.4377003 10679:2.176712 23416:4.662342 
0.0035814551350430808 0.0010991065128425248 356:2.327046 1575:2.160135 252:3.2356732 1576:1.711569 257:3.6010354 557:3.0933836 1089:2.957251 216:3.9335954 16738:3.4679618 1070:3.5253146 523:1.8466357 2545:2.0459511 255:3.7304578 523:1.8466357 914:2.6485536 255:3.7304578 23441:3.4504123 522:0.52305406 2941:2.2466686 33:2.7011507 1215:3.9863863 5813:1.7983096 17034:4.2242846 
